„ herauszufinden ||| to discover ||| 0.0714286 0.0363154 0.333333 0.525223 ||| 0-0 1-1 ||| 14 3 1
„ Marktswirtschaft ||| market economy ||| 0.333333 0.00356139 1 0.458369 ||| 0-0 1-1 2-2 ||| 3 1 1 ||| |||
„ soziales Modell “ eigentlich bedeutet . ||| ‘ social model ’ actually means . ||| 1 1.22818e-05 1 0.0174051 ||| 0-0 1-1 2-2 3-3 4-4 5-5 6-6 ||| 1 1 1 ||| |||
„ Kundenauftragsabwicklungs ||| Customer Order Processing ||| 1 1.28105e-05 1 0.0183332 ||| 0-0 1-1 2-2 3-3 4-4 5-5 ||| 1 1 1 ||| |||
„ soziales Modell “ eigentlich ||| ‘ social model ’ actually ||| 1 6.5278e-05 1 0.0443333 ||| 0-0 1-1 2-2 3-3 4-4 ||| 1 1 1 ||| |||
„ soziales Modell “ ||| ‘ social model ’ ||| 0.333333 0.000498335 1 0.278801 ||| 0-0 1-1 2-2 3-3 ||| 3 1 1 ||| |||
„ soziales ||| ‘ social ||| 0.142857 0.0101652 1 0.536155 ||| 0-0 1-1 ||| 14 2 2 ||| |||
„ Baugenhemigung ||| building permit ||| 1 0.00243349 1 0.156008 ||| 0-0 1-1 2-2 ||| 1 1 1 ||| |||
„ Lehrbuch||| text book ||| 1 2.13138e-08 1 0.000170558 ||| 0-0 1-1 2-2 3-3 5-4 ||| 1 1 1 ||| |||
„ soziales Übel “ dar ||| ‘ social evil ’ ||| 0.5 4.49918e-07 1 0.0948914 ||| 0-0 1-1 2-2 3-3 ||| 2 1 1 ||| |||
„ soziales Übel “ ||| ‘ social evil ’ ||| 0.5 0.000340512 1 0.0948914 ||| 0-0 1-1 2-2 3-3 ||| 2 1 1 ||| |||
„ sozialistischen Marktwirtschaft ||| ‘ market socialist ||| 1 0.00642224 1 0.115859 ||| 0-0 2-1 1-2 ||| 1 1 1 ||| |||
„ sozialistischen Marktwirtschaft “ ||| ‘ market socialist ’ ||| 1 0.000898646 1 0.0704707 ||| 0-0 2-1 1-2 3-3 ||| 1 1 1 ||| |||
„ sozialistischen ||| &apos; socialist ||| 0.5 0.00412542 1 0.0591494 ||| 0-0 1-1 ||| 2 1 1 ||| |||
„ sozialistischen “ führenden Politiker der ||| &apos; socialist &apos; leaders of the ||| 1 5.08245e-08 1 0.000212082 ||| 0-0 1-1 2-2 3-3 4-3 5-4 5-5 ||| 1 1 1 ||| |||
„ sozialistischen “ führenden Politiker ||| &apos; socialist &apos; leaders ||| 1 1.85736e-07 1 0.00173033 ||| 0-0 1-1 2-2 3-3 4-3 ||| 1 1 1 ||| |||
„ sozialistischen “ ||| &apos; socialist &apos; ||| 1 4.65207e-05 1 0.00831864 ||| 0-0 1-1 2-2 ||| 1 1 1 ||| |||
„ special searches ||| &apos; special searches ||| 1 2.88272e-06 1 0.0175868 ||| 0-0 1-1 0-2 2-2 ||| 1 1 1 ||| |||
„ special searches “ der Eurodac-Zentraleinheit und ||| searches in relation to Eurodac and ||| 1 6.6777e-10 1 9.83329e-09 ||| 0-0 1-0 2-0 3-0 5-0 4-1 4-2 5-4 6-5 ||| 1 1 1 ||| |||
„ special searches “ der Eurodac-Zentraleinheit ||| searches in relation to Eurodac ||| 1 8.03605e-10 1 1.14944e-08 ||| 0-0 1-0 2-0 3-0 5-0 4-1 4-2 5-4 ||| 1 1 1 ||| |||
„ special searches “ ||| &apos; special searches &apos; ||| 1 3.25072e-08 1 0.00247337 ||| 0-0 1-1 0-2 2-2 3-3 ||| 1 1 1 ||| |||
„ spezialisiert ||| ‘ specialises ||| 1 0.176222 1 0.0590341 ||| 0-0 1-1 ||| 1 1 1 ||| |||
„ spezifische Aktionen , welche ||| ‘ specific action which ||| 1 8.50679e-06 1 0.0255008 ||| 0-0 1-1 2-2 4-3 ||| 1 1 1 ||| |||
„ spezifische Aktionen , ||| ‘ specific action ||| 0.333333 0.000674928 1 0.112931 ||| 0-0 1-1 2-2 ||| 3 1 1 ||| |||
„ spezifische Aktionen ||| ‘ specific action ||| 0.333333 0.00211933 1 0.112931 ||| 0-0 1-1 2-2 ||| 3 1 1 ||| |||
„ spezifische Maßnahmen zur Verringerung ||| ‘ specific action to reduce ||| 1 2.38741e-05 1 0.00337756 ||| 0-0 1-1 2-2 3-3 4-4 ||| 1 1 1 ||| |||
„ spezifische Maßnahmen zur ||| ‘ specific action to ||| 1 0.000330265 1 0.0185794 ||| 0-0 1-1 2-2 3-3 ||| 1 1 1 ||| |||
„ spezifische Maßnahmen ||| ‘ specific action ||| 0.333333 0.0119896 1 0.0590817 ||| 0-0 1-1 2-2 ||| 3 1 1 ||| |||
„ spezifische ||| ‘ specific ||| 0.5 0.065817 1 0.497536 ||| 0-0 1-1 ||| 4 2 2 ||| |||
„ spontane ||| &apos; spontaneous ||| 1 0.00213104 1 0.0528396 ||| 0-0 1-1 ||| 1 1 1 ||| |||
„ spontane “ Demonstrationen ||| &apos; spontaneous &apos; demonstrations ||| 1 1.51051e-05 1 0.00580429 ||| 0-0 1-1 2-2 3-3 ||| 1 1 1 ||| |||
„ spontane “ ||| &apos; spontaneous &apos; ||| 1 2.40308e-05 1 0.00743125 ||| 0-0 1-1 2-2 ||| 1 1 1 ||| |||
„ spätestens zwei Jahre nach der Verabschiedung ||| ‘ within two years of the adoption ||| 1 2.19882e-10 1 9.32511e-07 ||| 0-0 1-1 2-2 3-3 4-4 5-5 6-6 ||| 1 1 1 ||| |||
„ spätestens zwei Jahre nach der ||| ‘ within two years of the ||| 1 1.67491e-09 1 2.33243e-06 ||| 0-0 1-1 2-2 3-3 4-4 5-5 ||| 1 1 1 ||| |||
„ spätestens zwei Jahre nach ||| ‘ within two years of ||| 1 6.26899e-09 1 4.61827e-06 ||| 0-0 1-1 2-2 3-3 4-4 ||| 1 1 1 ||| |||
„ spätestens zwei Jahre ||| ‘ within two years ||| 1 2.536e-05 1 0.00135429 ||| 0-0 1-1 2-2 3-3 ||| 1 1 1 ||| |||
„ spätestens zwei ||| ‘ within two ||| 1 8.75751e-05 1 0.00202708 ||| 0-0 1-1 2-2 ||| 1 1 1 ||| |||
„ spätestens ||| ‘ within ||| 1 0.000141877 1 0.00223055 ||| 0-0 1-1 ||| 1 1 1 ||| |||
„ staatlich gesicherte Sozialversicherungssysteme ||| &apos; state protection systems ||| 1 1.01117e-11 1 3.07253e-05 ||| 0-0 1-1 2-2 3-3 ||| 1 1 1 ||| |||
„ staatlich gesicherte Sozialversicherungssysteme “ , ||| &apos; state protection systems &apos; , ||| 1 7.54127e-14 1 2.11238e-06 ||| 0-0 1-1 2-2 3-3 4-4 5-5 ||| 1 1 1 ||| |||
„ staatlich gesicherte Sozialversicherungssysteme “ , „ ||| &apos; state protection systems &apos; , &apos; ||| 1 8.65745e-16 1 3.06048e-07 ||| 0-0 1-1 2-2 3-3 4-4 5-5 6-6 ||| 1 1 1 ||| |||
„ staatlich gesicherte Sozialversicherungssysteme “ ||| &apos; state protection systems &apos; ||| 1 1.14025e-13 1 4.32113e-06 ||| 0-0 1-1 2-2 3-3 4-4 ||| 1 1 1 ||| |||
„ staatlich gesicherte ||| &apos; state protection ||| 1 7.24736e-10 1 0.000104781 ||| 0-0 1-1 2-2 ||| 1 1 1 ||| |||
„ staatlich ||| &apos; state ||| 0.111111 2.11911e-05 1 0.0159268 ||| 0-0 1-1 ||| 9 1 1 ||| |||
„ staatliche Beihilfen ||| ‘ state aid ||| 1 0.00541726 1 0.168777 ||| 0-0 1-1 2-2 ||| 1 1 1 ||| |||
„ staatliche Beihilfen “ ||| ‘ state aid ’ ||| 1 0.000758021 1 0.102658 ||| 0-0 1-1 2-2 3-3 ||| 1 1 1 ||| |||
„ staatliche ||| ‘ state ||| 0.333333 0.0350027 1 0.266821 ||| 0-0 1-1 ||| 3 1 1 ||| |||
„ staatliches Flugzeug ||| ‘ State aircraft ||| 1 1.79633e-05 1 0.00850163 ||| 0-0 1-1 2-2 ||| 1 1 1 ||| |||
„ staatliches Flugzeug “ , ||| ‘ State aircraft ’ ||| 0.5 8.00472e-07 1 0.00517108 ||| 0-0 1-1 2-2 3-3 ||| 2 1 1 ||| |||
„ staatliches Flugzeug “ ||| ‘ State aircraft ’ ||| 0.5 2.51356e-06 1 0.00517108 ||| 0-0 1-1 2-2 3-3 ||| 2 1 1 ||| |||
„ staatliches ||| of ‘ State ||| 1 0.000275386 0.333333 0.0133309 ||| 0-1 1-2 ||| 1 3 1 ||| |||
„ staatliches ||| ‘ State ||| 0.5 0.000275386 0.666667 0.0418428 ||| 0-0 1-1 ||| 4 3 2 ||| |||
„ stabil ||| ‘ stable ||| 1 0.0643166 1 0.354982 ||| 0-0 1-1 ||| 1 1 1 ||| |||
„ stabil “ meine ich nicht nur ||| ‘ stable ’ I mean not only ||| 1 0.000171465 1 0.000752039 ||| 0-0 1-1 2-2 4-3 3-4 5-5 6-6 ||| 1 1 1 ||| |||
„ stabil “ meine ich nicht ||| ‘ stable ’ I mean not ||| 1 0.000257128 1 0.00147375 ||| 0-0 1-1 2-2 4-3 3-4 5-5 ||| 1 1 1 ||| |||
„ stabil “ meine ich ||| ‘ stable ’ I mean ||| 1 0.000338761 1 0.00242525 ||| 0-0 1-1 2-2 4-3 3-4 ||| 1 1 1 ||| |||
„ stabil “ ||| ‘ stable ’ ||| 1 0.00899963 1 0.215916 ||| 0-0 1-1 2-2 ||| 1 1 1 ||| |||
„ stark zuckerhaltig ||| a ‘ high sugar content ||| 1 9.58309e-07 0.333333 2.01913e-05 ||| 0-1 1-2 2-3 2-4 ||| 1 3 1 ||| |||
„ stark zuckerhaltig ||| has a ‘ high sugar content ||| 1 9.58309e-07 0.333333 1.06392e-07 ||| 0-2 1-3 2-4 2-5 ||| 1 3 1 ||| |||
„ stark zuckerhaltig ||| ‘ high sugar content ||| 1 9.58309e-07 0.333333 0.000400636 ||| 0-0 1-1 2-2 2-3 ||| 1 3 1 ||| |||
„ stark zuckerhaltig “ ist ||| a ‘ high sugar content ’ will ||| 1 2.43211e-09 0.5 1.238e-07 ||| 0-1 1-2 2-3 2-4 3-5 4-6 ||| 1 2 1 ||| |||
„ stark zuckerhaltig “ ist ||| ‘ high sugar content ’ will ||| 1 2.43211e-09 0.5 2.45644e-06 ||| 0-0 1-1 2-2 2-3 3-4 4-5 ||| 1 2 1 ||| |||
„ stark zuckerhaltig “ ||| a ‘ high sugar content ’ ||| 1 1.34093e-07 0.333333 1.22812e-05 ||| 0-1 1-2 2-3 2-4 3-5 ||| 1 3 1 ||| |||
„ stark zuckerhaltig “ ||| has a ‘ high sugar content ’ ||| 1 1.34093e-07 0.333333 6.47123e-08 ||| 0-2 1-3 2-4 2-5 3-6 ||| 1 3 1 ||| |||
„ stark zuckerhaltig “ ||| ‘ high sugar content ’ ||| 1 1.34093e-07 0.333333 0.000243685 ||| 0-0 1-1 2-2 2-3 3-4 ||| 1 3 1 ||| |||
„ stark ||| a ‘ high ||| 1 0.00168154 0.333333 0.00016153 ||| 0-1 1-2 ||| 1 3 1 ||| |||
„ stark ||| has a ‘ high ||| 1 0.00168154 0.333333 8.51135e-07 ||| 0-2 1-3 ||| 1 3 1 ||| |||
„ stark ||| ‘ high ||| 1 0.00168154 0.333333 0.00320508 ||| 0-0 1-1 ||| 1 3 1 ||| |||
„ starken internationalen Wettbewerbs ||| ‘ fierce international competition ||| 1 0.000866901 1 0.00135055 ||| 0-0 1-1 2-2 3-3 ||| 1 1 1 ||| |||
„ starken internationalen Wettbewerbs “ ||| ‘ fierce international competition ’ ||| 1 0.000121303 1 0.000821468 ||| 0-0 1-1 2-2 3-3 4-4 ||| 1 1 1 ||| |||
„ starken internationalen ||| ‘ fierce international ||| 1 0.00839431 1 0.00149969 ||| 0-0 1-1 2-2 ||| 1 1 1 ||| |||
„ starken ||| ‘ fierce ||| 1 0.0178829 1 0.001684 ||| 0-0 1-1 ||| 1 1 1 ||| |||
„ starker Anziehungspol ||| ‘ appealing and virtuous ||| 1 3.20868e-06 1 0.000242067 ||| 0-0 1-1 2-2 2-3 ||| 1 1 1 ||| |||
„ starker Anziehungspol “ ||| ‘ appealing and virtuous ’ ||| 1 4.48982e-07 1 0.000147236 ||| 0-0 1-1 2-2 2-3 3-4 ||| 1 1 1 ||| |||
„ starker ||| ‘ appealing ||| 1 0.00128972 1 0.000968268 ||| 0-0 1-1 ||| 1 1 1 ||| |||
„ starkes Mandat ||| ‘ strong mandate ||| 1 0.0252444 1 0.345847 ||| 0-0 1-1 2-2 ||| 1 1 1 ||| |||
„ starkes Mandat “ ||| ‘ strong mandate ’ ||| 1 0.00353238 1 0.21036 ||| 0-0 1-1 2-2 3-3 ||| 1 1 1 ||| |||
„ starkes ||| ‘ strong ||| 1 0.0534196 1 0.409956 ||| 0-0 1-1 ||| 1 1 1 ||| |||
„ statistische Effekt “ unterliegen ||| &apos; statistical effect &apos; ||| 1 1.50167e-09 1 0.00427338 ||| 0-0 1-1 2-2 4-2 3-3 ||| 1 1 1 ||| |||
„ statistische ||| &apos; statistical ||| 0.142857 0.00273537 1 0.0910793 ||| 0-0 1-1 ||| 7 1 1 ||| |||
„ statistischen Effekt ||| ‘ statistical effect ||| 0.5 0.00939563 1 0.26758 ||| 0-0 1-1 2-2 ||| 2 1 1 ||| |||
„ statistischen Effekt “ ||| ‘ statistical effect ’ ||| 1 0.0013147 1 0.162755 ||| 0-0 1-1 2-2 3-3 ||| 1 1 1 ||| |||
„ statistischen Konvergenz ||| &apos; statistical convergence ||| 0.666667 0.00179239 1 0.0899707 ||| 0-0 1-1 2-2 ||| 3 2 2 ||| |||
„ statistischen Konvergenz “ ||| &apos; statistical convergence &apos; ||| 0.666667 2.0212e-05 1 0.0126533 ||| 0-0 1-1 2-2 3-3 ||| 3 2 2 ||| |||
„ statistischen ||| &apos; statistical ||| 0.285714 0.00440405 0.666667 0.0998614 ||| 0-0 1-1 ||| 7 3 2 ||| |||
„ statistischen ||| ‘ statistical ||| 0.333333 0.254811 0.333333 0.403766 ||| 0-0 1-1 ||| 3 3 1 ||| |||
„ stellt fest , dass die Abschaffung ||| ‘ Notes that the scrapping ||| 1 2.5307e-05 1 2.29709e-07 ||| 0-0 1-1 2-1 3-2 4-2 5-3 6-4 ||| 1 1 1 ||| |||
„ stellt fest , dass die ||| ‘ Notes that the ||| 1 0.000442872 1 3.13657e-05 ||| 0-0 1-1 2-1 3-2 4-2 5-3 ||| 1 1 1 ||| |||
„ stellt fest , dass ||| ‘ Notes that ||| 1 0.00145388 0.5 5.48497e-05 ||| 0-0 1-1 2-1 3-2 4-2 ||| 1 2 1 ||| |||
„ stellt fest , dass ||| ‘ notes that ||| 1 0.000351367 0.5 0.00377756 ||| 0-0 1-1 2-1 3-2 4-2 ||| 1 2 1 ||| |||
„ stellt fest ||| ‘ Notes ||| 1 0.0157212 0.5 0.000119532 ||| 0-0 1-1 2-1 ||| 1 2 1 ||| |||
„ stellt fest ||| ‘ notes ||| 1 0.00379943 0.5 0.00823233 ||| 0-0 1-1 2-1 ||| 1 2 1 ||| |||
„ stillschweigende Zustimmung ||| ‘ tacit consent ||| 1 0.0594098 1 0.0160193 ||| 0-0 1-1 2-2 ||| 1 1 1 ||| |||
„ stillschweigende Zustimmung “ ||| ‘ tacit consent ’ ||| 1 0.00831304 1 0.00974364 ||| 0-0 1-1 2-2 3-3 ||| 1 1 1 ||| |||
„ stillschweigende ||| ‘ tacit ||| 1 0.131529 1 0.188968 ||| 0-0 1-1 ||| 1 1 1 ||| |||
„ strafbare Handlung ||| ‘ criminal act ||| 1 4.1077e-05 1 0.0401319 ||| 0-0 1-1 2-2 ||| 1 1 1 ||| |||
„ strafbare Handlung “ . ||| ‘ criminal act ’ . ||| 1 5.5106e-06 1 0.0231743 ||| 0-0 1-1 2-2 3-3 4-4 ||| 1 1 1 ||| |||
„ strafbare Handlung “ ||| ‘ criminal act ’ ||| 1 5.74778e-06 1 0.02441 ||| 0-0 1-1 2-2 3-3 ||| 1 1 1 ||| |||
„ strafbare ||| ‘ criminal ||| 1 0.00454865 1 0.168639 ||| 0-0 1-1 ||| 1 1 1 ||| |||
„ strategische Zielsetzungen ||| ‘ strategic objects ||| 1 0.00112333 1 0.000494009 ||| 0-0 1-1 2-2 ||| 1 1 1 ||| |||
„ strategische Zielsetzungen “ , ||| ‘ strategic objects ’ , ||| 1 0.000103957 1 0.000146888 ||| 0-0 1-1 2-2 3-3 4-4 ||| 1 1 1 ||| |||
„ strategische Zielsetzungen “ , „ ||| ‘ strategic objects ’ , ‘ ||| 1 6.90504e-05 1 8.60472e-05 ||| 0-0 1-1 2-2 3-3 4-4 5-5 ||| 1 1 1 ||| |||
„ strategische Zielsetzungen “ ||| ‘ strategic objects ’ ||| 1 0.000157185 1 0.000300478 ||| 0-0 1-1 2-2 3-3 ||| 1 1 1 ||| |||
„ strategische ||| ‘ strategic ||| 0.333333 0.213432 1 0.545866 ||| 0-0 1-1 ||| 3 1 1 ||| |||
„ strategischen Fahrplan ||| ‘ strategic roadmap ||| 1 0.0848868 1 0.122707 ||| 0-0 1-1 2-2 ||| 1 1 1 ||| |||
„ strategischen Fahrplan “ ||| ‘ strategic roadmap ’ ||| 1 0.011878 1 0.074636 ||| 0-0 1-1 2-2 3-3 ||| 1 1 1 ||| |||
„ strategischen Partnerschaft ||| &apos; strategic partnership ||| 0.333333 0.00263105 1 0.101223 ||| 0-0 1-1 2-2 ||| 3 1 1 ||| |||
„ strategischen Partnerschaft “ mit Russland ||| &apos; strategic partnership &apos; with Russia , ||| 1 8.87326e-06 0.5 0.0011179 ||| 0-0 1-1 2-2 3-3 4-4 5-5 ||| 1 2 1 ||| |||
„ strategischen Partnerschaft “ mit Russland ||| &apos; strategic partnership &apos; with Russia ||| 1 8.87326e-06 0.5 0.00632762 ||| 0-0 1-1 2-2 3-3 4-4 5-5 ||| 1 2 1 ||| |||
„ strategischen Partnerschaft “ mit ||| &apos; strategic partnership &apos; with ||| 1 1.2824e-05 1 0.00675266 ||| 0-0 1-1 2-2 3-3 4-4 ||| 1 1 1 ||| |||
„ strategischen Partnerschaft “ ||| &apos; strategic partnership &apos; ||| 0.5 2.96693e-05 1 0.0142357 ||| 0-0 1-1 2-2 3-3 ||| 2 1 1 ||| |||
„ strategischen ||| &apos; strategic ||| 0.0384615 0.00431782 0.5 0.131615 ||| 0-0 1-1 ||| 26 2 1 ||| |||
„ strategischen ||| ‘ strategic ||| 0.333333 0.249822 0.5 0.532155 ||| 0-0 1-1 ||| 3 2 1 ||| |||
„ striktes ||| ‘ a close ||| 0.333333 7.73816e-05 1 0.000641807 ||| 0-0 1-2 ||| 3 1 1 ||| |||
„ striktes Überwachungssystem ||| ‘ a close monitoring system ||| 1 5.72725e-07 1 8.53957e-05 ||| 0-0 1-2 2-3 2-4 ||| 1 1 1 ||| |||
„ sub-sowjetische “ Weg . ||| sub-Soviet route . ||| 1 0.00570372 1 0.041757 ||| 0-0 1-0 2-0 1-1 3-1 4-2 ||| 1 1 1 ||| |||
„ sub-sowjetische “ Weg ||| sub-Soviet route ||| 1 0.00594922 1 0.0439836 ||| 0-0 1-0 2-0 1-1 3-1 ||| 1 1 1 ||| |||
„ substantielle Erhöhung ||| &apos; substantial increase ||| 1 2.5751e-05 0.5 0.0325082 ||| 0-0 1-1 2-2 ||| 1 2 1 ||| |||
„ substantielle Erhöhung ||| a &apos; substantial increase ||| 1 2.5751e-05 0.5 0.00163835 ||| 0-1 1-2 2-3 ||| 1 2 1 ||| |||
„ substantielle Erhöhung “ ||| &apos; substantial increase &apos; ||| 1 2.90383e-07 0.5 0.00457188 ||| 0-0 1-1 2-2 3-3 ||| 1 2 1 ||| |||
„ substantielle Erhöhung “ ||| a &apos; substantial increase &apos; ||| 1 2.90383e-07 0.5 0.000230414 ||| 0-1 1-2 2-3 3-4 ||| 1 2 1 ||| |||
„ substantielle ||| &apos; substantial ||| 0.0833333 0.000236146 0.5 0.0742301 ||| 0-0 1-1 ||| 12 2 1 ||| |||
„ substantielle ||| a &apos; substantial ||| 1 0.000236146 0.5 0.00374106 ||| 0-1 1-2 ||| 1 2 1 ||| |||
„ substanzielle Beteiligung ||| ‘ meaningful participation ||| 0.5 0.000777374 1 0.00269157 ||| 0-0 1-1 2-2 ||| 2 1 1 ||| |||
„ substanzielle Beteiligung “ , d. ||| ‘ meaningful participation ’ , in other ||| 0.5 2.88842e-07 1 1.1107e-05 ||| 0-0 1-1 2-2 3-3 4-4 5-5 5-6 ||| 2 1 1 ||| |||
„ substanzielle Beteiligung “ , ||| ‘ meaningful participation ’ , ||| 0.5 7.19408e-05 1 0.00080031 ||| 0-0 1-1 2-2 3-3 4-4 ||| 2 1 1 ||| |||
„ substanzielle Beteiligung “ ||| ‘ meaningful participation ’ ||| 0.5 0.000108776 1 0.00163713 ||| 0-0 1-1 2-2 3-3 ||| 2 1 1 ||| |||
„ substanzielle ||| ‘ meaningful ||| 0.5 0.00239504 1 0.00593714 ||| 0-0 1-1 ||| 2 1 1 ||| |||
„ supersicheren Drittländer “ ist ||| ‘ super safe ’ third countries is ||| 1 1.679e-05 1 0.00106004 ||| 0-0 1-1 1-2 3-3 2-4 2-5 4-6 ||| 1 1 1 ||| |||
„ supersicheren Drittländer “ ||| ‘ super safe ’ third countries ||| 1 4.70587e-05 1 0.00159528 ||| 0-0 1-1 1-2 3-3 2-4 2-5 ||| 1 1 1 ||| |||
„ supersicheren ||| ‘ super safe ||| 1 0.00933654 1 0.0131805 ||| 0-0 1-1 1-2 ||| 1 1 1 ||| |||
„ supersicherer ||| of the ‘ super-safe ||| 1 0.0603836 0.333333 0.00294469 ||| 0-2 1-3 ||| 1 3 1 ||| |||
„ supersicherer ||| the ‘ super-safe ||| 1 0.0603836 0.333333 0.00924278 ||| 0-1 1-2 ||| 1 3 1 ||| |||
„ supersicherer ||| ‘ super-safe ||| 1 0.0603836 0.333333 0.195266 ||| 0-0 1-1 ||| 1 3 1 ||| |||
„ supersicherer “ Staat . ||| of the ‘ super-safe ’ country . ||| 1 6.58031e-05 0.333333 9.63394e-05 ||| 0-2 1-3 2-4 3-5 4-6 ||| 1 3 1 ||| |||
„ supersicherer “ Staat . ||| the ‘ super-safe ’ country . ||| 1 6.58031e-05 0.333333 0.00030239 ||| 0-1 1-2 2-3 3-4 4-5 ||| 1 3 1 ||| |||
„ supersicherer “ Staat . ||| ‘ super-safe ’ country . ||| 1 6.58031e-05 0.333333 0.0063884 ||| 0-0 1-1 2-2 3-3 4-4 ||| 1 3 1 ||| |||
„ supersicherer “ Staat ||| of the ‘ super-safe ’ country ||| 1 6.86354e-05 0.333333 0.000101477 ||| 0-2 1-3 2-4 3-5 ||| 1 3 1 ||| |||
„ supersicherer “ Staat ||| the ‘ super-safe ’ country ||| 1 6.86354e-05 0.333333 0.000318514 ||| 0-1 1-2 2-3 3-4 ||| 1 3 1 ||| |||
„ supersicherer “ Staat ||| ‘ super-safe ’ country ||| 1 6.86354e-05 0.333333 0.00672905 ||| 0-0 1-1 2-2 3-3 ||| 1 3 1 ||| |||
„ supersicherer “ ||| of the ‘ super-safe ’ ||| 1 0.00844931 0.333333 0.0017911 ||| 0-2 1-3 2-4 ||| 1 3 1 ||| |||
„ supersicherer “ ||| the ‘ super-safe ’ ||| 1 0.00844931 0.333333 0.00562188 ||| 0-1 1-2 2-3 ||| 1 3 1 ||| |||
„ supersicherer “ ||| ‘ super-safe ’ ||| 1 0.00844931 0.333333 0.11877 ||| 0-0 1-1 2-2 ||| 1 3 1 ||| |||
„ supranationale ||| ‘ supranational ||| 1 0.125759 1 0.457052 ||| 0-0 1-1 ||| 1 1 1 ||| |||
„ supranationale “ Strukturen ||| ‘ supranational ’ structures ||| 1 0.0101605 1 0.222243 ||| 0-0 1-1 2-2 3-3 ||| 1 1 1 ||| |||
„ supranationale “ ||| ‘ supranational ’ ||| 1 0.0175971 1 0.278 ||| 0-0 1-1 2-2 ||| 1 1 1 ||| |||
„ sur ||| ‘ on ||| 0.2 3.85248e-06 1 0.103376 ||| 0-0 1-1 ||| 5 1 1 ||| |||
„ suspected high ||| ‘ suspected high ||| 1 2.81836e-06 1 0.186391 ||| 0-0 1-1 2-2 ||| 1 1 1 ||| |||
„ suspected high “ , sondern ||| ‘ suspected high ’ , but ||| 1 5.65528e-08 1 0.0379259 ||| 0-0 1-1 2-2 3-3 4-4 5-5 ||| 1 1 1 ||| |||
„ suspected high “ , sondern „ ||| ‘ suspected high ’ , but ‘ ||| 1 3.75635e-08 1 0.0222169 ||| 0-0 1-1 2-2 3-3 4-4 5-5 6-6 ||| 1 1 1 ||| |||
„ suspected high “ , ||| ‘ suspected high ’ , ||| 1 2.6082e-07 1 0.0554214 ||| 0-0 1-1 2-2 3-3 4-4 ||| 1 1 1 ||| |||
„ suspected high “ ||| ‘ suspected high ’ ||| 1 3.94365e-07 1 0.113371 ||| 0-0 1-1 2-2 3-3 ||| 1 1 1 ||| |||
„ suspected low ||| ‘ suspected low ||| 1 3.29119e-06 1 0.209214 ||| 0-0 1-1 2-2 ||| 1 1 1 ||| |||
„ suspected low “ . ||| ‘ suspected low ’ . ||| 1 4.41523e-07 1 0.120811 ||| 0-0 1-1 2-2 3-3 4-4 ||| 1 1 1 ||| |||
„ suspected low “ ||| ‘ suspected low ’ ||| 1 4.60527e-07 1 0.127253 ||| 0-0 1-1 2-2 3-3 ||| 1 1 1 ||| |||
„ suspected ||| ‘ suspected ||| 1 0.00278302 1 0.585799 ||| 0-0 1-1 ||| 3 3 3 ||| |||
„ systematisch ||| &apos; systematic ||| 0.333333 0.00162103 1 0.0247559 ||| 0-0 1-1 ||| 3 1 1 ||| |||
„ systematisch “ ||| &apos; systematic &apos; ||| 1 1.82797e-05 1 0.00348161 ||| 0-0 1-1 2-2 ||| 1 1 1 ||| |||
„ südliche Dimension ||| ‘ Southern Dimension ||| 1 0.0194928 1 0.0134781 ||| 0-0 1-1 2-2 ||| 1 1 1 ||| |||
„ südliche Dimension “ ||| ‘ Southern Dimension ’ ||| 1 0.00272757 1 0.00819801 ||| 0-0 1-1 2-2 3-3 ||| 1 1 1 ||| |||
„ südliche ||| ‘ Southern ||| 1 0.0230899 1 0.138378 ||| 0-0 1-1 ||| 1 1 1 ||| |||
„ t ||| ‘ t ||| 0.125 0.303531 1 0.227811 ||| 0-0 1-1 ||| 8 1 1 ||| |||
„ t ” ||| ‘ t ’ ||| 1 0.000446706 1 0.0262859 ||| 0-0 1-1 2-2 ||| 1 1 1 ||| |||
„ tatsächlichen gemeinsamen Interessen und Fähigkeiten ||| ‘ real common interests and capabilities ||| 1 0.000883887 1 0.0127566 ||| 0-0 1-1 2-2 3-3 4-4 5-5 ||| 1 1 1 ||| |||
„ tatsächlichen gemeinsamen Interessen und ||| ‘ real common interests and ||| 1 0.00311793 1 0.0842054 ||| 0-0 1-1 2-2 3-3 4-4 ||| 1 1 1 ||| |||
„ tatsächlichen gemeinsamen Interessen ||| ‘ real common interests ||| 1 0.00375217 1 0.0984302 ||| 0-0 1-1 2-2 3-3 ||| 1 1 1 ||| |||
„ tatsächlichen gemeinsamen ||| ‘ real common ||| 1 0.006487 1 0.113448 ||| 0-0 1-1 2-2 ||| 1 1 1 ||| |||
„ tatsächlichen ||| ‘ real ||| 0.4 0.0233229 1 0.200286 ||| 0-0 1-1 ||| 5 2 2 ||| |||
„ tatsächlichen “ ||| ‘ real ’ ||| 1 0.0032635 1 0.121823 ||| 0-0 1-1 2-2 ||| 1 1 1 ||| |||
„ technisch unvermeidbar ||| &apos; technically unavoidable ||| 1 0.000457949 1 0.015244 ||| 0-0 1-1 2-2 ||| 1 1 1 ||| |||
„ technisch unvermeidbar “ ||| &apos; technically unavoidable &apos; ||| 1 5.16411e-06 1 0.00214389 ||| 0-0 1-1 2-2 3-3 ||| 1 1 1 ||| |||
„ technisch ||| &apos; technically ||| 0.333333 0.00611496 0.5 0.0685982 ||| 0-0 1-1 ||| 3 2 1 ||| |||
„ technisch ||| ‘ technical ||| 0.333333 0.0224714 0.5 0.175329 ||| 0-0 1-1 ||| 3 2 1 ||| |||
„ technisch “ und ||| ‘ technical ’ and ||| 1 0.00261286 1 0.0912316 ||| 0-0 1-1 2-2 3-3 ||| 1 1 1 ||| |||
„ technisch “ und „ neutral ||| ‘ technical ’ and ‘ neutral ||| 1 0.000513671 1 0.0391791 ||| 0-0 1-1 2-2 3-3 4-4 5-5 ||| 1 1 1 ||| |||
„ technisch “ und „ neutral “ ||| ‘ technical ’ and ‘ neutral ’ ||| 1 7.18765e-05 1 0.0238305 ||| 0-0 1-1 2-2 3-3 4-4 5-5 6-6 ||| 1 1 1 ||| |||
„ technisch “ und „ ||| ‘ technical ’ and ‘ ||| 1 0.00173551 1 0.0534434 ||| 0-0 1-1 2-2 3-3 4-4 ||| 1 1 1 ||| |||
„ technisch “ ||| ‘ technical ’ ||| 1 0.00314435 1 0.106643 ||| 0-0 1-1 2-2 ||| 1 1 1 ||| |||
„ technische Maßnahmen ||| ‘ technical measures ||| 0.5 0.143508 1 0.293083 ||| 0-0 1-1 2-2 ||| 2 1 1 ||| |||
„ technische Maßnahmen “ ||| ‘ technical measures ’ ||| 0.5 0.0200806 1 0.178266 ||| 0-0 1-1 2-2 3-3 ||| 2 1 1 ||| |||
„ technische ||| ‘ technical ||| 0.333333 0.215394 1 0.513425 ||| 0-0 1-1 ||| 3 1 1 ||| |||
„ technischen Maßnahmen ||| ‘ technical measures ||| 0.5 0.167392 1 0.291953 ||| 0-0 1-1 2-2 ||| 2 1 1 ||| |||
„ technischen Maßnahmen “ ||| ‘ technical measures ’ ||| 0.5 0.0234227 1 0.177579 ||| 0-0 1-1 2-2 3-3 ||| 2 1 1 ||| |||
„ technischen ||| ‘ technical ||| 0.333333 0.251243 1 0.511446 ||| 0-0 1-1 ||| 3 1 1 ||| |||
„ territorial ||| ‘ territorial ||| 0.5 0.00284339 1 0.136232 ||| 0-0 1-1 ||| 2 1 1 ||| |||
„ territorial “ zu ||| ‘ territorial ’ ||| 0.5 1.4969e-05 1 0.0828627 ||| 0-0 1-1 2-2 ||| 2 1 1 ||| |||
„ territorial “ ||| ‘ territorial ’ ||| 0.5 0.000397868 1 0.0828627 ||| 0-0 1-1 2-2 ||| 2 1 1 ||| |||
„ territoriale Kohäsion ||| ‘ territorial cohesion ||| 1 0.0259136 1 0.464694 ||| 0-0 1-1 2-2 ||| 1 1 1 ||| |||
„ territoriale Kohäsion “ ||| ‘ territorial cohesion ’ ||| 1 0.00362601 1 0.282648 ||| 0-0 1-1 2-2 3-3 ||| 1 1 1 ||| |||
„ territoriale ||| ‘ territorial ||| 0.5 0.183115 1 0.50843 ||| 0-0 1-1 ||| 2 1 1 ||| |||
„ terroristisch ||| of ‘ terrorist ||| 1 0.00389193 0.5 0.0419922 ||| 0-1 1-2 ||| 1 2 1 ||| |||
„ terroristisch ||| ‘ terrorist ||| 0.5 0.00389193 0.5 0.131805 ||| 0-0 1-1 ||| 2 2 1 ||| |||
„ terroristisch “ für Organisationen sollte ||| of ‘ terrorist ’ to organisations should ||| 1 1.84552e-06 0.5 0.00194029 ||| 0-1 1-2 2-3 3-4 4-5 5-6 ||| 1 2 1 ||| |||
„ terroristisch “ für Organisationen sollte ||| ‘ terrorist ’ to organisations should ||| 1 1.84552e-06 0.5 0.00609016 ||| 0-0 1-1 2-2 3-3 4-4 5-5 ||| 1 2 1 ||| |||
„ terroristisch “ für Organisationen ||| of ‘ terrorist ’ to organisations ||| 1 9.37772e-06 0.5 0.00302382 ||| 0-1 1-2 2-3 3-4 4-5 ||| 1 2 1 ||| |||
„ terroristisch “ für Organisationen ||| ‘ terrorist ’ to organisations ||| 1 9.37772e-06 0.5 0.00949116 ||| 0-0 1-1 2-2 3-3 4-4 ||| 1 2 1 ||| |||
„ terroristisch “ für ||| of ‘ terrorist ’ to ||| 1 1.93331e-05 0.5 0.00400984 ||| 0-1 1-2 2-3 3-4 ||| 1 2 1 ||| |||
„ terroristisch “ für ||| ‘ terrorist ’ to ||| 1 1.93331e-05 0.5 0.0125861 ||| 0-0 1-1 2-2 3-3 ||| 1 2 1 ||| |||
„ terroristisch “ ||| of ‘ terrorist ’ ||| 1 0.000544587 0.5 0.0255416 ||| 0-1 1-2 2-3 ||| 1 2 1 ||| |||
„ terroristisch “ ||| ‘ terrorist ’ ||| 1 0.000544587 0.5 0.0801697 ||| 0-0 1-1 2-2 ||| 1 2 1 ||| |||
„ terroristische Organisation ||| &apos; terrorist organisation ||| 0.5 0.000901241 1 0.0658957 ||| 0-0 1-1 2-2 ||| 2 1 1 ||| |||
„ terroristische Organisation “ ||| &apos; terrorist organisation &apos; ||| 0.5 1.01629e-05 1 0.00926742 ||| 0-0 1-1 2-2 3-3 ||| 2 1 1 ||| |||
„ terroristische Regierung , die ||| ‘ terrorist government that ||| 0.5 0.00266094 1 0.0337498 ||| 0-0 1-1 2-2 3-3 ||| 2 1 1 ||| |||
„ terroristische Regierung , ||| ‘ terrorist government that ||| 0.5 0.0294658 1 0.0337498 ||| 0-0 1-1 2-2 3-3 ||| 2 1 1 ||| |||
„ terroristische Regierung ||| ‘ terrorist government ||| 1 0.069802 1 0.216697 ||| 0-0 1-1 2-2 ||| 1 1 1 ||| |||
„ terroristische ||| &apos; terrorist ||| 0.0833333 0.00186103 0.5 0.121263 ||| 0-0 1-1 ||| 12 2 1 ||| |||
„ terroristische ||| ‘ terrorist ||| 0.5 0.107676 0.5 0.490299 ||| 0-0 1-1 ||| 2 2 1 ||| |||
„ the Council shall establish measures ||| &apos; the Council shall establish measures ||| 1 2.14371e-19 1 0.0364154 ||| 0-0 1-1 2-2 3-3 4-4 5-5 ||| 1 1 1 ||| |||
„ the Council shall establish measures “ ||| &apos; the Council shall establish measures &apos; ||| 1 2.41737e-21 1 0.00512138 ||| 0-0 1-1 2-2 3-3 4-4 5-5 6-6 ||| 1 1 1 ||| |||
„ the Council shall establish ||| &apos; the Council shall establish ||| 1 1.04367e-15 1 0.0773828 ||| 0-0 1-1 2-2 3-3 4-4 ||| 1 1 1 ||| |||
„ the Council shall ||| &apos; the Council shall ||| 1 1.99517e-12 1 0.0773828 ||| 0-0 1-1 2-2 3-3 ||| 1 1 1 ||| |||
„ the Council ||| &apos; the Council ||| 0.0666667 2.22626e-09 1 0.0773828 ||| 0-0 1-1 2-2 ||| 15 1 1 ||| |||
„ the German ||| ‘ the German ||| 1 1.98304e-07 1 0.200376 ||| 0-0 1-1 2-2 ||| 1 1 1 ||| |||
„ the German “ anstelle von ||| ‘ the German ’ instead of ||| 1 1.21721e-10 1 0.0156447 ||| 0-0 1-1 2-2 3-3 4-4 5-5 ||| 1 1 1 ||| |||
„ the German “ anstelle von „ ||| ‘ the German ’ instead of ‘ ||| 1 8.08495e-11 1 0.00916469 ||| 0-0 1-1 2-2 3-3 4-4 5-5 6-6 ||| 1 1 1 ||| |||
„ the German “ anstelle ||| ‘ the German ’ instead ||| 1 1.12802e-09 1 0.0390985 ||| 0-0 1-1 2-2 3-3 4-4 ||| 1 1 1 ||| |||
„ the German “ ||| ‘ the German ’ ||| 1 2.77481e-08 1 0.121878 ||| 0-0 1-1 2-2 3-3 ||| 1 1 1 ||| |||
„ the ||| &apos; the ||| 0.00127877 2.43493e-06 0.5 0.106196 ||| 0-0 1-1 ||| 782 2 1 ||| |||
„ the ||| ‘ the ||| 0.0078125 0.000140881 0.5 0.429376 ||| 0-0 1-1 ||| 128 2 1 ||| |||
„ therapeutische Klonen ||| &apos; therapeutic cloning ||| 0.333333 0.00106209 1 0.0953963 ||| 0-0 1-1 2-2 ||| 3 1 1 ||| |||
„ therapeutische Klonen “ . ||| &apos; therapeutic cloning &apos; . ||| 0.333333 1.14825e-05 1 0.0127371 ||| 0-0 1-1 2-2 3-3 4-4 ||| 3 1 1 ||| |||
„ therapeutische Klonen “ ||| &apos; therapeutic cloning &apos; ||| 0.2 1.19767e-05 1 0.0134163 ||| 0-0 1-1 2-2 3-3 ||| 5 1 1 ||| |||
„ therapeutische ||| &apos; therapeutic ||| 0.111111 0.00287003 1 0.11201 ||| 0-0 1-1 ||| 9 1 1 ||| |||
„ therapeutischen Klonens ||| ‘ therapeutic cloning ||| 1 0.0209514 1 0.299151 ||| 0-0 1-1 2-2 ||| 1 1 1 ||| |||
„ therapeutischen Klonens “ erstreckt sich auf ||| ‘ therapeutic cloning ’ covers ||| 1 2.8248e-07 1 0.00854683 ||| 0-0 1-1 2-2 3-3 4-4 5-4 6-4 ||| 1 1 1 ||| |||
„ therapeutischen Klonens “ ||| ‘ therapeutic cloning ’ ||| 1 0.00293167 1 0.181957 ||| 0-0 1-1 2-2 3-3 ||| 1 1 1 ||| |||
„ therapeutischen ||| ‘ therapeutic ||| 1 0.225618 1 0.446493 ||| 0-0 1-1 ||| 1 1 1 ||| |||
„ tiefe Besorgnis ||| ‘ grave concern ||| 1 0.00137755 1 0.00852002 ||| 0-0 1-1 2-2 ||| 1 1 1 ||| |||
„ tiefe Besorgnis über ||| ‘ grave concern at ||| 1 1.55822e-05 1 0.000112158 ||| 0-0 1-1 2-2 3-3 ||| 1 1 1 ||| |||
„ tiefe ||| ‘ grave ||| 1 0.0105728 1 0.0161142 ||| 0-0 1-1 ||| 1 1 1 ||| |||
„ tiefen Staat ||| ‘ deep state ||| 0.666667 0.010769 1 0.11895 ||| 0-0 1-1 2-2 ||| 3 2 2 ||| |||
„ tiefen Staat “ ( ) und ||| ‘ deep state ’ ( ) and ||| 1 0.000808377 1 0.043 ||| 0-0 1-1 2-2 3-3 4-4 5-5 6-6 ||| 1 1 1 ||| |||
„ tiefen Staat “ ( ) ||| ‘ deep state ’ ( ) ||| 1 0.000972814 1 0.050264 ||| 0-0 1-1 2-2 3-3 4-4 5-5 ||| 1 1 1 ||| |||
„ tiefen Staat “ ( ||| ‘ deep state ’ ( ||| 1 0.00122056 1 0.0602332 ||| 0-0 1-1 2-2 3-3 4-4 ||| 1 1 1 ||| |||
„ tiefen Staat “ ||| ‘ deep state ’ ||| 0.666667 0.00150687 1 0.0723507 ||| 0-0 1-1 2-2 3-3 ||| 3 2 2 ||| |||
„ tiefen ||| ‘ deep ||| 0.666667 0.0697201 1 0.247667 ||| 0-0 1-1 ||| 3 2 2 ||| |||
„ tiefer Staat ||| of ‘ deep state ||| 1 0.00264388 0.5 0.00866762 ||| 0-1 1-2 2-3 ||| 1 2 1 ||| |||
„ tiefer Staat ||| ‘ deep state ||| 0.333333 0.00264388 0.5 0.0272059 ||| 0-0 1-1 2-2 ||| 3 2 1 ||| |||
„ tiefer Staat “ , ||| of ‘ deep state ’ , ||| 1 0.000244674 0.5 0.00257723 ||| 0-1 1-2 2-3 3-4 4-5 ||| 1 2 1 ||| |||
„ tiefer Staat “ , ||| ‘ deep state ’ , ||| 1 0.000244674 0.5 0.00808939 ||| 0-0 1-1 2-2 3-3 4-4 ||| 1 2 1 ||| |||
„ tiefer Staat “ ||| of ‘ deep state ’ ||| 1 0.000369951 0.5 0.00527204 ||| 0-1 1-2 2-3 3-4 ||| 1 2 1 ||| |||
„ tiefer Staat “ ||| ‘ deep state ’ ||| 0.333333 0.000369951 0.5 0.0165478 ||| 0-0 1-1 2-2 3-3 ||| 3 2 1 ||| |||
„ tiefer ||| of ‘ deep ||| 1 0.0171169 0.5 0.018047 ||| 0-1 1-2 ||| 1 2 1 ||| |||
„ tiefer ||| ‘ deep ||| 0.333333 0.0171169 0.5 0.0566457 ||| 0-0 1-1 ||| 3 2 1 ||| |||
„ to provide ||| &apos; to provide ||| 1 3.01129e-10 1 0.0399127 ||| 0-0 1-1 2-2 ||| 1 1 1 ||| |||
„ to ||| &apos; to ||| 0.00242131 1.54981e-06 1 0.10976 ||| 0-0 1-1 ||| 413 1 1 ||| |||
„ tot ||| ‘ dead ||| 1 0.130824 0.5 0.448882 ||| 0-0 1-1 ||| 1 2 1 ||| |||
„ tot ||| ‘ died ||| 1 0.0031233 0.5 0.0155982 ||| 0-0 1-1 ||| 1 2 1 ||| |||
„ tot “ . ||| ‘ died ’ . ||| 1 0.000418999 1 0.00900723 ||| 0-0 1-1 2-2 3-3 ||| 1 1 1 ||| |||
„ tot “ ||| ‘ died ’ ||| 1 0.000437034 1 0.00948753 ||| 0-0 1-1 2-2 ||| 1 1 1 ||| |||
„ traditionell ||| &apos; traditional ||| 0.037037 0.000248976 0.25 0.0170138 ||| 0-0 1-1 ||| 27 4 1 ||| |||
„ traditionell ||| ‘ traditional ||| 0.6 0.0144053 0.75 0.0687911 ||| 0-0 1-1 ||| 5 4 3 ||| |||
„ traditionell “ . ||| ‘ traditional ’ . ||| 1 0.00193252 1 0.0397236 ||| 0-0 1-1 2-2 3-3 ||| 1 1 1 ||| |||
„ traditionell “ in einem rein historischen ||| &apos; traditional &apos; in a purely historical ||| 1 8.92208e-09 1 0.000129449 ||| 0-0 1-1 2-2 3-3 4-4 5-5 6-6 ||| 1 1 1 ||| |||
„ traditionell “ in einem rein ||| &apos; traditional &apos; in a purely ||| 1 2.516e-08 1 0.00034252 ||| 0-0 1-1 2-2 3-3 4-4 5-5 ||| 1 1 1 ||| |||
„ traditionell “ in einem ||| &apos; traditional &apos; in a ||| 1 5.54413e-08 1 0.000791585 ||| 0-0 1-1 2-2 3-3 4-4 ||| 1 1 1 ||| |||
„ traditionell “ in ||| &apos; traditional &apos; in ||| 1 1.11088e-06 1 0.00139777 ||| 0-0 1-1 2-2 3-3 ||| 1 1 1 ||| |||
„ traditionell “ ist zu vage und ||| ‘ traditional ’ is too vague and ||| 1 6.65256e-05 1 0.000319634 ||| 0-0 1-1 2-2 3-3 4-4 5-5 6-6 ||| 1 1 1 ||| |||
„ traditionell “ ist zu vage ||| ‘ traditional ’ is too vague ||| 1 8.0058e-05 1 0.00037363 ||| 0-0 1-1 2-2 3-3 4-4 5-5 ||| 1 1 1 ||| |||
„ traditionell “ ist zu ||| ‘ traditional ’ is too ||| 1 0.000229003 1 0.000515914 ||| 0-0 1-1 2-2 3-3 4-4 ||| 1 1 1 ||| |||
„ traditionell “ ist ||| ‘ traditional ’ is ||| 1 0.000719175 1 0.0278034 ||| 0-0 1-1 2-2 3-3 ||| 1 1 1 ||| |||
„ traditionell “ ||| &apos; traditional &apos; ||| 0.111111 2.8076e-06 0.25 0.00239278 ||| 0-0 1-1 2-2 ||| 9 4 1 ||| |||
„ traditionell “ ||| ‘ traditional ’ ||| 0.75 0.0020157 0.75 0.0418419 ||| 0-0 1-1 2-2 ||| 4 4 3 ||| |||
„ traditionellen ||| ‘ traditional ||| 0.2 0.267399 1 0.52247 ||| 0-0 1-1 ||| 5 1 1 ||| |||
„ traditionellen “ Industriezweige Textilien und ||| ‘ traditional ’ industries of textiles and ||| 1 0.000389313 1 0.0255888 ||| 0-0 1-1 2-2 3-3 4-5 5-6 ||| 1 1 1 ||| |||
„ traditionellen “ Industriezweige Textilien ||| ‘ traditional ’ industries of textiles ||| 1 0.000468506 1 0.0299115 ||| 0-0 1-1 2-2 3-3 4-5 ||| 1 1 1 ||| |||
„ traditionellen “ Industriezweige ||| ‘ traditional ’ industries of ||| 1 0.00144486 0.5 0.0377889 ||| 0-0 1-1 2-2 3-3 ||| 1 2 1 ||| |||
„ traditionellen “ Industriezweige ||| ‘ traditional ’ industries ||| 1 0.00144486 0.5 0.118612 ||| 0-0 1-1 2-2 3-3 ||| 1 2 1 ||| |||
„ traditionellen “ ||| ‘ traditional ’ ||| 0.25 0.0374163 1 0.31779 ||| 0-0 1-1 2-2 ||| 4 1 1 ||| |||
„ transatlantischen Beziehungen ||| ‘ transatlantic relations ||| 1 0.276252 1 0.336294 ||| 0-0 1-1 2-2 ||| 1 1 1 ||| |||
„ transatlantischen Beziehungen “ mit ||| ‘ transatlantic relations ’ , ||| 1 0.000214911 0.5 0.0180921 ||| 0-0 1-1 2-2 3-3 4-3 ||| 1 2 1 ||| |||
„ transatlantischen Beziehungen “ mit ||| ‘ transatlantic relations ’ ||| 1 0.000214911 0.5 0.102406 ||| 0-0 1-1 2-2 3-3 4-3 ||| 1 2 1 ||| |||
„ transatlantischen Markt ohne Schranken ||| ‘ barrier-free transatlantic marketplace ||| 1 0.00567005 1 8.5679e-05 ||| 0-0 3-1 4-1 1-2 2-3 ||| 1 1 1 ||| |||
„ transatlantischen Markt ohne Schranken “ ||| ‘ barrier-free transatlantic marketplace ’ ||| 1 0.000793394 1 5.21138e-05 ||| 0-0 3-1 4-1 1-2 2-3 5-4 ||| 1 1 1 ||| |||
„ transatlantischen Marktes ||| ‘ Transatlantic Market ||| 1 0.000419804 1 0.000130331 ||| 0-0 1-1 2-2 ||| 1 1 1 ||| |||
„ transatlantischen Sicherheitsnetzes ||| ‘ transatlantic security network ||| 1 0.000271766 1 0.00190015 ||| 0-0 1-1 2-2 2-3 ||| 1 1 1 ||| |||
„ transatlantischen ||| ‘ Transatlantic ||| 1 0.0639273 0.333333 0.0191224 ||| 0-0 1-1 ||| 1 3 1 ||| |||
„ transatlantischen ||| ‘ transatlantic ||| 0.666667 0.433957 0.666667 0.50278 ||| 0-0 1-1 ||| 3 3 2 ||| |||
„ transatlantischer Freund ||| &apos; transatlantic friend ||| 1 0.000140889 1 0.0676097 ||| 0-0 1-1 2-2 ||| 1 1 1 ||| |||
„ transatlantischer Freund “ hat Schritte unternommen ||| &apos; transatlantic friend &apos; has taken steps ||| 1 4.73851e-09 1 5.41224e-05 ||| 0-0 1-1 2-2 3-3 4-4 5-5 5-6 6-6 ||| 1 1 1 ||| |||
„ transatlantischer Freund “ hat ||| &apos; transatlantic friend &apos; has ||| 1 5.46385e-07 1 0.00424178 ||| 0-0 1-1 2-2 3-3 4-4 ||| 1 1 1 ||| |||
„ transatlantischer Freund “ ||| &apos; transatlantic friend &apos; ||| 1 1.58875e-06 1 0.00950848 ||| 0-0 1-1 2-2 3-3 ||| 1 1 1 ||| |||
„ transatlantischer Markt ||| ‘ transatlantic market ||| 1 0.00245195 1 0.319378 ||| 0-0 1-1 2-2 ||| 1 1 1 ||| |||
„ transatlantischer ||| &apos; transatlantic ||| 0.1 0.000243517 0.5 0.0874293 ||| 0-0 1-1 ||| 10 2 1 ||| |||
„ transatlantischer ||| ‘ transatlantic ||| 0.333333 0.0140895 0.5 0.3535 ||| 0-0 1-1 ||| 3 2 1 ||| |||
„ transparenten Ausschreibungsverfahren ||| ‘ public tender ||| 1 2.0806e-05 1 0.000358538 ||| 0-0 2-1 1-2 2-2 ||| 1 1 1 ||| |||
„ transparenten Ausschreibungsverfahren “ . ||| ‘ public tender ’ . ||| 1 2.79118e-06 1 0.000207039 ||| 0-0 2-1 1-2 2-2 3-3 4-4 ||| 1 1 1 ||| |||
„ transparenten Ausschreibungsverfahren “ ||| ‘ public tender ’ ||| 1 2.91132e-06 1 0.000218079 ||| 0-0 2-1 1-2 2-2 3-3 ||| 1 1 1 ||| |||
„ transport ||| ‘ transport ||| 1 0.000203916 1 0.390533 ||| 0-0 1-1 ||| 1 1 1 ||| |||
„ transport “ . ||| ‘ transport ’ . ||| 1 2.73559e-05 1 0.225514 ||| 0-0 1-1 2-2 3-3 ||| 1 1 1 ||| |||
„ transport “ ||| ‘ transport ’ ||| 1 2.85333e-05 1 0.23754 ||| 0-0 1-1 2-2 ||| 1 1 1 ||| |||
„ transportation ||| ‘ transportation ||| 1 0.000814002 1 0.585799 ||| 0-0 1-1 ||| 1 1 1 ||| |||
„ transportation ” handelt es sich um ||| ‘ transportation ’ is ||| 1 5.23873e-14 1 0.0111175 ||| 0-0 1-1 2-2 3-3 4-3 5-3 6-3 ||| 1 1 1 ||| |||
„ transportation ” ||| ‘ transportation ’ ||| 1 1.19797e-06 1 0.0675922 ||| 0-0 1-1 2-2 ||| 1 1 1 ||| |||
„ tödliche Gefahr ||| &apos; mortal danger ||| 1 0.000298755 1 0.000988784 ||| 0-0 1-1 2-2 ||| 1 1 1 ||| |||
„ tödliche Gefahr “ und der untere ||| &apos; mortal danger &apos; and lower ||| 1 7.18523e-10 1 3.82384e-05 ||| 0-0 1-1 2-2 3-3 4-4 6-5 ||| 1 1 1 ||| |||
„ tödliche Gefahr “ und der ||| &apos; mortal danger &apos; and ||| 0.5 2.6362e-07 1 0.000118964 ||| 0-0 1-1 2-2 3-3 4-4 ||| 2 1 1 ||| |||
„ tödliche Gefahr “ und ||| &apos; mortal danger &apos; and ||| 0.5 2.79948e-06 1 0.000118964 ||| 0-0 1-1 2-2 3-3 4-4 ||| 2 1 1 ||| |||
„ tödliche Gefahr “ ||| &apos; mortal danger &apos; ||| 1 3.36894e-06 1 0.00013906 ||| 0-0 1-1 2-2 3-3 ||| 1 1 1 ||| |||
„ tödliche ||| &apos; mortal ||| 1 0.000515959 1 0.00366793 ||| 0-0 1-1 ||| 1 1 1 ||| |||
„ um jeden Preis ||| ‘ at any cost ||| 1 3.98203e-05 1 0.000445391 ||| 0-0 1-1 2-2 3-3 ||| 1 1 1 ||| |||
„ um jeden Preis “ ||| ‘ at any cost ’ ||| 1 5.57193e-06 1 0.000270907 ||| 0-0 1-1 2-2 3-3 4-4 ||| 1 1 1 ||| |||
„ um jeden ||| ‘ at any ||| 1 0.000960372 1 0.00463439 ||| 0-0 1-1 2-2 ||| 1 1 1 ||| |||
„ um ||| ‘ at ||| 0.333333 0.023138 1 0.0172919 ||| 0-0 1-1 ||| 3 1 1 ||| |||
„ umsichtigen Modernisierung ||| ‘ prudent modernisation ||| 0.5 0.0201622 1 0.0843929 ||| 0-0 1-1 2-2 ||| 2 1 1 ||| |||
„ umsichtigen Modernisierung “ ||| ‘ prudent modernisation ’ ||| 0.5 0.00282124 1 0.0513316 ||| 0-0 1-1 2-2 3-3 ||| 2 1 1 ||| |||
„ umsichtigen ||| ‘ prudent ||| 0.333333 0.0255988 1 0.163679 ||| 0-0 1-1 ||| 3 1 1 ||| |||
„ umweltfreundlichere ||| &apos; environmentally friendly ||| 0.5 0.000485406 1 0.00550394 ||| 0-0 1-1 1-2 ||| 2 1 1 ||| |||
„ umweltfreundlichere “ Mobilität ||| &apos; environmentally friendly &apos; mobility , ||| 1 4.06872e-06 0.5 0.000120944 ||| 0-0 1-1 1-2 2-3 3-4 ||| 1 2 1 ||| |||
„ umweltfreundlichere “ Mobilität ||| &apos; environmentally friendly &apos; mobility ||| 1 4.06872e-06 0.5 0.000684579 ||| 0-0 1-1 1-2 2-3 3-4 ||| 1 2 1 ||| |||
„ umweltfreundlichere “ ||| &apos; environmentally friendly &apos; ||| 1 5.47372e-06 1 0.000774061 ||| 0-0 1-1 1-2 2-3 ||| 1 1 1 ||| |||
„ umweltgerecht gefischt ||| ‘ fish ecologically ||| 1 2.05178e-05 1 0.00197764 ||| 0-0 2-1 1-2 ||| 1 1 1 ||| |||
„ umweltgerecht gefischt “ usw. ||| ‘ fish ecologically ’ and so on ||| 1 1.52197e-08 1 3.42349e-06 ||| 0-0 2-1 1-2 3-3 4-4 4-5 4-6 ||| 1 1 1 ||| |||
„ umweltgerecht gefischt “ ||| ‘ fish ecologically ’ ||| 1 2.871e-06 1 0.00120289 ||| 0-0 2-1 1-2 3-3 ||| 1 1 1 ||| |||
„ unabhängig von &#91; seiner &#93; Staatsangehörigkeit ||| ‘ irrespective of nationality ||| 1 2.71019e-10 1 0.00321824 ||| 0-0 3-0 5-0 1-1 2-2 4-3 6-3 ||| 1 1 1 ||| |||
„ unabhängig ||| ‘ independence ||| 1 0.0115382 1 0.0104635 ||| 0-0 1-1 ||| 1 1 1 ||| |||
„ unabhängig “ . ||| ‘ independence ’ . ||| 1 0.00154788 1 0.00604217 ||| 0-0 1-1 2-2 3-3 ||| 1 1 1 ||| |||
„ unabhängig “ ||| ‘ independence ’ ||| 1 0.0016145 1 0.00636437 ||| 0-0 1-1 2-2 ||| 1 1 1 ||| |||
„ unabhängige Ansprüche ||| ‘ independent claims ||| 1 0.00798537 1 0.104347 ||| 0-0 1-1 2-2 ||| 1 1 1 ||| |||
„ unabhängige Ansprüche “ , die ||| ‘ independent claims ’ , which ||| 1 0.000266624 1 0.00184797 ||| 0-0 1-1 2-2 3-3 4-4 5-5 ||| 1 1 1 ||| |||
„ unabhängige Ansprüche “ , ||| ‘ independent claims ’ , ||| 1 0.000738993 1 0.0310265 ||| 0-0 1-1 2-2 3-3 4-4 ||| 1 1 1 ||| |||
„ unabhängige Ansprüche “ ||| ‘ independent claims ’ ||| 1 0.00111737 1 0.0634685 ||| 0-0 1-1 2-2 3-3 ||| 1 1 1 ||| |||
„ unabhängige Gruppe von bedeutenden Personen als ||| ‘ independent group of eminent persons as ||| 1 3.40686e-06 1 2.10943e-05 ||| 0-0 1-1 2-2 3-3 4-4 5-5 6-6 ||| 1 1 1 ||| |||
„ unabhängige Gruppe von bedeutenden Personen ||| ‘ independent group of eminent persons ||| 1 2.00503e-05 1 6.62037e-05 ||| 0-0 1-1 2-2 3-3 4-4 5-5 ||| 1 1 1 ||| |||
„ unabhängige Gruppe von bedeutenden ||| ‘ independent group of eminent ||| 1 5.13404e-05 1 0.000354125 ||| 0-0 1-1 2-2 3-3 4-4 ||| 1 1 1 ||| |||
„ unabhängige Gruppe von ||| ‘ independent group of ||| 1 0.00242584 1 0.1351 ||| 0-0 1-1 2-2 3-3 ||| 1 1 1 ||| |||
„ unabhängige Gruppe ||| ‘ independent group ||| 1 0.0224809 1 0.337636 ||| 0-0 1-1 2-2 ||| 1 1 1 ||| |||
„ unabhängige Produzenten ||| ‘ independent producers ||| 1 0.0221706 1 0.420151 ||| 0-0 1-1 2-2 ||| 1 1 1 ||| |||
„ unabhängige Produzenten “ und ||| ‘ independent producers ’ or ||| 1 0.000299991 1 0.00197017 ||| 0-0 1-1 2-2 3-3 4-4 ||| 1 1 1 ||| |||
„ unabhängige Produzenten “ und „ europäische ||| ‘ independent producers ’ or ‘ European ||| 1 1.50648e-05 1 0.00103904 ||| 0-0 1-1 2-2 3-3 4-4 5-5 6-6 ||| 1 1 1 ||| |||
„ unabhängige Produzenten “ und „ ||| ‘ independent producers ’ or ‘ ||| 1 0.00019926 1 0.00115413 ||| 0-0 1-1 2-2 3-3 4-4 5-5 ||| 1 1 1 ||| |||
„ unabhängige Produzenten “ ||| ‘ independent producers ’ ||| 1 0.00310226 1 0.255555 ||| 0-0 1-1 2-2 3-3 ||| 1 1 1 ||| |||
„ unabhängige ||| ‘ independent ||| 0.75 0.172724 1 0.539473 ||| 0-0 1-1 ||| 4 3 3 ||| |||
„ unabhängiger Produzent ||| of ‘ independent producer ||| 1 0.00149407 0.5 0.0501186 ||| 0-1 1-2 2-3 ||| 1 2 1 ||| |||
„ unabhängiger Produzent ||| ‘ independent producer ||| 1 0.00149407 0.5 0.157312 ||| 0-0 1-1 2-2 ||| 1 2 1 ||| |||
„ unabhängiger Produzent “ und ||| of ‘ independent producer ’ and ||| 1 0.000173723 0.5 0.0260789 ||| 0-1 1-2 2-3 3-4 4-5 ||| 1 2 1 ||| |||
„ unabhängiger Produzent “ und ||| ‘ independent producer ’ and ||| 1 0.000173723 0.5 0.0818563 ||| 0-0 1-1 2-2 3-3 4-4 ||| 1 2 1 ||| |||
„ unabhängiger Produzent “ und „ Werk ||| ‘ independent producer ’ and ‘ work ||| 1 4.76042e-07 1 0.0160521 ||| 0-0 1-1 2-2 3-3 4-4 5-5 6-6 ||| 1 1 1 ||| |||
„ unabhängiger Produzent “ und „ ||| of ‘ independent producer ’ and ‘ ||| 1 0.00011539 0.5 0.015277 ||| 0-1 1-2 2-3 3-4 4-5 5-6 ||| 1 2 1 ||| |||
„ unabhängiger Produzent “ und „ ||| ‘ independent producer ’ and ‘ ||| 1 0.00011539 0.5 0.0479514 ||| 0-0 1-1 2-2 3-3 4-4 5-5 ||| 1 2 1 ||| |||
„ unabhängiger Produzent “ ||| of ‘ independent producer ’ ||| 1 0.000209061 0.5 0.0304844 ||| 0-1 1-2 2-3 3-4 ||| 1 2 1 ||| |||
„ unabhängiger Produzent “ ||| ‘ independent producer ’ ||| 1 0.000209061 0.5 0.0956842 ||| 0-0 1-1 2-2 3-3 ||| 1 2 1 ||| |||
„ unabhängiger ||| of ‘ independent ||| 1 0.0535873 0.5 0.10692 ||| 0-1 1-2 ||| 1 2 1 ||| |||
„ unabhängiger ||| ‘ independent ||| 0.25 0.0535873 0.5 0.335599 ||| 0-0 1-1 ||| 4 2 1 ||| |||
„ unangemessen ||| ‘ inappropriate ||| 1 0.0867985 1 0.157752 ||| 0-0 1-1 ||| 1 1 1 ||| |||
„ unausweichlicher ||| ‘ inevitable ||| 1 0.00195168 1 0.159763 ||| 0-0 1-1 ||| 1 1 1 ||| |||
„ unausweichlicher “ Konzentrationsprozess ||| ‘ inevitable ’ concentration process ||| 1 7.96925e-07 1 0.0104973 ||| 0-0 1-1 2-2 3-3 3-4 ||| 1 1 1 ||| |||
„ unausweichlicher “ ||| ‘ inevitable ’ ||| 1 0.000273093 1 0.0971754 ||| 0-0 1-1 2-2 ||| 1 1 1 ||| |||
„ unbeschadet der ||| ‘ without prejudice to the ||| 1 0.010438 1 0.00407814 ||| 0-0 1-1 1-2 2-4 ||| 1 1 1 ||| |||
„ unbeschadet ||| ‘ without prejudice to ||| 1 0.0390683 0.5 0.00807482 ||| 0-0 1-1 1-2 ||| 1 2 1 ||| |||
„ unbeschadet ||| ‘ without prejudice ||| 1 0.0390683 0.5 0.0570251 ||| 0-0 1-1 1-2 ||| 1 2 1 ||| |||
„ unbestrittenen ||| ‘ unquestioned ||| 1 0.0531376 1 0.0229725 ||| 0-0 1-1 ||| 1 1 1 ||| |||
„ unbestrittenen “ ||| ‘ unquestioned ’ ||| 1 0.00743539 1 0.0139729 ||| 0-0 1-1 2-2 ||| 1 1 1 ||| |||
„ und Biodiesel ||| ‘ and biodiesel ||| 1 0.261448 1 0.316511 ||| 0-0 1-1 2-2 ||| 1 1 1 ||| |||
„ und Biodiesel “ hinzufügen ||| add ‘ and biodiesel ’ ||| 1 0.00822268 1 0.141033 ||| 4-0 0-1 1-2 2-3 3-4 ||| 1 1 1 ||| |||
„ und Biodiesel “ ||| ‘ and biodiesel ’ ||| 1 0.0365836 1 0.192516 ||| 0-0 1-1 2-2 3-3 ||| 1 1 1 ||| |||
„ und Erweiterungsländer ||| ‘ and countries seeking accession ||| 1 0.000141132 1 3.86144e-05 ||| 0-0 1-1 2-2 2-3 2-4 ||| 1 1 1 ||| |||
„ und Erweiterungsländer “ ||| ‘ and countries seeking accession ’ ||| 1 1.97483e-05 1 2.3487e-05 ||| 0-0 1-1 2-2 2-3 2-4 3-5 ||| 1 1 1 ||| |||
„ und Fahrgästen ||| ‘ and passengers ||| 1 0.0176405 1 0.330685 ||| 0-0 1-1 2-2 ||| 1 1 1 ||| |||
„ und Fahrgästen “ sowie ||| ‘ and passengers ’ and ||| 1 5.53921e-05 1 0.101657 ||| 0-0 1-1 2-2 3-3 4-4 ||| 1 1 1 ||| |||
„ und Fahrgästen “ sowie „ oder ||| ‘ and passengers ’ and ‘ or ||| 1 2.51426e-05 1 0.0501889 ||| 0-0 1-1 2-2 3-3 4-4 5-5 6-6 ||| 1 1 1 ||| |||
„ und Fahrgästen “ sowie „ ||| ‘ and passengers ’ and ‘ ||| 1 3.67926e-05 1 0.0595504 ||| 0-0 1-1 2-2 3-3 4-4 5-5 ||| 1 1 1 ||| |||
„ und Fahrgästen “ ||| ‘ and passengers ’ ||| 1 0.00246838 1 0.201138 ||| 0-0 1-1 2-2 3-3 ||| 1 1 1 ||| |||
„ und KMU ||| ‘ and SMEs ||| 1 0.289345 1 0.33083 ||| 0-0 1-1 2-2 ||| 1 1 1 ||| |||
„ und KMU “ , sodass ||| ‘ and SMEs ’ , so that ||| 1 0.000217325 1 0.0143606 ||| 0-0 1-1 2-2 3-3 4-4 5-5 5-6 ||| 1 1 1 ||| |||
„ und KMU “ , ||| ‘ and SMEs ’ , ||| 1 0.026777 1 0.0983689 ||| 0-0 1-1 2-2 3-3 4-4 ||| 1 1 1 ||| |||
„ und KMU “ ||| ‘ and SMEs ’ ||| 1 0.0404873 1 0.201226 ||| 0-0 1-1 2-2 3-3 ||| 1 1 1 ||| |||
„ und Vorbereitungen für ||| ‘ and to prepare for ||| 1 0.00415677 1 0.00137632 ||| 0-0 1-1 2-3 3-4 ||| 1 1 1 ||| |||
„ und Vorbereitungen ||| ‘ and to prepare ||| 1 0.0104765 1 0.00290996 ||| 0-0 1-1 2-3 ||| 1 1 1 ||| |||
„ und der Kinder ||| ‘ and children ||| 1 0.0312997 1 0.45258 ||| 0-0 1-1 3-2 ||| 1 1 1 ||| |||
„ und der Kinder “ ||| ‘ and children ’ to ||| 1 0.00437967 0.5 0.0389799 ||| 0-0 1-1 3-2 4-3 ||| 1 2 1 ||| |||
„ und der Kinder “ ||| ‘ and children ’ ||| 1 0.00437967 0.5 0.27528 ||| 0-0 1-1 3-2 4-3 ||| 1 2 1 ||| |||
„ und der ||| ‘ and ||| 0.05 0.0519754 1 0.501142 ||| 0-0 1-1 ||| 20 1 1 ||| |||
„ und fordert , dass alle ||| ‘ and requests that any ||| 1 4.40256e-05 1 5.72927e-05 ||| 0-0 1-1 2-2 3-3 4-3 5-4 ||| 1 1 1 ||| |||
„ und fordert , dass ||| ‘ and requests that ||| 1 0.00173603 1 0.00271397 ||| 0-0 1-1 2-2 3-3 4-3 ||| 1 1 1 ||| |||
„ und fordert ||| ‘ and requests ||| 1 0.0187721 1 0.00591448 ||| 0-0 1-1 2-2 ||| 1 1 1 ||| |||
„ und für alle anderen benachteiligten Studenten ||| ‘ and for all other disadvantaged students ||| 1 0.00517525 1 0.0349202 ||| 0-0 1-1 2-2 3-3 4-4 5-5 6-6 ||| 1 1 1 ||| |||
„ und für alle anderen benachteiligten ||| ‘ and for all other disadvantaged ||| 1 0.00836582 1 0.0406498 ||| 0-0 1-1 2-2 3-3 4-4 5-5 ||| 1 1 1 ||| |||
„ und für alle anderen ||| ‘ and for all other ||| 1 0.0233952 1 0.107021 ||| 0-0 1-1 2-2 3-3 4-4 ||| 1 1 1 ||| |||
„ und für alle ||| ‘ and for all ||| 1 0.0664592 1 0.169811 ||| 0-0 1-1 2-2 3-3 ||| 1 1 1 ||| |||
„ und für ||| ‘ and for ||| 1 0.218996 1 0.237024 ||| 0-0 1-1 2-2 ||| 1 1 1 ||| |||
„ und wird ||| ‘ and will ||| 1 0.181742 1 0.175734 ||| 0-0 1-1 2-2 ||| 1 1 1 ||| |||
„ und zwar mit Hilfe von rechtlichen ||| ‘ by means of legal ||| 1 1.30754e-10 1 9.37525e-05 ||| 0-0 3-1 4-2 5-3 6-4 ||| 1 1 1 ||| |||
„ und zwar mit Hilfe von ||| ‘ by means of ||| 1 1.42572e-09 1 0.00011737 ||| 0-0 3-1 4-2 5-3 ||| 1 1 1 ||| |||
„ und zwar mit Hilfe ||| ‘ by means ||| 1 1.32126e-08 1 0.000293326 ||| 0-0 3-1 4-2 ||| 1 1 1 ||| |||
„ und zwar mit ||| ‘ by ||| 0.2 1.91575e-06 1 0.0208767 ||| 0-0 3-1 ||| 5 1 1 ||| |||
„ und zwar ||| ‘ ||| 0.000173581 4.70168e-05 1 0.585799 ||| 0-0 ||| 5761 1 1 ||| |||
„ und ||| &apos; and ||| 0.00275482 0.00953959 0.1875 0.123945 ||| 0-0 1-1 ||| 1089 16 3 ||| |||
„ und ||| ‘ and to ||| 1 0.551946 0.0625 0.0709622 ||| 0-0 1-1 ||| 1 16 1 ||| |||
„ und ||| ‘ and ||| 0.5 0.551946 0.625 0.501142 ||| 0-0 1-1 ||| 20 16 10 ||| |||
„ und ||| ‘ with ||| 0.1 0.0106407 0.0625 0.00234695 ||| 0-0 1-1 ||| 10 16 1 ||| |||
„ und ||| ‘ ||| 0.000173581 0.0162295 0.0625 0.585799 ||| 0-0 ||| 5761 16 1 ||| |||
„ und “ und nicht ||| &apos; and &apos; and not ||| 1 6.78496e-05 1 0.00906172 ||| 0-0 1-1 2-2 3-3 4-4 ||| 1 1 1 ||| |||
„ und “ und nicht „ oder ||| &apos; and &apos; and not &apos; or ||| 1 5.32284e-07 1 0.0011065 ||| 0-0 1-1 2-2 3-3 4-4 5-5 6-6 ||| 1 1 1 ||| |||
„ und “ und nicht „ ||| &apos; and &apos; and not &apos; ||| 1 7.7892e-07 1 0.00131289 ||| 0-0 1-1 2-2 3-3 4-4 5-5 ||| 1 1 1 ||| |||
„ und “ und ||| &apos; and &apos; and ||| 1 8.93907e-05 1 0.0149122 ||| 0-0 1-1 2-2 3-3 ||| 1 1 1 ||| |||
„ und “ ||| &apos; and &apos; ||| 0.00263852 0.000107574 1 0.0174313 ||| 0-0 1-1 2-2 ||| 379 1 1 ||| |||
„ under the protocol ||| the phrase &apos; under the protocol ||| 1 3.59474e-13 1 2.43439e-05 ||| 2-0 0-1 0-2 1-3 2-4 3-5 ||| 1 1 1 ||| |||
„ under the protocol “ ||| the phrase &apos; under the protocol &apos; ||| 1 4.05364e-15 1 3.42367e-06 ||| 2-0 0-1 0-2 1-3 2-4 3-5 4-6 ||| 1 1 1 ||| |||
„ under the ||| the phrase &apos; under the ||| 1 6.83021e-10 1 2.43439e-05 ||| 2-0 0-1 0-2 1-3 2-4 ||| 1 1 1 ||| |||
„ under ||| phrase &apos; under ||| 1 3.22028e-06 1 4.53118e-05 ||| 0-0 0-1 1-2 ||| 1 1 1 ||| |||
„ understandable ||| ‘ understandable ||| 1 0.000747978 1 0.585799 ||| 0-0 1-1 ||| 1 1 1 ||| |||
„ uneingeschränkten ||| ‘ free ||| 0.0833333 0.000190498 0.5 0.00599285 ||| 0-0 1-1 ||| 12 2 1 ||| |||
„ uneingeschränkten ||| ‘ full-hearted ||| 1 0.166055 0.5 0.00149818 ||| 0-0 1-1 ||| 1 2 1 ||| |||
„ uneingeschränkten “ Unterstützung ||| ‘ full-hearted ’ support ||| 1 0.00732423 1 0.000608991 ||| 0-0 1-1 2-2 3-3 ||| 1 1 1 ||| |||
„ uneingeschränkten “ Wettbewerbs , gepaart mit ||| ‘ free ’ competition coupled with ||| 1 1.5157e-08 1 0.000300804 ||| 0-0 1-1 2-2 3-3 5-4 6-5 ||| 1 1 1 ||| |||
„ uneingeschränkten “ Wettbewerbs , gepaart ||| ‘ free ’ competition coupled ||| 1 3.50667e-08 1 0.000634145 ||| 0-0 1-1 2-2 3-3 5-4 ||| 1 1 1 ||| |||
„ uneingeschränkten “ Wettbewerbs , ||| ‘ free ’ competition ||| 0.5 8.76668e-07 1 0.00328263 ||| 0-0 1-1 2-2 3-3 ||| 2 1 1 ||| |||
„ uneingeschränkten “ Wettbewerbs ||| ‘ free ’ competition ||| 0.5 2.75282e-06 1 0.00328263 ||| 0-0 1-1 2-2 3-3 ||| 2 1 1 ||| |||
„ uneingeschränkten “ ||| ‘ free ’ ||| 0.25 2.66559e-05 0.5 0.00364512 ||| 0-0 1-1 2-2 ||| 4 2 1 ||| |||
„ uneingeschränkten “ ||| ‘ full-hearted ’ ||| 1 0.0232356 0.5 0.000911262 ||| 0-0 1-1 2-2 ||| 1 2 1 ||| |||
„ unendlicher Geschichte ||| of ‘ never-ending story ||| 1 0.00198595 0.5 0.00324562 ||| 0-1 1-2 2-3 ||| 1 2 1 ||| |||
„ unendlicher Geschichte ||| ‘ never-ending story ||| 0.5 0.00198595 0.5 0.0101873 ||| 0-0 1-1 2-2 ||| 2 2 1 ||| |||
„ unendlicher Geschichte “ ||| of ‘ never-ending story ’ ||| 1 0.000277888 0.5 0.00197413 ||| 0-1 1-2 2-3 3-4 ||| 1 2 1 ||| |||
„ unendlicher Geschichte “ ||| ‘ never-ending story ’ ||| 0.5 0.000277888 0.5 0.0061964 ||| 0-0 1-1 2-2 3-3 ||| 2 2 1 ||| |||
„ unendlicher ||| of ‘ never-ending ||| 1 0.00670929 0.5 0.046658 ||| 0-1 1-2 ||| 1 2 1 ||| |||
„ unendlicher ||| ‘ never-ending ||| 0.5 0.00670929 0.5 0.14645 ||| 0-0 1-1 ||| 2 2 1 ||| |||
„ unerwarteten Krisensituationen ||| ‘ unexpected crisis situations ||| 1 0.00215919 1 0.0471952 ||| 0-0 1-1 2-2 2-3 ||| 1 1 1 ||| |||
„ unerwarteten ||| ‘ unexpected ||| 1 0.0828162 1 0.329933 ||| 0-0 1-1 ||| 1 1 1 ||| |||
„ ungastlich ||| be ‘ inhospitable ||| 1 0.0452884 0.5 0.0358653 ||| 1-0 0-1 1-2 ||| 1 2 1 ||| |||
„ ungastlich ||| to be ‘ inhospitable ||| 1 0.0452884 0.5 0.00507856 ||| 1-1 0-2 1-3 ||| 1 2 1 ||| |||
„ ungastlich “ gegenüber Zuwanderern . ||| be ‘ inhospitable towards immigrants ’ . ||| 1 1.90873e-05 1 0.00122217 ||| 1-0 0-1 1-2 3-3 4-4 2-5 5-6 ||| 1 1 1 ||| |||
„ ungastlich “ gegenüber Zuwanderern ||| be ‘ inhospitable towards immigrants ’ ||| 1 1.99089e-05 0.5 0.00128734 ||| 1-0 0-1 1-2 3-3 4-4 2-5 ||| 1 2 1 ||| |||
„ ungastlich “ gegenüber Zuwanderern ||| to be ‘ inhospitable towards immigrants ’ ||| 1 1.99089e-05 0.5 0.000182289 ||| 1-1 0-2 1-3 3-4 4-5 2-6 ||| 1 2 1 ||| |||
„ ungerechtfertigt ||| &apos; unjustified ||| 1 0.00149277 1 0.0471712 ||| 0-0 1-1 ||| 1 1 1 ||| |||
„ ungerechtfertigt “ ||| &apos; unjustified &apos; ||| 1 1.68334e-05 1 0.00663405 ||| 0-0 1-1 2-2 ||| 1 1 1 ||| |||
„ ungerechtfertigte Anomalie ||| ‘ unjustified anomaly ||| 1 0.0405502 1 0.188914 ||| 0-0 1-1 2-2 ||| 1 1 1 ||| |||
„ ungerechtfertigte Anomalie “ alsbald ||| ‘ unjustified anomaly ’ will soon ||| 1 1.00181e-05 1 0.00163092 ||| 0-0 1-1 2-2 3-3 4-4 4-5 ||| 1 1 1 ||| |||
„ ungerechtfertigte Anomalie “ ||| ‘ unjustified anomaly ’ ||| 1 0.00567407 1 0.114906 ||| 0-0 1-1 2-2 3-3 ||| 1 1 1 ||| |||
„ ungerechtfertigte ||| ‘ unjustified ||| 1 0.117215 1 0.29813 ||| 0-0 1-1 ||| 1 1 1 ||| |||
„ unlauteren Wettbewerb ||| so-called ‘ unfair competition ||| 1 0.0235959 1 0.0015607 ||| 0-0 0-1 1-2 2-3 ||| 1 1 1 ||| |||
„ unlauteren Wettbewerb “ zu verhindern ||| to prevent so-called ‘ unfair competition ’ ||| 1 0.000162181 1 0.000271651 ||| 4-0 5-1 0-2 0-3 1-4 2-5 3-6 ||| 1 1 1 ||| |||
„ unlauteren Wettbewerb “ ||| so-called ‘ unfair competition ’ ||| 1 0.0033017 1 0.00094929 ||| 0-0 0-1 1-2 2-3 3-4 ||| 1 1 1 ||| |||
„ unlauteren ||| so-called ‘ unfair ||| 1 0.0532917 1 0.00187304 ||| 0-0 0-1 1-2 ||| 1 1 1 ||| |||
„ unlängst ein Verfahren eingeleitet ||| &apos; recently initiated a case ||| 1 2.80421e-08 1 2.28133e-05 ||| 0-0 1-1 4-2 2-3 3-4 ||| 1 1 1 ||| |||
„ unlängst ||| &apos; recently ||| 0.5 0.000467753 1 0.0834833 ||| 0-0 1-1 ||| 2 1 1 ||| |||
„ unmittelbar ||| &apos; immediately ||| 0.333333 0.00148598 1 0.0295201 ||| 0-0 1-1 ||| 3 1 1 ||| |||
„ unmittelbar “ ? ||| &apos; immediately &apos; ? ||| 1 1.53119e-05 1 0.00379998 ||| 0-0 1-1 2-2 3-3 ||| 1 1 1 ||| |||
„ unmittelbar “ ||| &apos; immediately &apos; ||| 0.333333 1.67568e-05 1 0.00415164 ||| 0-0 1-1 2-2 ||| 3 1 1 ||| |||
„ unmittelbaren Nachbarländern ||| our &apos; immediate neighbourhood ||| 1 9.20106e-06 1 1.19695e-05 ||| 2-0 0-1 1-2 2-3 ||| 1 1 1 ||| |||
„ unmittelbaren Nachbarländern “ ||| our &apos; immediate neighbourhood &apos; ||| 1 1.03757e-07 1 1.68336e-06 ||| 2-0 0-1 1-2 2-3 3-4 ||| 1 1 1 ||| |||
„ unmittelbaren ||| &apos; immediate ||| 0.125 0.00123805 1 0.071007 ||| 0-0 1-1 ||| 8 1 1 ||| |||
„ unnötiger ||| &apos; undue ||| 1 3.7517e-05 1 0.00104232 ||| 0-0 1-1 ||| 1 1 1 ||| |||
„ unnötiger “ und ||| &apos; undue &apos; and ||| 1 3.51552e-07 1 0.000125405 ||| 0-0 1-1 2-2 3-3 ||| 1 1 1 ||| |||
„ unnötiger “ und „ nötiger ||| &apos; undue &apos; and &apos; due ||| 1 3.64438e-13 1 4.03754e-07 ||| 0-0 1-1 2-2 3-3 4-4 5-5 ||| 1 1 1 ||| |||
„ unnötiger “ und „ nötiger “ ||| &apos; undue &apos; and &apos; due &apos; ||| 1 4.10962e-15 1 5.67831e-08 ||| 0-0 1-1 2-2 3-3 4-4 5-5 6-6 ||| 1 1 1 ||| |||
„ unnötiger “ und „ ||| &apos; undue &apos; and &apos; ||| 1 4.03586e-09 1 1.8169e-05 ||| 0-0 1-1 2-2 3-3 4-4 ||| 1 1 1 ||| |||
„ unnötiger “ ||| &apos; undue &apos; ||| 1 4.23064e-07 1 0.000146589 ||| 0-0 1-1 2-2 ||| 1 1 1 ||| |||
„ unparteiisch ||| ‘ impartial ||| 0.5 0.0772694 1 0.136599 ||| 0-0 1-1 ||| 2 1 1 ||| |||
„ unparteiisch “ ||| ‘ impartial ’ ||| 1 0.0108121 1 0.0830857 ||| 0-0 1-1 2-2 ||| 1 1 1 ||| |||
„ unrechtmäßige Handlungen ||| ‘ unlawful acts ||| 1 0.00268158 1 0.0228341 ||| 0-0 1-1 2-2 ||| 1 1 1 ||| |||
„ unrechtmäßige Handlungen “ , unter denen ||| ‘ unlawful acts ’ – which ||| 1 1.15223e-09 1 1.9599e-06 ||| 0-0 1-1 2-2 3-3 4-4 5-5 6-5 ||| 1 1 1 ||| |||
„ unrechtmäßige Handlungen “ , ||| ‘ unlawful acts ’ – ||| 1 3.24795e-05 1 1.13735e-05 ||| 0-0 1-1 2-2 3-3 4-4 ||| 1 1 1 ||| |||
„ unrechtmäßige Handlungen “ ||| ‘ unlawful acts ’ ||| 1 0.000375226 1 0.0138887 ||| 0-0 1-1 2-2 3-3 ||| 1 1 1 ||| |||
„ unrechtmäßige ||| ‘ illegal ||| 0.111111 0.00338792 0.5 0.189989 ||| 0-0 1-1 ||| 9 2 1 ||| |||
„ unrechtmäßige ||| ‘ unlawful ||| 1 0.0354927 0.5 0.110827 ||| 0-0 1-1 ||| 1 2 1 ||| |||
„ unrechtmäßige “ Regime ||| regimes ‘ illegal ’ ||| 1 0.000137489 1 0.0161457 ||| 3-0 0-1 1-2 2-3 ||| 1 1 1 ||| |||
„ unrechtmäßige “ ||| ‘ illegal ’ ||| 0.2 0.000474062 1 0.11556 ||| 0-0 1-1 2-2 ||| 5 1 1 ||| |||
„ unrechtmäßigen Kombattanten ||| &apos; unlawful combatant ||| 1 3.59526e-05 0.5 0.00159212 ||| 0-0 1-1 2-2 ||| 1 2 1 ||| |||
„ unrechtmäßigen Kombattanten ||| of &apos; unlawful combatant ||| 1 3.59526e-05 0.5 0.000507239 ||| 0-1 1-2 2-3 ||| 1 2 1 ||| |||
„ unrechtmäßigen Kombattanten “ im potenziell ||| &apos; unlawful combatant &apos; in the potentially ||| 1 8.75392e-09 1 1.59661e-05 ||| 0-0 1-1 2-2 3-3 4-4 4-5 5-6 ||| 1 1 1 ||| |||
„ unrechtmäßigen Kombattanten “ im ||| &apos; unlawful combatant &apos; in the ||| 1 3.16836e-08 0.5 2.32282e-05 ||| 0-0 1-1 2-2 3-3 4-4 4-5 ||| 1 2 1 ||| |||
„ unrechtmäßigen Kombattanten “ im ||| of &apos; unlawful combatant &apos; in the ||| 1 3.16836e-08 0.5 7.40035e-06 ||| 0-1 1-2 2-3 3-4 4-5 4-6 ||| 1 2 1 ||| |||
„ unrechtmäßigen Kombattanten “ ||| &apos; unlawful combatant &apos; ||| 1 4.05423e-07 0.5 0.000223912 ||| 0-0 1-1 2-2 3-3 ||| 1 2 1 ||| |||
„ unrechtmäßigen Kombattanten “ ||| of &apos; unlawful combatant &apos; ||| 1 4.05423e-07 0.5 7.1337e-05 ||| 0-1 1-2 2-3 3-4 ||| 1 2 1 ||| |||
„ unrechtmäßigen ||| &apos; unlawful ||| 0.5 0.000467384 0.5 0.0206976 ||| 0-0 1-1 ||| 2 2 1 ||| |||
„ unrechtmäßigen ||| of &apos; unlawful ||| 1 0.000467384 0.5 0.00659411 ||| 0-1 1-2 ||| 1 2 1 ||| |||
„ unschuldig ||| ‘ innocent ||| 1 0.0723789 1 0.28656 ||| 0-0 1-1 ||| 1 1 1 ||| |||
„ unschuldig “ und ||| ‘ innocent ’ and ||| 1 0.00841585 1 0.14911 ||| 0-0 1-1 2-2 3-3 ||| 1 1 1 ||| |||
„ unschuldig “ und „ Freiheit ||| ‘ innocent ’ and ‘ freedom ||| 1 0.00212138 1 0.0750271 ||| 0-0 1-1 2-2 3-3 4-4 5-5 ||| 1 1 1 ||| |||
„ unschuldig “ und „ Freiheit “ ||| ‘ innocent ’ and ‘ freedom ’ ||| 1 0.000296839 1 0.0456349 ||| 0-0 1-1 2-2 3-3 4-4 5-5 6-6 ||| 1 1 1 ||| |||
„ unschuldig “ und „ ||| ‘ innocent ’ and ‘ ||| 1 0.00558997 1 0.0873484 ||| 0-0 1-1 2-2 3-3 4-4 ||| 1 1 1 ||| |||
„ unschuldig “ ||| ‘ innocent ’ ||| 1 0.0101278 1 0.174299 ||| 0-0 1-1 2-2 ||| 1 1 1 ||| |||
„ unschuldige ||| &apos; innocent ||| 0.25 0.00340971 1 0.135224 ||| 0-0 1-1 ||| 4 1 1 ||| |||
„ unser ||| ‘ ours ||| 1 0.0169265 1 0.00103739 ||| 0-0 1-1 ||| 1 1 1 ||| |||
„ unser “ ||| ‘ ours ’ ||| 1 0.00236848 1 0.000630989 ||| 0-0 1-1 2-2 ||| 1 1 1 ||| |||
„ unsere Union ||| ‘ our union ||| 1 0.0328815 1 0.0028985 ||| 0-0 1-1 2-2 ||| 1 1 1 ||| |||
„ unsere Union “ ||| ‘ our union ’ ||| 1 0.00460102 1 0.001763 ||| 0-0 1-1 2-2 3-3 ||| 1 1 1 ||| |||
„ unsere ||| ‘ our ||| 0.25 0.19424 1 0.473542 ||| 0-0 1-1 ||| 4 1 1 ||| |||
„ unseren Verbündeten in London ||| , ‘ our allies in London ||| 1 0.0112381 0.5 0.0299975 ||| 0-1 1-2 2-3 3-4 4-5 ||| 1 2 1 ||| |||
„ unseren Verbündeten in London ||| ‘ our allies in London ||| 1 0.0112381 0.5 0.169794 ||| 0-0 1-1 2-2 3-3 4-4 ||| 1 2 1 ||| |||
„ unseren Verbündeten in London “ ||| , ‘ our allies in London ’ ||| 1 0.00157251 0.5 0.0182458 ||| 0-1 1-2 2-3 3-4 4-5 5-6 ||| 1 2 1 ||| |||
„ unseren Verbündeten in London “ ||| ‘ our allies in London ’ ||| 1 0.00157251 0.5 0.103276 ||| 0-0 1-1 2-2 3-3 4-4 5-5 ||| 1 2 1 ||| |||
„ unseren Verbündeten in ||| , ‘ our allies in ||| 1 0.014273 0.5 0.0308263 ||| 0-1 1-2 2-3 3-4 ||| 1 2 1 ||| |||
„ unseren Verbündeten in ||| ‘ our allies in ||| 1 0.014273 0.5 0.174485 ||| 0-0 1-1 2-2 3-3 ||| 1 2 1 ||| |||
„ unseren Verbündeten ||| , ‘ our allies ||| 1 0.0360729 0.5 0.0527701 ||| 0-1 1-2 2-3 ||| 1 2 1 ||| |||
„ unseren Verbündeten ||| ‘ our allies ||| 1 0.0360729 0.5 0.298694 ||| 0-0 1-1 2-2 ||| 1 2 1 ||| |||
„ unseren ||| , ‘ our ||| 1 0.0707955 0.5 0.0845168 ||| 0-1 1-2 ||| 1 2 1 ||| |||
„ unseren ||| ‘ our ||| 0.25 0.0707955 0.5 0.478389 ||| 0-0 1-1 ||| 4 2 1 ||| |||
„ unseres Europas ||| of ‘ our Europe ||| 1 0.00338974 0.5 0.0445488 ||| 0-1 1-2 2-3 ||| 1 2 1 ||| |||
„ unseres Europas ||| ‘ our Europe ||| 1 0.00338974 0.5 0.13983 ||| 0-0 1-1 2-2 ||| 1 2 1 ||| |||
„ unseres Europas “ ||| of ‘ our Europe ’ ||| 1 0.000474316 0.5 0.0270966 ||| 0-1 1-2 2-3 3-4 ||| 1 2 1 ||| |||
„ unseres Europas “ ||| ‘ our Europe ’ ||| 1 0.000474316 0.5 0.0850507 ||| 0-0 1-1 2-2 3-3 ||| 1 2 1 ||| |||
„ unseres Europas “ – der Europäischen ||| ‘ our Europe ’ – the European ||| 1 2.81826e-05 1 0.0194484 ||| 0-0 1-1 2-2 3-3 4-4 5-5 6-6 ||| 1 1 1 ||| |||
„ unseres Europas “ – der ||| of ‘ our Europe ’ – the ||| 1 7.46953e-05 0.5 0.00701974 ||| 0-1 1-2 2-3 3-4 4-5 5-6 ||| 1 2 1 ||| |||
„ unseres Europas “ – der ||| ‘ our Europe ’ – the ||| 1 7.46953e-05 0.5 0.0220335 ||| 0-0 1-1 2-2 3-3 4-4 5-5 ||| 1 2 1 ||| |||
„ unseres Europas “ – ||| of ‘ our Europe ’ – ||| 1 0.000279576 0.5 0.0138993 ||| 0-1 1-2 2-3 3-4 4-5 ||| 1 2 1 ||| |||
„ unseres Europas “ – ||| ‘ our Europe ’ – ||| 1 0.000279576 0.5 0.0436269 ||| 0-0 1-1 2-2 3-3 4-4 ||| 1 2 1 ||| |||
„ unseres Freundes , des Königs ||| ‘ our friend , the King ||| 1 7.17088e-06 1 0.0150047 ||| 0-0 1-1 2-2 3-3 4-4 5-5 ||| 1 1 1 ||| |||
„ unseres Freundes , des Königs “ ||| ‘ our friend , the King ’ ||| 1 1.0034e-06 1 0.00912652 ||| 0-0 1-1 2-2 3-3 4-4 5-5 6-6 ||| 1 1 1 ||| |||
„ unseres Freundes , des ||| ‘ our friend , the ||| 1 6.79997e-05 1 0.0284571 ||| 0-0 1-1 2-2 3-3 4-4 ||| 1 1 1 ||| |||
„ unseres Freundes , ||| ‘ our friend , ||| 1 0.00114979 1 0.0655909 ||| 0-0 1-1 2-2 3-3 ||| 1 1 1 ||| |||
„ unseres Freundes ||| ‘ our friend ||| 1 0.0017385 1 0.134174 ||| 0-0 1-1 2-2 ||| 1 1 1 ||| |||
„ unseres ||| of ‘ our ||| 1 0.0229887 0.333333 0.0809289 ||| 0-1 1-2 ||| 1 3 1 ||| |||
„ unseres ||| ‘ our ||| 0.5 0.0229887 0.666667 0.254019 ||| 0-0 1-1 ||| 4 3 2 ||| |||
„ unsichtbaren “ Arbeitskräfte . ||| invisible workforce . ||| 1 7.2764e-07 1 0.0373715 ||| 0-0 1-0 2-0 3-1 4-2 ||| 1 1 1 ||| |||
„ unsichtbaren “ Arbeitskräfte ||| invisible workforce ||| 1 7.58959e-07 1 0.0393643 ||| 0-0 1-0 2-0 3-1 ||| 1 1 1 ||| |||
„ unsichtbaren “ ||| invisible ||| 0.0111111 4.05404e-06 1 0.241447 ||| 0-0 1-0 2-0 ||| 90 1 1 ||| |||
„ unsinnig , ungerecht und gegen ||| &apos; absurd , unjust and contrary to ||| 1 5.1479e-07 1 2.44019e-07 ||| 0-0 1-1 2-2 3-3 4-4 5-5 5-6 ||| 1 1 1 ||| |||
„ unsinnig , ungerecht und ||| &apos; absurd , unjust and ||| 1 3.25091e-05 1 0.000788313 ||| 0-0 1-1 2-2 3-3 4-4 ||| 1 1 1 ||| |||
„ unsinnig , ungerecht ||| &apos; absurd , unjust ||| 1 3.9122e-05 1 0.000921482 ||| 0-0 1-1 2-2 3-3 ||| 1 1 1 ||| |||
„ unsinnig , ||| &apos; absurd , ||| 1 0.000126243 1 0.00457644 ||| 0-0 1-1 2-2 ||| 1 1 1 ||| |||
„ unsinnig ||| &apos; absurd ||| 0.5 0.000190881 1 0.00936167 ||| 0-0 1-1 ||| 2 1 1 ||| |||
„ unter Anklage ||| ‘ on trial ||| 1 1.50499e-05 1 0.000560095 ||| 0-0 1-1 2-2 ||| 1 1 1 ||| |||
„ unter Berücksichtigung ||| with ‘ respect ||| 1 8.31353e-06 1 0.000219853 ||| 1-0 0-1 2-2 ||| 1 1 1 ||| |||
„ unter Einbeziehung letztlich ||| ‘ including eventually ||| 1 1.47263e-05 1 0.000499434 ||| 0-0 1-1 2-1 3-2 ||| 1 1 1 ||| |||
„ unter Einbeziehung ||| ‘ including ||| 0.125 0.000172523 1 0.0189161 ||| 0-0 1-1 2-1 ||| 8 1 1 ||| |||
„ unter Hinweis auf den ||| &apos; having regard to the ||| 0.333333 7.70304e-11 1 3.55723e-07 ||| 0-0 1-1 2-1 2-2 3-3 4-4 ||| 3 1 1 ||| |||
„ unter Hinweis auf ||| &apos; having regard to ||| 0.166667 7.7628e-10 1 5.50256e-07 ||| 0-0 1-1 2-1 2-2 3-3 ||| 6 1 1 ||| |||
„ unter Hinweis darauf , dass eine ||| ‘ whereas a ||| 1 4.64395e-14 1 0.000184734 ||| 0-0 1-1 2-1 6-2 ||| 1 1 1 ||| |||
„ unter Hinweis darauf , dass ||| ‘ whereas ||| 0.142857 2.10295e-13 1 0.00035889 ||| 0-0 1-1 2-1 ||| 7 1 1 ||| |||
„ unter Hinweis darauf , ||| ‘ whereas ||| 0.142857 2.08351e-11 1 0.00035889 ||| 0-0 1-1 2-1 ||| 7 1 1 ||| |||
„ unter Hinweis darauf ||| ‘ whereas ||| 0.142857 6.54241e-11 1 0.00035889 ||| 0-0 1-1 2-1 ||| 7 1 1 ||| |||
„ unter Hinweis ||| &apos; having regard ||| 0.166667 1.64046e-08 0.5 1.98385e-06 ||| 0-0 1-1 2-1 2-2 ||| 6 2 1 ||| |||
„ unter Hinweis ||| ‘ whereas ||| 0.142857 7.44302e-07 0.5 0.00035889 ||| 0-0 1-1 2-1 ||| 7 2 1 ||| |||
„ unter der Schirmherrschaft der Vereinten ||| ‘ under the auspices of the United ||| 1 0.000935143 1 0.00313848 ||| 0-0 1-1 2-2 3-3 4-4 4-5 5-6 ||| 1 1 1 ||| |||
„ unter der Schirmherrschaft der ||| ‘ under the auspices of the ||| 1 0.0045843 1 0.00412107 ||| 0-0 1-1 2-2 3-3 4-4 4-5 ||| 1 1 1 ||| |||
„ unter der Schirmherrschaft ||| ‘ under the auspices ||| 1 0.0167531 1 0.0336228 ||| 0-0 1-1 2-2 3-3 ||| 1 1 1 ||| |||
„ unter der ||| ‘ under the ||| 1 0.0459425 1 0.0589946 ||| 0-0 1-1 2-2 ||| 2 2 2 ||| |||
„ unter ||| with ‘ ||| 0.0384615 0.00419621 0.25 0.0250385 ||| 1-0 0-1 ||| 26 4 1 ||| |||
„ unter ||| ‘ on ||| 0.2 0.00202873 0.25 0.0187818 ||| 0-0 1-1 ||| 5 4 1 ||| |||
„ unter ||| ‘ under ||| 1 0.171958 0.5 0.116811 ||| 0-0 1-1 ||| 2 4 2 ||| |||
„ unterlassene Hilfeleistung für ein Volk in ||| &apos; failing to assist a people in ||| 1 1.32454e-12 1 6.17888e-06 ||| 0-0 1-1 2-1 1-2 3-2 2-3 4-4 5-5 6-6 ||| 1 1 1 ||| |||
„ unterlassene Hilfeleistung für ein Volk ||| &apos; failing to assist a people ||| 1 3.3476e-12 1 1.05773e-05 ||| 0-0 1-1 2-1 1-2 3-2 2-3 4-4 5-5 ||| 1 1 1 ||| |||
„ unterlassene Hilfeleistung für ein ||| &apos; failing to assist a ||| 1 6.16336e-11 1 1.26151e-05 ||| 0-0 1-1 2-1 1-2 3-2 2-3 4-4 ||| 1 1 1 ||| |||
„ unterlassene Hilfeleistung für ||| &apos; failing to assist ||| 1 3.86629e-10 1 2.23685e-05 ||| 0-0 1-1 2-1 1-2 3-2 2-3 ||| 1 1 1 ||| |||
„ unternehmerischere Revolution ||| ‘ entrepreneurial revolution ||| 1 0.00125635 1 0.0436944 ||| 0-0 1-1 2-2 ||| 1 1 1 ||| |||
„ unternehmerischere Revolution “ ||| ‘ entrepreneurial revolution ’ ||| 1 0.000175798 1 0.0265769 ||| 0-0 1-1 2-2 3-3 ||| 1 1 1 ||| |||
„ unternehmerischere ||| ‘ entrepreneurial ||| 1 0.00176184 1 0.0585799 ||| 0-0 1-1 ||| 1 1 1 ||| |||
„ unterstützte ||| &apos; supported ||| 0.5 0.000238731 1 0.0574481 ||| 0-0 1-1 ||| 2 1 1 ||| |||
„ unterstützte “ schon Gespräche ||| has already &apos; supported &apos; talks between ||| 1 3.35566e-08 1 6.01231e-08 ||| 3-0 3-1 0-2 1-3 2-4 4-5 4-6 ||| 1 1 1 ||| |||
„ unterstützte “ schon ||| has already &apos; supported &apos; ||| 1 2.68967e-07 1 0.000104239 ||| 3-0 3-1 0-2 1-3 2-4 ||| 1 1 1 ||| |||
„ unterstützte “ ||| &apos; supported &apos; ||| 1 2.69207e-06 1 0.00807937 ||| 0-0 1-1 2-2 ||| 1 1 1 ||| |||
„ untransparent ||| &apos; untransparent ||| 1 0.000620546 1 0.0362207 ||| 0-0 1-1 ||| 1 1 1 ||| |||
„ untransparent “ und ||| &apos; untransparent &apos; and ||| 1 5.81483e-06 1 0.00435783 ||| 0-0 1-1 2-2 3-3 ||| 1 1 1 ||| |||
„ untransparent “ und „ ungerechtfertigt ||| &apos; untransparent &apos; and &apos; unjustified ||| 1 8.68019e-09 1 0.000205564 ||| 0-0 1-1 2-2 3-3 4-4 5-5 ||| 1 1 1 ||| |||
„ untransparent “ und „ ungerechtfertigt “ ||| &apos; untransparent &apos; and &apos; unjustified &apos; ||| 1 9.7883e-11 1 2.89101e-05 ||| 0-0 1-1 2-2 3-3 4-4 5-5 6-6 ||| 1 1 1 ||| |||
„ untransparent “ und „ ||| &apos; untransparent &apos; and &apos; ||| 1 6.67548e-08 1 0.000631376 ||| 0-0 1-1 2-2 3-3 4-4 ||| 1 1 1 ||| |||
„ untransparent “ ||| &apos; untransparent &apos; ||| 1 6.99765e-06 1 0.005094 ||| 0-0 1-1 2-2 ||| 1 1 1 ||| |||
„ unvereinbar mit dem Gemeinsamen Markt ||| ‘ incompatible with the common market ||| 1 8.46903e-05 1 0.0603545 ||| 0-0 1-1 2-2 3-3 4-4 5-5 ||| 1 1 1 ||| |||
„ unvereinbar mit dem Gemeinsamen Markt “ ||| ‘ incompatible with the common market ’ ||| 1 1.18505e-05 1 0.0367104 ||| 0-0 1-1 2-2 3-3 4-4 5-5 6-6 ||| 1 1 1 ||| |||
„ unvereinbar mit dem Gemeinsamen ||| ‘ incompatible with the common ||| 1 0.000486652 1 0.0668027 ||| 0-0 1-1 2-2 3-3 4-4 ||| 1 1 1 ||| |||
„ unvereinbar mit dem ||| ‘ incompatible with the ||| 1 0.00314736 1 0.0855846 ||| 0-0 1-1 2-2 3-3 ||| 1 1 1 ||| |||
„ unvereinbar mit ||| ‘ incompatible with ||| 1 0.0779975 1 0.138201 ||| 0-0 1-1 2-2 ||| 1 1 1 ||| |||
„ unvereinbar ||| ‘ incompatible ||| 1 0.180453 1 0.29135 ||| 0-0 1-1 ||| 1 1 1 ||| |||
„ unverzüglich abgeschlossen werden ||| be ‘ completed as quickly as possible ||| 1 5.51798e-05 1 4.26104e-09 ||| 3-0 0-1 2-2 1-3 1-4 1-5 1-6 3-6 ||| 1 1 1 ||| |||
„ unverzüglich ||| ‘ act without delay ||| 1 0.0296035 1 3.15305e-05 ||| 0-0 1-1 1-2 1-3 ||| 1 1 1 ||| |||
„ unverzügliche ||| &apos; without delay ||| 0.2 5.69264e-05 1 0.000952771 ||| 0-0 1-1 1-2 ||| 5 1 1 ||| |||
„ unverzügliche “ Aufnahme der Gespräche ||| start talks &apos; without delay &apos; ||| 1 1.5373e-10 1 1.39879e-06 ||| 3-0 5-1 0-2 1-3 1-4 2-5 ||| 1 1 1 ||| |||
„ unverzügliche “ ||| &apos; without delay &apos; ||| 0.166667 6.41936e-07 1 0.000133996 ||| 0-0 1-1 1-2 2-3 ||| 6 1 1 ||| |||
„ unvoreingenommenen und ||| ‘ impartial and ||| 1 0.00246957 1 0.0345615 ||| 0-0 1-1 2-2 ||| 1 1 1 ||| |||
„ unvoreingenommenen ||| ‘ impartial ||| 0.5 0.00297192 1 0.0403999 ||| 0-0 1-1 ||| 2 1 1 ||| |||
„ unzulänglich ||| ‘ inadequate ||| 1 0.0226043 1 0.154515 ||| 0-0 1-1 ||| 1 1 1 ||| |||
„ unzulänglich “ und ||| ‘ inadequate ’ and ||| 1 0.00262832 1 0.080401 ||| 0-0 1-1 2-2 3-3 ||| 1 1 1 ||| |||
„ unzulänglich “ und „ unangemessen ||| ‘ inadequate ’ and ‘ inappropriate ||| 1 0.000228134 1 0.0126834 ||| 0-0 1-1 2-2 3-3 4-4 5-5 ||| 1 1 1 ||| |||
„ unzulänglich “ und „ ||| ‘ inadequate ’ and ‘ ||| 1 0.00174578 1 0.0470989 ||| 0-0 1-1 2-2 3-3 4-4 ||| 1 1 1 ||| |||
„ unzulänglich “ ||| ‘ inadequate ’ ||| 1 0.00316296 1 0.0939831 ||| 0-0 1-1 2-2 ||| 1 1 1 ||| |||
„ unzureichend ||| ‘ insufficient ||| 1 0.0888263 1 0.103848 ||| 0-0 1-1 ||| 1 1 1 ||| |||
„ unzureichend “ ||| ‘ insufficient ’ ||| 1 0.0124292 1 0.0631648 ||| 0-0 1-1 2-2 ||| 1 1 1 ||| |||
„ usw. ||| ‘ etc ||| 1 0.439537 1 0.0877955 ||| 0-0 1-1 ||| 1 1 1 ||| |||
„ usw. “ durch ||| ‘ etc ’ with ||| 1 0.000757006 1 0.00243838 ||| 0-0 1-1 2-2 3-3 ||| 1 1 1 ||| |||
„ usw. “ durch „ ||| ‘ etc ’ with ‘ ||| 1 0.000502818 1 0.0014284 ||| 0-0 1-1 2-2 3-3 4-4 ||| 1 1 1 ||| |||
„ usw. “ ||| ‘ etc ’ ||| 1 0.0615032 1 0.0534012 ||| 0-0 1-1 2-2 ||| 1 1 1 ||| |||
„ van Miert ||| &apos; van Miert ||| 1 0.00641351 1 0.0906218 ||| 0-0 1-1 2-2 ||| 1 1 1 ||| |||
„ van ||| &apos; van ||| 0.5 0.00893443 1 0.10686 ||| 0-0 1-1 ||| 2 1 1 ||| |||
„ variablen Geometriesystems ||| ‘ variable geometry scheme ||| 1 0.000581851 1 0.104919 ||| 0-0 1-1 2-2 2-3 ||| 1 1 1 ||| |||
„ variablen Geometriesystems “ ||| ‘ variable geometry scheme ’ ||| 1 8.14167e-05 1 0.0638167 ||| 0-0 1-1 2-2 2-3 3-4 ||| 1 1 1 ||| |||
„ variablen ||| ‘ variable ||| 1 0.11941 1 0.419677 ||| 0-0 1-1 ||| 1 1 1 ||| |||
„ verantwortungsvolle Regierungsführung ||| ‘ good governance ||| 0.142857 0.000247371 1 0.154768 ||| 0-0 1-1 2-2 ||| 7 1 1 ||| |||
„ verantwortungsvolle Regierungsführung “ ||| ‘ good governance ’ to ||| 0.5 3.46139e-05 0.5 0.0133299 ||| 0-0 1-1 2-2 3-3 ||| 2 2 1 ||| |||
„ verantwortungsvolle Regierungsführung “ ||| ‘ good governance ’ ||| 0.142857 3.46139e-05 0.5 0.0941371 ||| 0-0 1-1 2-2 3-3 ||| 7 2 1 ||| |||
„ verantwortungsvolle ||| ‘ good ||| 0.0454545 0.00339822 1 0.170938 ||| 0-0 1-1 ||| 22 1 1 ||| |||
„ verantwortungsvollen Konsums ||| &apos; Responsible consumption ||| 1 2.34077e-05 1 0.000173876 ||| 0-0 1-1 2-2 ||| 1 1 1 ||| |||
„ verantwortungsvollen Konsums “ ||| &apos; Responsible consumption &apos; ||| 1 2.63959e-07 1 2.44535e-05 ||| 0-0 1-1 2-2 3-3 ||| 1 1 1 ||| |||
„ verantwortungsvollen Regierungsführung ||| ‘ good governance ||| 0.142857 0.000220966 1 0.176795 ||| 0-0 1-1 2-2 ||| 7 1 1 ||| |||
„ verantwortungsvollen Regierungsführung “ ||| ‘ good governance ’ ||| 0.142857 3.09192e-05 1 0.107535 ||| 0-0 1-1 2-2 3-3 ||| 7 1 1 ||| |||
„ verantwortungsvollen Staatsführung ||| ‘ good governance ||| 0.142857 0.000249329 1 0.141671 ||| 0-0 1-1 2-2 ||| 7 1 1 ||| |||
„ verantwortungsvollen Staatsführung “ ||| ‘ good governance ’ ||| 0.142857 3.48879e-05 1 0.0861709 ||| 0-0 1-1 2-2 3-3 ||| 7 1 1 ||| |||
„ verantwortungsvollen ||| &apos; Responsible ||| 1 0.00127557 0.333333 0.000303733 ||| 0-0 1-1 ||| 1 3 1 ||| |||
„ verantwortungsvollen ||| ‘ good ||| 0.0909091 0.00303549 0.666667 0.195266 ||| 0-0 1-1 ||| 22 3 2 ||| |||
„ verantwortungsvoller Regierungsführung ||| ‘ good governance ||| 0.142857 4.30812e-05 1 0.0838876 ||| 0-0 1-1 2-2 ||| 7 1 1 ||| |||
„ verantwortungsvoller Regierungsführung “ kann ||| ‘ good governance ’ can ||| 1 2.04765e-06 1 0.0213066 ||| 0-0 1-1 2-2 3-3 4-4 ||| 1 1 1 ||| |||
„ verantwortungsvoller Regierungsführung “ ||| ‘ good governance ’ ||| 0.142857 6.02823e-06 1 0.0510242 ||| 0-0 1-1 2-2 3-3 ||| 7 1 1 ||| |||
„ verantwortungsvoller ||| ‘ good ||| 0.0454545 0.00059182 1 0.092652 ||| 0-0 1-1 ||| 22 1 1 ||| |||
„ verbindliche europäische Rechtsvorschriften ||| ‘ binding European legislation ||| 1 0.00259434 1 0.227253 ||| 0-0 1-1 2-2 3-3 ||| 1 1 1 ||| |||
„ verbindliche europäische Rechtsvorschriften “ aufzustellen ||| to establish ‘ binding European legislation ’ ||| 1 1.88795e-06 1 0.00141687 ||| 5-0 5-1 0-2 1-3 2-4 3-5 4-6 ||| 1 1 1 ||| |||
„ verbindliche europäische Rechtsvorschriften “ ||| ‘ binding European legislation ’ ||| 1 0.000363018 1 0.138226 ||| 0-0 1-1 2-2 3-3 4-4 ||| 1 1 1 ||| |||
„ verbindliche europäische ||| ‘ binding European ||| 1 0.0096052 1 0.347301 ||| 0-0 1-1 2-2 ||| 1 1 1 ||| |||
„ verbindliche ||| ‘ binding ||| 0.5 0.127047 1 0.38577 ||| 0-0 1-1 ||| 2 1 1 ||| |||
„ verborgene ||| ‘ hidden ||| 1 0.0125522 1 0.195266 ||| 0-0 1-1 ||| 1 1 1 ||| |||
„ verbrannter Palast ||| ‘ burnt palace ||| 1 0.00642474 1 0.152308 ||| 0-0 1-1 2-2 ||| 1 1 1 ||| |||
„ verbrannter Palast “ ||| ‘ burnt palace ’ ||| 1 0.000898995 1 0.0926405 ||| 0-0 1-1 2-2 3-3 ||| 1 1 1 ||| |||
„ verbrannter ||| ‘ burnt ||| 1 0.0242163 1 0.2929 ||| 0-0 1-1 ||| 1 1 1 ||| |||
„ verdaut ||| ‘ digested ||| 1 0.21255 1 0.17357 ||| 0-0 1-1 ||| 1 1 1 ||| |||
„ verdaut “ hat ||| has ‘ digested ’ ||| 1 0.0102284 1 0.0470967 ||| 3-0 0-1 1-2 2-3 ||| 1 1 1 ||| |||
„ verdaut “ ||| ‘ digested ’ ||| 1 0.0297416 1 0.105573 ||| 0-0 1-1 2-2 ||| 1 1 1 ||| |||
„ vereinbart ||| ‘ agreed ||| 0.5 0.0606944 1 0.377898 ||| 0-0 1-1 ||| 2 1 1 ||| |||
„ vereinbart “ wurde , oder ||| was ‘ agreed ’ , or ||| 1 0.000714929 1 0.0241579 ||| 3-0 0-1 1-2 2-3 4-4 5-5 ||| 1 1 1 ||| |||
„ vereinbart “ wurde , ||| was ‘ agreed ’ , ||| 1 0.00104619 1 0.028664 ||| 3-0 0-1 1-2 2-3 4-4 ||| 1 1 1 ||| |||
„ vereinbart “ wurde ||| was ‘ agreed ’ ||| 1 0.00158186 1 0.0586357 ||| 3-0 0-1 1-2 2-3 ||| 1 1 1 ||| |||
„ vereinbart “ ||| ‘ agreed ’ ||| 0.5 0.0084928 1 0.229854 ||| 0-0 1-1 2-2 ||| 2 1 1 ||| |||
„ vereinfachten Verordnungen ||| ‘ simplified regulations ||| 1 0.0220003 1 0.356872 ||| 0-0 1-1 2-2 ||| 1 1 1 ||| |||
„ vereinfachten Verordnungen “ ||| ‘ simplified regulations ’ ||| 1 0.00307844 1 0.217066 ||| 0-0 1-1 2-2 3-3 ||| 1 1 1 ||| |||
„ vereinfachten ||| ‘ simplified ||| 1 0.117628 1 0.43935 ||| 0-0 1-1 ||| 2 2 2 ||| |||
„ vereinfachten “ Methoden der Revision der ||| ‘ simplified ’ methods of revising the ||| 1 7.48986e-05 1 0.00118721 ||| 0-0 1-1 2-2 3-3 4-4 5-5 6-6 ||| 1 1 1 ||| |||
„ vereinfachten “ Methoden der Revision ||| ‘ simplified ’ methods of revising ||| 1 0.000280337 1 0.0023507 ||| 0-0 1-1 2-2 3-3 4-4 5-5 ||| 1 1 1 ||| |||
„ vereinfachten “ Methoden der ||| ‘ simplified ’ methods of ||| 1 0.00152771 1 0.0418813 ||| 0-0 1-1 2-2 3-3 4-4 ||| 1 1 1 ||| |||
„ vereinfachten “ Methoden ||| ‘ simplified ’ methods ||| 1 0.00545407 1 0.172573 ||| 0-0 1-1 2-2 3-3 ||| 1 1 1 ||| |||
„ vereinfachten “ ||| ‘ simplified ’ ||| 1 0.0164594 1 0.267232 ||| 0-0 1-1 2-2 ||| 1 1 1 ||| |||
„ verfassungsmäßig ||| ‘ constitutional ||| 0.5 0.00336487 1 0.12037 ||| 0-0 1-1 ||| 2 1 1 ||| |||
„ verfassungsmäßig “ , weil ||| ‘ constitutional ’ , because such ||| 1 0.000121723 0.5 6.60405e-06 ||| 0-0 1-1 2-2 3-3 4-4 ||| 1 2 1 ||| |||
„ verfassungsmäßig “ , weil ||| ‘ constitutional ’ , because ||| 1 0.000121723 0.5 0.0253807 ||| 0-0 1-1 2-2 3-3 4-4 ||| 1 2 1 ||| |||
„ verfassungsmäßig “ , ||| ‘ constitutional ’ , ||| 1 0.000311397 1 0.0357907 ||| 0-0 1-1 2-2 3-3 ||| 1 1 1 ||| |||
„ verfassungsmäßig “ ||| ‘ constitutional ’ ||| 0.5 0.000470837 1 0.0732143 ||| 0-0 1-1 2-2 ||| 2 1 1 ||| |||
„ verhandeln ||| ‘ negotiate ||| 1 0.226469 1 0.257602 ||| 0-0 1-1 ||| 1 1 1 ||| |||
„ verhandeln “ ||| ‘ negotiate ’ ||| 1 0.0316891 1 0.156685 ||| 0-0 1-1 2-2 ||| 1 1 1 ||| |||
„ verkaufen ||| ‘ sell ||| 1 0.350761 1 0.366832 ||| 0-0 1-1 ||| 1 1 1 ||| |||
„ verkaufen “ ||| ‘ sell ’ ||| 1 0.049081 1 0.223124 ||| 0-0 1-1 2-2 ||| 1 1 1 ||| |||
„ verkauft ||| ‘ sold ||| 1 0.286478 1 0.365036 ||| 0-0 1-1 ||| 1 1 1 ||| |||
„ verkauft “ hat ||| has ‘ sold ’ ||| 1 0.0137859 1 0.0990494 ||| 3-0 0-1 1-2 2-3 ||| 1 1 1 ||| |||
„ verkauft “ ||| ‘ sold ’ ||| 1 0.0400861 1 0.222032 ||| 0-0 1-1 2-2 ||| 1 1 1 ||| |||
„ verletzen ||| ‘ break ||| 1 0.00490201 1 0.0120962 ||| 0-0 1-1 ||| 1 1 1 ||| |||
„ verliert ||| &apos; lose ||| 0.5 0.000426026 1 0.0174725 ||| 0-0 1-1 ||| 2 1 1 ||| |||
„ verliert “ , ||| &apos; lose &apos; ||| 0.333333 1.52993e-06 1 0.0024573 ||| 0-0 1-1 2-2 ||| 3 1 1 ||| |||
„ verliert “ ||| &apos; lose &apos; ||| 0.333333 4.80413e-06 1 0.0024573 ||| 0-0 1-1 2-2 ||| 3 1 1 ||| |||
„ verlorene Ehre ||| &apos; lost honour ||| 1 7.57756e-05 1 0.0449929 ||| 0-0 1-1 2-2 ||| 1 1 1 ||| |||
„ verlorene Ehre “ der EU ||| &apos; lost honour &apos; of the ΕU ||| 1 1.44214e-07 1 2.72668e-06 ||| 0-0 1-1 2-2 3-3 4-4 4-5 5-6 ||| 1 1 1 ||| |||
„ verlorene Ehre “ der ||| &apos; lost honour &apos; of the ||| 1 2.33822e-07 1 0.000775572 ||| 0-0 1-1 2-2 3-3 4-4 4-5 ||| 1 1 1 ||| |||
„ verlorene Ehre “ ||| &apos; lost honour &apos; ||| 1 8.54491e-07 1 0.0063277 ||| 0-0 1-1 2-2 3-3 ||| 1 1 1 ||| |||
„ verlorene ||| &apos; lost ||| 0.25 0.000191024 1 0.0825028 ||| 0-0 1-1 ||| 4 1 1 ||| |||
„ vermietet “ werden , ||| &apos; hired out ’ , has ||| 1 2.11971e-07 1 0.000354563 ||| 0-0 1-1 1-2 2-3 4-4 1-5 ||| 1 1 1 ||| |||
„ vernichten ||| ‘ exterminate ||| 1 0.0857058 1 0.00753438 ||| 0-0 1-1 ||| 1 1 1 ||| |||
„ vernichten “ und ||| ‘ exterminate ’ and ||| 1 0.00996544 1 0.00392047 ||| 0-0 1-1 2-2 3-3 ||| 1 1 1 ||| |||
„ vernichten “ und „ zerstören ||| ‘ exterminate ’ and ‘ destroy ||| 1 0.00217202 1 0.00111648 ||| 0-0 1-1 2-2 3-3 4-4 5-5 ||| 1 1 1 ||| |||
„ vernichten “ und „ zerstören “ ||| ‘ exterminate ’ and ‘ destroy ’ ||| 1 0.000303924 1 0.000679094 ||| 0-0 1-1 2-2 3-3 4-4 5-5 6-6 ||| 1 1 1 ||| |||
„ vernichten “ und „ ||| ‘ exterminate ’ and ‘ ||| 1 0.00661924 1 0.00229661 ||| 0-0 1-1 2-2 3-3 4-4 ||| 1 1 1 ||| |||
„ vernichten “ ||| ‘ exterminate ’ ||| 1 0.0119926 1 0.00458275 ||| 0-0 1-1 2-2 ||| 1 1 1 ||| |||
„ vernünftige Ausgewogenheit ||| ‘ properly balanced ||| 0.5 3.41657e-05 1 0.000346461 ||| 0-0 1-1 2-2 ||| 2 1 1 ||| |||
„ vernünftige Ausgewogenheit “ ||| ‘ properly balanced ’ ||| 0.5 4.78071e-06 1 0.000210733 ||| 0-0 1-1 2-2 3-3 ||| 2 1 1 ||| |||
„ vernünftige ||| ‘ properly ||| 0.5 0.00192425 1 0.00575724 ||| 0-0 1-1 ||| 2 1 1 ||| |||
„ versteuerte Verbringung ||| ‘ duty paid movements ||| 1 4.85932e-06 1 0.00481504 ||| 0-0 1-1 1-2 2-3 ||| 1 1 1 ||| |||
„ versteuerte Verbringung “ von verbrauchsteuerpflichtigen ||| ‘ duty paid movements ’ of excise ||| 1 8.27495e-10 1 0.000351567 ||| 0-0 1-1 1-2 2-3 3-4 4-5 5-6 ||| 1 1 1 ||| |||
„ versteuerte Verbringung “ von ||| ‘ duty paid movements ’ of ||| 1 7.33712e-08 1 0.00117189 ||| 0-0 1-1 1-2 2-3 3-4 4-5 ||| 1 1 1 ||| |||
„ versteuerte Verbringung “ ||| ‘ duty paid movements ’ ||| 1 6.7995e-07 1 0.00292872 ||| 0-0 1-1 1-2 2-3 3-4 ||| 1 1 1 ||| |||
„ versteuerte ||| ‘ duty paid ||| 1 0.000122216 1 0.0366125 ||| 0-0 1-1 1-2 ||| 1 1 1 ||| |||
„ versuchen , zu verhindern ||| ‘ try to prevent ||| 1 0.00294004 1 0.0306663 ||| 0-0 1-1 2-2 3-2 4-3 ||| 1 1 1 ||| |||
„ versuchen , zu verhindern “ . ||| ‘ try to prevent ’ . ||| 1 0.000394415 1 0.0177084 ||| 0-0 1-1 2-2 3-2 4-3 5-4 6-5 ||| 1 1 1 ||| |||
„ versuchen , zu verhindern “ ||| ‘ try to prevent ’ ||| 1 0.000411391 1 0.0186526 ||| 0-0 1-1 2-2 3-2 4-3 5-4 ||| 1 1 1 ||| |||
„ versuchen , zu ||| ‘ try to ||| 1 0.0107408 1 0.0652179 ||| 0-0 1-1 2-2 3-2 ||| 1 1 1 ||| |||
„ versuchen ||| ‘ try ||| 1 0.26942 1 0.174823 ||| 0-0 1-1 ||| 1 1 1 ||| |||
„ verurteilt nachdrücklich alle rassistischen und ||| ‘ strongly condemns all racist and ||| 1 0.00268348 1 0.00435991 ||| 0-0 2-1 1-2 3-3 4-4 5-5 ||| 1 1 1 ||| |||
„ verurteilt nachdrücklich alle rassistischen ||| ‘ strongly condemns all racist ||| 1 0.00322934 1 0.00509643 ||| 0-0 2-1 1-2 3-3 4-4 ||| 1 1 1 ||| |||
„ verurteilt nachdrücklich alle ||| ‘ strongly condemns all ||| 1 0.0121924 1 0.00707259 ||| 0-0 2-1 1-2 3-3 ||| 1 1 1 ||| |||
„ verurteilt nachdrücklich ||| ‘ strongly condemns ||| 1 0.0401764 1 0.00987202 ||| 0-0 2-1 1-2 ||| 1 1 1 ||| |||
„ verurteilt ||| &quot; condemnation ||| 1 0.000391515 0.5 0.000126017 ||| 0-0 1-1 ||| 1 2 1 ||| |||
„ verurteilt ||| ‘ condemned ||| 1 0.323686 0.5 0.170363 ||| 0-0 1-1 ||| 1 2 1 ||| |||
„ verurteilt “ ||| &quot; condemnation &quot; ||| 1 1.08031e-06 0.5 3.45502e-07 ||| 0-0 1-1 2-2 ||| 1 2 1 ||| |||
„ verurteilt “ ||| ‘ condemned ’ ||| 1 0.0452925 0.5 0.103622 ||| 0-0 1-1 2-2 ||| 1 2 1 ||| |||
„ verwaisten ||| ‘ orphan ||| 1 0.03333 1 0.455622 ||| 0-0 1-1 ||| 1 1 1 ||| |||
„ verwaisten “ oder ||| ‘ orphan ’ or ||| 1 0.00318704 1 0.233564 ||| 0-0 1-1 2-2 3-3 ||| 1 1 1 ||| |||
„ verwaisten “ oder „ ||| ‘ orphan ’ or ‘ ||| 1 0.0021169 1 0.136822 ||| 0-0 1-1 2-2 3-3 4-4 ||| 1 1 1 ||| |||
„ verwaisten “ oder „ öffentlichen ||| ‘ orphan ’ or ‘ public ||| 1 0.00056376 1 0.121736 ||| 0-0 1-1 2-2 3-3 4-4 5-5 ||| 1 1 1 ||| |||
„ verwaisten “ oder „ öffentlichen “ ||| ‘ orphan ’ or ‘ public ’ ||| 1 7.88853e-05 1 0.0740452 ||| 0-0 1-1 2-2 3-3 4-4 5-5 6-6 ||| 1 1 1 ||| |||
„ verwaisten “ ||| ‘ orphan ’ ||| 1 0.00466377 1 0.27713 ||| 0-0 1-1 2-2 ||| 1 1 1 ||| |||
„ verwässert ||| ‘ watered down ||| 1 0.114725 1 0.0437298 ||| 0-0 1-1 1-2 ||| 1 1 1 ||| |||
„ verwässert “ ||| ‘ watered down ’ ||| 1 0.0160531 1 0.0265984 ||| 0-0 1-1 1-2 2-3 ||| 1 1 1 ||| |||
„ viel Lärm um nichts ||| ‘ much ado about nothing ||| 1 0.000383184 1 3.60714e-05 ||| 0-0 1-1 2-2 3-3 4-4 ||| 1 1 1 ||| |||
„ viel Lärm um nichts “ . ||| ‘ much ado about nothing ’ . ||| 1 5.14053e-05 1 2.08295e-05 ||| 0-0 1-1 2-2 3-3 4-4 5-5 6-6 ||| 1 1 1 ||| |||
„ viel Lärm um nichts “ ||| ‘ much ado about nothing ’ ||| 1 5.36178e-05 1 2.19403e-05 ||| 0-0 1-1 2-2 3-3 4-4 5-5 ||| 1 1 1 ||| |||
„ viel Lärm um ||| ‘ much ado about ||| 1 0.000836472 1 0.000104911 ||| 0-0 1-1 2-2 3-3 ||| 1 1 1 ||| |||
„ viel Lärm ||| ‘ much ado ||| 1 0.0117332 1 0.00354985 ||| 0-0 1-1 2-2 ||| 1 1 1 ||| |||
„ viel ||| ‘ much ||| 1 0.156798 1 0.170715 ||| 0-0 1-1 ||| 1 1 1 ||| |||
„ vielleicht ||| ‘ possible ||| 0.5 0.000882217 0.5 0.0016697 ||| 0-0 1-1 ||| 2 2 1 ||| |||
„ vielleicht ||| ‘ possibly ||| 1 0.0635578 0.5 0.00762822 ||| 0-0 1-1 ||| 1 2 1 ||| |||
„ vielleicht “ ||| ‘ possible ’ ||| 1 0.000123446 0.5 0.00101559 ||| 0-0 1-1 2-2 ||| 1 2 1 ||| |||
„ vielleicht “ ||| ‘ possibly ’ ||| 1 0.00889346 0.5 0.00463983 ||| 0-0 1-1 2-2 ||| 1 2 1 ||| |||
„ vier ||| &apos; four ||| 0.166667 0.0100616 0.5 0.13469 ||| 0-0 1-1 ||| 6 2 1 ||| |||
„ vier ||| of &apos; four ||| 0.5 0.0100616 0.5 0.0429114 ||| 0-1 1-2 ||| 2 2 1 ||| |||
„ vier “ ||| &apos; four &apos; ||| 0.333333 0.000113461 0.5 0.0189425 ||| 0-0 1-1 2-2 ||| 3 2 1 ||| |||
„ vier “ ||| of &apos; four &apos; ||| 0.5 0.000113461 0.5 0.00603496 ||| 0-1 1-2 2-3 ||| 2 2 1 ||| |||
„ viva ||| &apos; viva ||| 1 0.0076534 0.5 0.144883 ||| 0-0 1-1 ||| 1 2 1 ||| |||
„ viva ||| ‘ viva ||| 1 0.442813 0.5 0.585799 ||| 0-0 1-1 ||| 1 2 1 ||| |||
„ viva “ für die Aussöhnung , ||| &apos; viva &apos; for reconciliation , ||| 1 5.81702e-07 1 0.00380514 ||| 0-0 1-1 2-2 3-3 5-4 6-5 ||| 1 1 1 ||| |||
„ viva “ für die Aussöhnung ||| &apos; viva &apos; for reconciliation ||| 1 8.79543e-07 1 0.00778389 ||| 0-0 1-1 2-2 3-3 5-4 ||| 1 1 1 ||| |||
„ viva “ für die ||| &apos; viva &apos; for ||| 0.5 3.09236e-06 1 0.00963719 ||| 0-0 1-1 2-2 3-3 ||| 2 1 1 ||| |||
„ viva “ für ||| &apos; viva &apos; for ||| 0.5 3.42431e-05 1 0.00963719 ||| 0-0 1-1 2-2 3-3 ||| 2 1 1 ||| |||
„ viva “ ||| &apos; viva &apos; ||| 1 8.63043e-05 0.5 0.020376 ||| 0-0 1-1 2-2 ||| 1 2 1 ||| |||
„ viva “ ||| ‘ viva ’ ||| 1 0.0619616 0.5 0.35631 ||| 0-0 1-1 2-2 ||| 1 2 1 ||| |||
„ vollberechtigtes Kommissionsmitglied “ ||| ‘ full Commissioner ’ right ||| 1 6.56161e-07 1 0.00244356 ||| 0-0 1-1 2-2 3-3 1-4 ||| 1 1 1 ||| |||
„ vollkommen ||| ‘ utterly ||| 1 0.0436349 1 0.00733269 ||| 0-0 1-1 ||| 1 1 1 ||| |||
„ vollständig durch zusätzliche Mittel finanziert werden ||| ‘ be fully financed through additional resources ||| 1 0.000113386 1 0.000158694 ||| 0-0 6-1 1-2 5-3 6-3 2-4 3-5 4-6 ||| 1 1 1 ||| |||
„ vollständige Assoziierung ||| ‘ fully associated ||| 1 4.9819e-06 1 0.000929904 ||| 0-0 1-1 2-2 ||| 1 1 1 ||| |||
„ vollständige Assoziierung “ ||| ‘ fully associated ’ ||| 1 6.97103e-07 1 0.00056561 ||| 0-0 1-1 2-2 3-3 ||| 1 1 1 ||| |||
„ vollständige ||| ‘ fully ||| 1 0.00507012 1 0.0404509 ||| 0-0 1-1 ||| 1 1 1 ||| |||
„ vom Hof auf den ||| ‘ from farm to ||| 1 4.18947e-07 1 0.00116644 ||| 0-0 1-1 2-2 3-3 4-3 ||| 1 1 1 ||| |||
„ vom Hof ||| ‘ from farm ||| 1 0.00076509 1 0.00727192 ||| 0-0 1-1 2-2 ||| 1 1 1 ||| |||
„ vom ||| ‘ from ||| 0.5 0.0229194 1 0.0589658 ||| 0-0 1-1 ||| 2 1 1 ||| |||
„ von Italien illegal eingeführt ||| ‘ unlawfully introduced by Italy ||| 1 0.00203919 1 0.000162496 ||| 0-0 3-1 4-2 1-3 2-4 ||| 1 1 1 ||| |||
„ von allgemeinem Interesse ||| ‘ of general interest ||| 1 0.00169652 1 0.0998009 ||| 0-0 1-1 2-2 3-3 ||| 1 1 1 ||| |||
„ von allgemeinem Interesse “ und ||| ‘ of general interest ’ and ||| 1 0.000197263 1 0.0519308 ||| 0-0 1-1 2-2 3-3 4-4 5-5 ||| 1 1 1 ||| |||
„ von allgemeinem Interesse “ ||| ‘ of general interest ’ ||| 1 0.00023739 1 0.0607034 ||| 0-0 1-1 2-2 3-3 4-4 ||| 1 1 1 ||| |||
„ von allgemeinem ||| ‘ of general ||| 1 0.00332951 1 0.186299 ||| 0-0 1-1 2-2 ||| 1 1 1 ||| |||
„ von mindestens fünf Jahren ||| ‘ at least five years ||| 1 0.000359262 1 0.000465495 ||| 0-0 1-1 2-2 3-3 4-4 ||| 1 1 1 ||| |||
„ von mindestens fünf Jahren “ ||| ‘ at least five years ’ ||| 1 5.02705e-05 1 0.000283135 ||| 0-0 1-1 2-2 3-3 4-4 5-5 ||| 1 1 1 ||| |||
„ von mindestens fünf ||| ‘ at least five ||| 1 0.000625184 1 0.000722387 ||| 0-0 1-1 2-2 3-3 ||| 1 1 1 ||| |||
„ von mindestens ||| ‘ at least ||| 0.25 0.000722773 1 0.000793017 ||| 0-0 1-1 2-2 ||| 4 1 1 ||| |||
„ von oben ||| ‘ from above ||| 1 0.0042752 1 0.0070592 ||| 0-0 1-1 2-2 ||| 1 1 1 ||| |||
„ von oben “ mit ||| ‘ from above ’ with ||| 1 0.000258568 1 0.00203671 ||| 0-0 1-1 2-2 3-3 4-4 ||| 1 1 1 ||| |||
„ von oben “ ||| ‘ from above ’ ||| 1 0.000598216 1 0.00429372 ||| 0-0 1-1 2-2 3-3 ||| 1 1 1 ||| |||
„ von ||| ‘ at ||| 0.333333 0.00491098 0.333333 0.00174603 ||| 0-0 1-1 ||| 3 3 1 ||| |||
„ von ||| ‘ from ||| 0.5 0.15968 0.333333 0.0472294 ||| 0-0 1-1 ||| 2 3 1 ||| |||
„ von ||| ‘ of ||| 0.333333 0.0716739 0.333333 0.2344 ||| 0-0 1-1 ||| 3 3 1 ||| |||
„ vor Ort ||| ‘ on the ground ||| 1 0.000323888 1 0.000443543 ||| 0-0 1-1 2-2 2-3 ||| 1 1 1 ||| |||
„ vor Ort “ ||| ‘ on the ground ’ ||| 1 4.53207e-05 1 0.000269783 ||| 0-0 1-1 2-2 2-3 3-4 ||| 1 1 1 ||| |||
„ vor ||| ‘ on ||| 0.2 0.00269939 1 0.0109232 ||| 0-0 1-1 ||| 5 1 1 ||| |||
„ vorbeugende Maßnahmen ||| ‘ preventive measures ||| 1 0.0363732 1 0.147186 ||| 0-0 1-1 2-2 ||| 1 1 1 ||| |||
„ vorbeugende ||| ‘ preventive ||| 1 0.0545934 1 0.257842 ||| 0-0 1-1 ||| 1 1 1 ||| |||
„ vorbildlicher ||| ‘ exemplary ||| 1 0.0185046 1 0.115939 ||| 0-0 1-1 ||| 1 1 1 ||| |||
„ vorbildlicher “ Schüler . ||| ‘ exemplary pupil ’ . ||| 1 0.000713705 1 0.00361465 ||| 0-0 1-1 3-2 2-3 4-4 ||| 1 1 1 ||| |||
„ vorbildlicher “ Schüler ||| ‘ exemplary pupil ’ ||| 1 0.000744424 1 0.0038074 ||| 0-0 1-1 3-2 2-3 ||| 1 1 1 ||| |||
„ vorgesehen sind automatische ||| that ‘ there will be automatic ||| 1 3.81369e-07 0.5 6.10216e-09 ||| 0-1 1-2 1-3 2-3 1-4 3-5 ||| 1 2 1 ||| |||
„ vorgesehen sind automatische ||| ‘ there will be automatic ||| 1 3.81369e-07 0.5 6.29536e-07 ||| 0-0 1-1 1-2 2-2 1-3 3-4 ||| 1 2 1 ||| |||
„ vorgesehen sind automatische … Anpassungen ||| ‘ there will be automatic ... adjustments ||| 1 3.44007e-09 1 8.10465e-08 ||| 0-0 1-1 1-2 2-2 1-3 3-4 4-5 5-6 ||| 1 1 1 ||| |||
„ vorgesehen sind automatische … ||| that ‘ there will be automatic ... ||| 1 8.59595e-09 0.5 1.67928e-09 ||| 0-1 1-2 1-3 2-3 1-4 3-5 4-6 ||| 1 2 1 ||| |||
„ vorgesehen sind automatische … ||| ‘ there will be automatic ... ||| 1 8.59595e-09 0.5 1.73244e-07 ||| 0-0 1-1 1-2 2-2 1-3 3-4 4-5 ||| 1 2 1 ||| |||
„ vorgesehen sind ||| that ‘ there will be ||| 1 1.55811e-06 0.5 7.57059e-09 ||| 0-1 1-2 1-3 2-3 1-4 ||| 1 2 1 ||| |||
„ vorgesehen sind ||| ‘ there will be ||| 1 1.55811e-06 0.5 7.81029e-07 ||| 0-0 1-1 1-2 2-2 1-3 ||| 1 2 1 ||| |||
„ vorprogrammiert ||| &apos; pre-programmed ||| 1 0.00156547 1 0.00269968 ||| 0-0 1-1 ||| 1 1 1 ||| |||
„ vorprogrammiert “ wären . ||| would be &apos; pre-programmed &apos; . ||| 1 1.59325e-07 1 2.90302e-05 ||| 3-0 3-1 0-2 1-3 2-4 4-5 ||| 1 1 1 ||| |||
„ vorprogrammiert “ wären ||| would be &apos; pre-programmed &apos; ||| 1 1.66182e-07 1 3.05782e-05 ||| 3-0 3-1 0-2 1-3 2-4 ||| 1 1 1 ||| |||
„ vorprogrammiert “ ||| &apos; pre-programmed &apos; ||| 1 1.76532e-05 1 0.000379676 ||| 0-0 1-1 2-2 ||| 1 1 1 ||| |||
„ vorsichtig ||| ‘ prudent ||| 0.333333 0.0336825 1 0.0127017 ||| 0-0 1-1 ||| 3 1 1 ||| |||
„ vorsichtig “ bzw. dagegen ||| ‘ prudent ’ or resistant to it ||| 1 4.67864e-07 1 2.10735e-09 ||| 0-0 1-1 2-2 3-3 4-4 4-5 4-6 ||| 1 1 1 ||| |||
„ vorsichtig “ bzw. ||| ‘ prudent ’ or ||| 1 0.000221171 1 0.00397059 ||| 0-0 1-1 2-2 3-3 ||| 1 1 1 ||| |||
„ vorsichtig “ ||| ‘ prudent ’ ||| 1 0.0047131 1 0.00772572 ||| 0-0 1-1 2-2 ||| 1 1 1 ||| |||
„ vorübergehend ||| ‘ temporary ||| 1 0.0259675 1 0.137693 ||| 0-0 1-1 ||| 1 1 1 ||| |||
„ wachsenden Kluft zwischen der ||| ‘ growing disconnect between the ||| 1 0.00168963 1 0.000266556 ||| 0-0 1-1 2-2 3-3 4-4 ||| 1 1 1 ||| |||
„ wachsenden Kluft zwischen der „ Legalität ||| ‘ growing disconnect between the “ legality ||| 1 8.47925e-05 1 3.0434e-07 ||| 0-0 1-1 2-2 3-3 4-4 5-5 6-6 ||| 1 1 1 ||| |||
„ wachsenden Kluft zwischen der „ ||| ‘ growing disconnect between the “ ||| 1 0.000422407 1 5.75174e-07 ||| 0-0 1-1 2-2 3-3 4-4 5-5 ||| 1 1 1 ||| |||
„ wachsenden Kluft zwischen ||| ‘ growing disconnect between ||| 1 0.00632409 1 0.000527787 ||| 0-0 1-1 2-2 3-3 ||| 1 1 1 ||| |||
„ wachsenden Kluft ||| ‘ growing disconnect ||| 1 0.0084432 1 0.000643403 ||| 0-0 1-1 2-2 ||| 1 1 1 ||| |||
„ wachsenden ||| ‘ growing ||| 1 0.0731744 1 0.268297 ||| 0-0 1-1 ||| 1 1 1 ||| |||
„ wann ||| ‘ when ||| 0.25 0.0226491 1 0.443708 ||| 0-0 1-1 ||| 4 1 1 ||| |||
„ wann “ . ||| ‘ when ’ . ||| 1 0.00303844 1 0.256221 ||| 0-0 1-1 2-2 3-3 ||| 1 1 1 ||| |||
„ wann “ ||| ‘ when ’ ||| 1 0.00316922 1 0.269884 ||| 0-0 1-1 2-2 ||| 1 1 1 ||| |||
„ was ||| ‘ what ||| 0.0833333 0.214615 1 0.218522 ||| 0-0 1-1 ||| 12 1 1 ||| |||
„ weg vom ||| ‘ away from ||| 1 0.000696742 1 0.0189651 ||| 0-0 1-1 2-2 ||| 1 1 1 ||| |||
„ weg vom Öl ||| ‘ away from oil ||| 1 0.000109426 1 0.016046 ||| 0-0 1-1 2-2 3-3 ||| 1 1 1 ||| |||
„ weg vom Öl “ ||| ‘ away from oil ’ ||| 1 1.53117e-05 1 0.00975992 ||| 0-0 1-1 2-2 3-3 4-4 ||| 1 1 1 ||| |||
„ weg ||| ‘ away ||| 1 0.020192 1 0.18841 ||| 0-0 1-1 ||| 1 1 1 ||| |||
„ weiche ||| ‘ soft ||| 0.5 0.0400822 1 0.300961 ||| 0-0 1-1 ||| 2 1 1 ||| |||
„ weiche “ Zuständigkeit ||| ‘ soft ’ competence ||| 1 0.0017445 1 0.0639858 ||| 0-0 1-1 2-2 3-3 ||| 1 1 1 ||| |||
„ weiche “ ||| ‘ soft ’ ||| 0.2 0.00560859 1 0.183058 ||| 0-0 1-1 2-2 ||| 5 1 1 ||| |||
„ weicher ||| ‘ soft ||| 0.5 0.0164624 1 0.374261 ||| 0-0 1-1 ||| 2 1 1 ||| |||
„ weicher “ – ||| ‘ soft ’ ||| 0.2 2.78739e-05 1 0.116305 ||| 0-0 1-1 2-2 3-2 ||| 5 1 1 ||| |||
„ weiches Recht “ werden nicht ||| soft law will not ||| 1 1.04117e-09 1 0.00297164 ||| 0-0 1-0 3-0 2-1 4-2 5-3 ||| 1 1 1 ||| |||
„ weiches Recht “ werden ||| soft law will ||| 1 1.37172e-09 1 0.00489021 ||| 0-0 1-0 3-0 2-1 4-2 ||| 1 1 1 ||| |||
„ weiches Recht “ ||| soft law ||| 0.0196078 6.13204e-09 1 0.0289186 ||| 0-0 1-0 3-0 2-1 ||| 51 1 1 ||| |||
„ weiches ||| soft ||| 0.00364964 2.7869e-05 1 0.444599 ||| 0-0 1-0 ||| 274 1 1 ||| |||
„ weil es ||| ‘ because it ||| 0.5 0.0823057 1 0.161756 ||| 0-0 1-1 2-2 ||| 2 1 1 ||| |||
„ weil ||| ‘ because ||| 0.5 0.25964 1 0.415414 ||| 0-0 1-1 ||| 2 1 1 ||| |||
„ weit reichende Strukturreformen ||| ‘ substantial structural reforms ||| 1 2.07984e-08 1 0.000421853 ||| 0-0 1-1 2-1 3-2 3-3 ||| 1 1 1 ||| |||
„ weit reichende Strukturreformen “ durchzuführen ||| carry out ‘ substantial structural reforms ’ ||| 1 1.2521e-10 1 4.49732e-06 ||| 5-0 5-1 0-2 1-3 2-3 3-4 3-5 4-6 ||| 1 1 1 ||| |||
„ weit reichende Strukturreformen “ ||| ‘ substantial structural reforms ’ ||| 1 2.91026e-09 1 0.00025659 ||| 0-0 1-1 2-1 3-2 3-3 4-4 ||| 1 1 1 ||| |||
„ weit reichende ||| ‘ substantial ||| 0.5 2.448e-07 1 0.00204415 ||| 0-0 1-1 2-1 ||| 2 1 1 ||| |||
„ weiter ||| ‘ more of ||| 1 0.00513396 0.333333 0.0081106 ||| 0-0 1-1 ||| 1 3 1 ||| |||
„ weiter ||| ‘ more ||| 0.117647 0.00513396 0.666667 0.0254575 ||| 0-0 1-1 ||| 17 3 2 ||| |||
„ weitere ||| &apos; more ||| 0.0153846 0.000128031 1 0.013231 ||| 0-0 1-1 ||| 65 1 1 ||| |||
„ weiß nicht “ oder „ kein ||| ‘ do not know , no ||| 1 9.01263e-09 1 4.43277e-05 ||| 0-0 3-0 5-0 1-1 2-2 1-3 4-4 6-5 ||| 1 1 1 ||| |||
„ weiß nicht “ oder „ ||| ‘ do not know , ||| 1 1.04466e-07 1 0.000169434 ||| 0-0 3-0 5-0 1-1 2-2 1-3 4-4 ||| 1 1 1 ||| |||
„ weiß “ oder „ schwarz “ ||| ‘ black ’ or ‘ white ’ ||| 1 2.68066e-05 1 0.00284862 ||| 0-0 4-0 5-1 2-2 6-2 3-3 4-4 1-5 5-5 6-6 ||| 1 1 1 ||| |||
„ weltweit wettbewerbsfähigsten und dynamischsten ||| ‘ the most dynamic and competitive ||| 1 1.54333e-09 1 1.20572e-05 ||| 0-0 1-1 2-2 2-3 3-4 4-5 ||| 1 1 1 ||| |||
„ weltweit wettbewerbsfähigsten und ||| ‘ the most dynamic and ||| 1 1.58778e-06 1 0.000836772 ||| 0-0 1-1 2-2 2-3 3-4 ||| 1 1 1 ||| |||
„ weltweit wettbewerbsfähigsten ||| ‘ the most dynamic ||| 1 1.91076e-06 1 0.000978127 ||| 0-0 1-1 2-2 2-3 ||| 1 1 1 ||| |||
„ weltweit ||| ‘ the ||| 0.0078125 0.000342538 1 0.130083 ||| 0-0 1-1 ||| 128 1 1 ||| |||
„ weniger Bürokratie ||| ‘ less bureaucracy ||| 1 0.236588 1 0.185952 ||| 0-0 1-1 2-2 ||| 1 1 1 ||| |||
„ weniger Bürokratie “ . ||| ‘ less bureaucracy ’ . ||| 1 0.0317389 1 0.107378 ||| 0-0 1-1 2-2 3-3 4-4 ||| 1 1 1 ||| |||
„ weniger Bürokratie “ ||| ‘ less bureaucracy ’ ||| 1 0.033105 1 0.113104 ||| 0-0 1-1 2-2 3-3 ||| 1 1 1 ||| |||
„ weniger ist mehr ||| ‘ less is more ||| 1 0.036457 1 0.117837 ||| 0-0 1-1 2-2 3-3 ||| 2 2 2 ||| |||
„ weniger ist mehr “ ||| ‘ less is more ’ ||| 1 0.00510132 1 0.0716739 ||| 0-0 1-1 2-2 3-3 4-4 ||| 2 2 2 ||| |||
„ weniger ist ||| ‘ less is ||| 0.666667 0.132981 1 0.226546 ||| 0-0 1-1 2-2 ||| 3 2 2 ||| |||
„ weniger und besser ausgerichtete staatliche Beihilfen ||| ‘ less and better targeted state aid ||| 0.5 2.96229e-06 1 0.000982365 ||| 0-0 1-1 2-2 3-3 4-4 5-5 6-6 ||| 2 1 1 ||| |||
„ weniger und besser ausgerichtete staatliche ||| ‘ less and better targeted state ||| 0.5 1.91403e-05 1 0.00155303 ||| 0-0 1-1 2-2 3-3 4-4 5-5 ||| 2 1 1 ||| |||
„ weniger und besser ausgerichtete ||| ‘ less and better targeted ||| 0.5 0.000363212 1 0.00340965 ||| 0-0 1-1 2-2 3-3 4-4 ||| 2 1 1 ||| |||
„ weniger und besser ||| &apos; less and better ||| 1 0.0018196 0.5 0.0416827 ||| 0-0 1-1 2-2 3-3 ||| 1 2 1 ||| |||
„ weniger und besser ||| ‘ less and better ||| 0.5 0.105279 0.5 0.168534 ||| 0-0 1-1 2-2 3-3 ||| 2 2 1 ||| |||
„ weniger und besser “ , ||| &apos; less and better &apos; , ||| 1 1.35705e-05 1 0.00286571 ||| 0-0 1-1 2-2 3-3 4-4 5-5 ||| 1 1 1 ||| |||
„ weniger und besser “ ||| &apos; less and better &apos; ||| 1 2.05189e-05 1 0.00586216 ||| 0-0 1-1 2-2 3-3 4-4 ||| 1 1 1 ||| |||
„ weniger und ||| &apos; less and ||| 1 0.00535302 0.5 0.0721358 ||| 0-0 1-1 2-2 ||| 1 2 1 ||| |||
„ weniger und ||| ‘ less and ||| 0.5 0.309717 0.5 0.291664 ||| 0-0 1-1 2-2 ||| 2 2 1 ||| |||
„ weniger ||| &apos; less ||| 0.0833333 0.00644191 0.2 0.0843217 ||| 0-0 1-1 ||| 12 5 1 ||| |||
„ weniger ||| ‘ less ||| 0.666667 0.372719 0.8 0.340934 ||| 0-0 1-1 ||| 6 5 4 ||| |||
„ wenn angebracht ||| ‘ if relevant ||| 1 0.00195534 1 0.00330075 ||| 0-0 1-1 2-2 ||| 1 1 1 ||| |||
„ wenn angebracht “ . ||| ‘ if relevant ’ . ||| 1 0.000262315 1 0.00190603 ||| 0-0 1-1 2-2 3-3 4-4 ||| 1 1 1 ||| |||
„ wenn angebracht “ ||| ‘ if relevant ’ ||| 1 0.000273605 1 0.00200766 ||| 0-0 1-1 2-2 3-3 ||| 1 1 1 ||| |||
„ wenn eine ||| ‘ where one ||| 1 0.00298185 1 0.000293366 ||| 0-0 1-1 2-2 ||| 1 1 1 ||| |||
„ wenn es doch nur etwas gäbe ||| ‘ if only there were something ||| 1 9.18245e-08 1 0.00033236 ||| 0-0 1-1 4-2 2-3 6-3 3-4 6-4 5-5 ||| 1 1 1 ||| |||
„ wenn ich ||| ‘ when I ||| 0.5 0.175285 1 0.0941359 ||| 0-0 1-1 2-2 ||| 2 1 1 ||| |||
„ wenn keine Einigung zustande kommt ||| ‘ if no deal is done ||| 0.5 1.01698e-09 1 6.66492e-07 ||| 0-0 1-1 2-2 3-3 4-3 5-4 4-5 ||| 2 1 1 ||| |||
„ wenn keine Einigung zustande kommt “ ||| ‘ if no deal is done ’ ||| 1 1.42303e-10 1 4.0539e-07 ||| 0-0 1-1 2-2 3-3 4-3 5-4 4-5 6-6 ||| 1 1 1 ||| |||
„ wenn keine ||| ‘ if no ||| 0.5 0.0973846 1 0.0767912 ||| 0-0 1-1 2-2 ||| 2 1 1 ||| |||
„ wenn nur wir ||| ‘ if we alone ||| 1 0.0315531 1 0.00155121 ||| 0-0 1-1 3-2 2-3 ||| 1 1 1 ||| |||
„ wenn ||| ‘ if ||| 0.363636 0.422612 0.666667 0.295417 ||| 0-0 1-1 ||| 11 6 4 ||| |||
„ wenn ||| ‘ when ||| 0.25 0.221376 0.166667 0.10414 ||| 0-0 1-1 ||| 4 6 1 ||| |||
„ wenn ||| ‘ where ||| 1 0.0204504 0.166667 0.00718483 ||| 0-0 1-1 ||| 1 6 1 ||| |||
„ wer gibt und wieder nimmt , ||| ‘ who gives and takes away ||| 1 1.49709e-07 1 9.4965e-08 ||| 0-0 1-1 6-1 2-2 3-3 5-4 4-5 ||| 1 1 1 ||| |||
„ wesentliche ||| ‘ essential ||| 0.333333 0.0324036 0.5 0.151565 ||| 0-0 1-1 ||| 3 2 1 ||| |||
„ wesentliche ||| ‘ substantial ||| 0.5 0.0442814 0.5 0.0458615 ||| 0-0 1-1 ||| 2 2 1 ||| |||
„ wesentliche “ Unterschiede zwischen Männern und ||| ‘ essential ’ differences between men and ||| 1 0.000437711 1 0.0275126 ||| 0-0 1-1 2-2 3-3 4-4 5-5 6-6 ||| 1 1 1 ||| |||
„ wesentliche “ Unterschiede zwischen Männern ||| ‘ essential ’ differences between men ||| 1 0.000526749 1 0.0321602 ||| 0-0 1-1 2-2 3-3 4-4 5-5 ||| 1 1 1 ||| |||
„ wesentliche “ Unterschiede zwischen ||| ‘ essential ’ differences between ||| 1 0.00136904 1 0.0400414 ||| 0-0 1-1 2-2 3-3 4-4 ||| 1 1 1 ||| |||
„ wesentliche “ Unterschiede ||| ‘ essential ’ differences ||| 1 0.00182778 1 0.0488128 ||| 0-0 1-1 2-2 3-3 ||| 1 1 1 ||| |||
„ wesentliche “ ||| ‘ essential ’ ||| 1 0.00453415 1 0.0921884 ||| 0-0 1-1 2-2 ||| 1 1 1 ||| |||
„ wesentlichen Elements ||| ‘ essential element ||| 0.5 0.000232761 1 0.0466006 ||| 0-0 1-1 2-2 ||| 2 1 1 ||| |||
„ wesentlichen Elements “ ||| ‘ essential element ’ ||| 0.5 3.25696e-05 1 0.0283446 ||| 0-0 1-1 2-2 3-3 ||| 2 1 1 ||| |||
„ wesentlichen Faktoren ||| ‘ relevant factors ||| 1 0.000692595 1 0.00127204 ||| 0-0 1-1 2-2 ||| 1 1 1 ||| |||
„ wesentlichen Faktoren “ , ||| ‘ relevant factors ’ : ||| 1 5.60469e-06 1 9.00836e-07 ||| 0-0 1-1 2-2 3-3 4-4 ||| 1 1 1 ||| |||
„ wesentlichen Faktoren “ ||| ‘ relevant factors ’ ||| 1 9.69128e-05 1 0.000773714 ||| 0-0 1-1 2-2 3-3 ||| 1 1 1 ||| |||
„ wesentlichen ||| ‘ essential ||| 0.333333 0.0300344 0.5 0.10818 ||| 0-0 1-1 ||| 3 2 1 ||| |||
„ wesentlichen ||| ‘ relevant ||| 1 0.00133169 0.5 0.00170673 ||| 0-0 1-1 ||| 1 2 1 ||| |||
„ wesentliches Element ||| &apos; essential element ||| 1 7.20347e-05 0.5 0.0320317 ||| 0-0 1-1 2-2 ||| 1 2 1 ||| |||
„ wesentliches Element ||| ‘ essential element ||| 0.5 0.00416781 0.5 0.129513 ||| 0-0 1-1 2-2 ||| 2 2 1 ||| |||
„ wesentliches Element “ der ||| ‘ essential element ’ ||| 0.5 1.26153e-05 1 0.0394171 ||| 0-0 1-1 2-2 3-3 4-3 ||| 2 1 1 ||| |||
„ wesentliches Element “ ||| &apos; essential element &apos; ||| 1 8.12307e-07 1 0.00450487 ||| 0-0 1-1 2-2 3-3 ||| 1 1 1 ||| |||
„ wesentliches ||| &apos; essential ||| 0.1 0.000187104 0.5 0.0583065 ||| 0-0 1-1 ||| 10 2 1 ||| |||
„ wesentliches ||| ‘ essential ||| 0.333333 0.0108255 0.5 0.235749 ||| 0-0 1-1 ||| 3 2 1 ||| |||
„ westfälischen Kosmopolitismus ||| ‘ Westphalian cosmopolitanism ||| 1 0.104877 1 0.35148 ||| 0-0 1-1 2-2 ||| 1 1 1 ||| |||
„ westfälischen Kosmopolitismus “ . ||| ‘ Westphalian cosmopolitanism ’ . ||| 1 0.0140695 1 0.202963 ||| 0-0 1-1 2-2 3-3 4-4 ||| 1 1 1 ||| |||
„ westfälischen Kosmopolitismus “ ||| ‘ Westphalian cosmopolitanism ’ ||| 1 0.0146751 1 0.213786 ||| 0-0 1-1 2-2 3-3 ||| 1 1 1 ||| |||
„ westfälischen ||| ‘ Westphalian ||| 1 0.66422 1 0.585799 ||| 0-0 1-1 ||| 1 1 1 ||| |||
„ wettbewerbsfähigen ||| ‘ competitive ||| 1 0.0572025 1 0.536176 ||| 0-0 1-1 ||| 1 1 1 ||| |||
„ wettbewerbsfähigen “ Land ||| ‘ competitive ’ country ||| 1 0.00429446 1 0.248103 ||| 0-0 1-1 2-2 3-3 ||| 1 1 1 ||| |||
„ wettbewerbsfähigen “ ||| ‘ competitive ’ ||| 1 0.00800418 1 0.326126 ||| 0-0 1-1 2-2 ||| 1 1 1 ||| |||
„ wettbewerbsfähigsten wissensbasierten ||| &apos; the most competitive knowledge – based ||| 1 1.28199e-06 1 8.28593e-09 ||| 0-0 1-2 1-3 2-4 2-5 2-6 ||| 1 1 1 ||| |||
„ wettbewerbsfähigsten ||| &apos; the most competitive ||| 0.333333 0.00033867 1 0.00129853 ||| 0-0 1-2 1-3 ||| 3 1 1 ||| |||
„ whereas there are three main objectives ||| ‘ whereas there are three main objectives ||| 1 2.437e-23 1 0.00531288 ||| 0-0 1-1 2-2 3-3 4-4 5-5 6-6 ||| 1 1 1 ||| |||
„ whereas there are three main ||| ‘ whereas there are three main ||| 1 3.32469e-19 1 0.0584417 ||| 0-0 1-1 2-2 3-3 4-4 5-5 ||| 1 1 1 ||| |||
„ whereas there are three ||| ‘ whereas there are three ||| 1 1.38529e-15 1 0.136364 ||| 0-0 1-1 2-2 3-3 4-4 ||| 1 1 1 ||| |||
„ whereas there are ||| ‘ whereas there are ||| 1 6.3371e-12 1 0.306819 ||| 0-0 1-1 2-2 3-3 ||| 1 1 1 ||| |||
„ whereas there ||| ‘ whereas there ||| 1 6.94096e-08 1 0.356574 ||| 0-0 1-1 2-2 ||| 1 1 1 ||| |||
