market ||| markt ||| 1 8.799e-11 1 1.91569e-13 ||| 0-0 2-2 3-3 3-4 4-5 5-6 ||| 1 1 1 |||
economy ||| wirtschaft ||| 1 3.7704e-10 1 7.19849e-13 ||| 0-0 2-2 3-3 3-4 4-5 ||| 1 1 1 |||
economy ||| Europäische Union setzt ihrerseits die ||| 1 5.50862e-10 1 3.83836e-12 ||| 0-0 2-2 3-3 3-4 ||| 1 1 1 |||
building ||| Gebäude ||| 0.0454545 9.25392e-09 1 3.14733e-08 ||| 0-0 2-2 ||| 22 1 1 |||
building ||| baum ||| 1 1.80814e-08 1 2.44989e-05 ||| 0-0 3-1 2-2 4-3 5-4 6-5 ||| 1 1 1 |||
Building ||| bauwerk ||| 1 2.8318e-08 1 5.84943e-05 ||| 0-0 3-1 2-2 4-3 5-4 ||| 1 1 1 |||
Building ||| Bebauung ||| 1 2.8318e-08 1 0.000467954 ||| 0-0 3-1 2-2 4-3 ||| 1 1 1 |||
Permit ||| Genehmigung ||| 1 5.2247e-08 1 0.00159051 ||| 0-0 3-1 2-2 ||| 1 1 1 |||
Customer ||| Kunden ||| 1 1.66889e-13 1 3.74318e-08 ||| 0-0 1-1 2-2 4-4 ||| 1 1 1 |||
processing ||| abwicklung ||| 0.5 2.3454e-11 0.5 5.12515e-07 ||| 0-0 1-1 2-2 ||| 2 2 1 |||
order ||| Auftrag ||| 0.333333 2.3454e-11 0.5 0.000436778 ||| 0-0 1-1 2-2 ||| 3 2 1 |||
ΕU is  ||| EU wird immer mehr ||| 0.5 2.7822e-07 0.5 5.12515e-07 ||| 0-0 1-1 2-2 ||| 2 2 1 |||
market ||| wird immer ||| 0.333333 2.7822e-07 0.5 0.000436778 ||| 0-0 1-1 2-2 ||| 3 2 1 |||
ΕU is intensifying the ban on state ||| EU verschärft das Verbot staatlicher ||| 1 7.69207e-09 1 3.00044e-06 ||| 0-0 2-1 3-2 4-3 5-3 6-4 ||| 1 1 1 |||
ΕU is intensifying the ban on ||| EU verschärft das Verbot ||| 1 1.95345e-08 1 0.000170637 ||| 0-0 2-1 3-2 4-3 5-3 ||| 1 1 1 |||
ΕU is intensifying the ||| EU verschärft das ||| 1 1.68991e-07 1 0.000834088 ||| 0-0 2-1 3-2 ||| 1 1 1 |||
ΕU is intensifying ||| EU verschärft ||| 1 4.07925e-07 1 0.01509 ||| 0-0 2-1 ||| 1 1 1 |||
ΕU is much stricter than ||| EU festlegt , ist weitaus strenger als ||| 1 1.07361e-05 1 1.61062e-07 ||| 0-0 0-1 1-3 2-4 3-5 4-6 ||| 1 1 1 |||
ΕU is much stricter ||| EU festlegt , ist weitaus strenger ||| 1 7.28584e-05 1 2.81107e-07 ||| 0-0 0-1 1-3 2-4 3-5 ||| 1 1 1 |||
ΕU is much ||| EU festlegt , ist weitaus ||| 1 0.000500106 1 2.82745e-06 ||| 0-0 0-1 1-3 2-4 ||| 1 1 1 |||
ΕU is now revealing its repellent and ||| offenbart nun seine widerwärtige und ||| 0.5 3.61636e-11 1 1.836e-05 ||| 1-0 3-0 2-1 4-2 5-3 6-4 ||| 2 1 1 |||
ΕU is now revealing its repellent ||| offenbart nun seine widerwärtige ||| 0.5 4.25125e-11 1 2.21367e-05 ||| 1-0 3-0 2-1 4-2 5-3 ||| 2 1 1 |||
ΕU is now revealing its ||| offenbart nun seine ||| 0.5 7.65224e-10 1 0.000531281 ||| 1-0 3-0 2-1 4-2 ||| 2 1 1 |||
ΕU is now revealing ||| offenbart nun ||| 0.5 1.83972e-09 1 0.00472705 ||| 1-0 3-0 2-1 ||| 2 1 1 |||
ΕU is promoting the policy of liberalising ||| EU fördert die Politik der Liberalisierung von ||| 1 4.57377e-08 0.5 6.7238e-07 ||| 0-0 1-1 2-1 3-2 4-3 5-4 6-5 ||| 1 2 1 |||
ΕU is promoting the policy of liberalising ||| EU fördert die Politik der Liberalisierung ||| 1 4.57377e-08 0.5 3.95415e-05 ||| 0-0 1-1 2-1 3-2 4-3 5-4 6-5 ||| 1 2 1 |||
ΕU is promoting the policy of ||| EU fördert die Politik der ||| 1 8.30042e-07 1 8.47758e-05 ||| 0-0 1-1 2-1 3-2 4-3 5-4 ||| 1 1 1 |||
ΕU is promoting the policy ||| EU fördert die Politik ||| 1 3.55676e-06 1 0.000318559 ||| 0-0 1-1 2-1 3-2 4-3 ||| 1 1 1 |||
ΕU is promoting the ||| EU fördert die ||| 1 5.19648e-06 1 0.00169861 ||| 0-0 1-1 2-1 3-2 ||| 1 1 1 |||
ΕU is promoting ||| EU fördert ||| 0.142857 9.58755e-06 1 0.00577334 ||| 0-0 1-1 2-1 ||| 7 1 1 |||
ΕU is unable ||| U ist nicht in der Lage , ||| 1 7.38495e-05 0.2 9.12563e-11 ||| 0-0 1-1 2-2 ||| 1 5 1 |||
ΕU is unable ||| U ist nicht in der Lage ||| 1 7.38495e-05 0.2 4.93005e-10 ||| 0-0 1-1 2-2 ||| 1 5 1 |||
ΕU is unable ||| U ist nicht in der ||| 1 7.38495e-05 0.2 1.30597e-06 ||| 0-0 1-1 2-2 ||| 1 5 1 |||
ΕU is unable ||| U ist nicht in ||| 1 7.38495e-05 0.2 2.51692e-05 ||| 0-0 1-1 2-2 ||| 1 5 1 |||
ΕU is unable ||| U ist nicht ||| 1 7.38495e-05 0.2 0.00118115 ||| 0-0 1-1 2-2 ||| 1 5 1 |||
ΕU is ||| EU darstellt ||| 0.0625 0.000749816 0.0909091 0.00124277 ||| 0-0 1-1 ||| 16 11 1 |||
ΕU is ||| EU festlegt , ist ||| 1 0.00143671 0.0909091 0.000175036 ||| 0-0 0-1 1-3 ||| 1 11 1 |||
ΕU is ||| EU ist ||| 0.00121507 0.00214863 0.0909091 0.244916 ||| 0-0 1-1 ||| 823 11 1 |||
ΕU is ||| EU richtet , ist ||| 1 0.00214863 0.0909091 2.69286e-06 ||| 0-0 1-3 ||| 1 11 1 |||
ΕU is ||| EU wird ||| 0.00344828 0.000559574 0.0909091 0.032381 ||| 0-0 1-1 ||| 290 11 1 |||
ΕU is ||| EU ||| 3.94159e-05 0.000100757 0.181818 0.69112 ||| 0-0 ||| 50741 11 2 |||
ΕU is ||| Europäische Union sei ||| 0.0285714 2.35519e-05 0.0909091 4.33075e-06 ||| 0-0 0-1 1-2 ||| 35 11 1 |||
ΕU is ||| Europäische Union ||| 2.91036e-05 2.93263e-06 0.0909091 1.22316e-05 ||| 0-0 ||| 34360 11 1 |||
ΕU is ||| Europäische ||| 1.71727e-05 2.93263e-06 0.0909091 0.023166 ||| 0-0 ||| 58232 11 1 |||
ΕU is ||| U ist ||| 1 0.0139657 0.0909091 0.00273649 ||| 0-0 1-1 ||| 1 11 1 |||
ΕU itself . ||| EU selbst sie gutheißen . ||| 1 0.000627691 1 4.47986e-09 ||| 0-0 1-1 2-4 ||| 1 1 1 |||
ΕU itself ||| EU selbst sie gutheißen ||| 1 0.000669932 0.25 4.64351e-09 ||| 0-0 1-1 ||| 1 4 1 |||
ΕU itself ||| EU selbst sie ||| 1 0.000669932 0.25 0.00107989 ||| 0-0 1-1 ||| 1 4 1 |||
ΕU itself ||| EU selbst ||| 0.00666667 0.000669932 0.25 0.200499 ||| 0-0 1-1 ||| 150 4 1 |||
ΕU itself ||| Entwicklung ||| 2.50752e-05 1.23123e-08 0.25 0.003861 ||| 0-0 ||| 39880 4 1 |||
ΕU migration policy moves ||| die Migrationspolitik der EU bewegt sich ||| 1 3.48299e-06 1 2.20183e-07 ||| 2-0 1-1 2-1 2-2 0-3 3-4 3-5 ||| 1 1 1 |||
ΕU migration policy ||| die Migrationspolitik der EU ||| 0.5 0.000178947 1 8.6915e-05 ||| 2-0 1-1 2-1 2-2 0-3 ||| 2 1 1 |||
ΕU need to understand that there ||| EU müssen begreifen , dass es ||| 1 1.76218e-06 1 0.0001126 ||| 0-0 1-1 2-1 3-2 4-3 4-4 5-5 ||| 1 1 1 |||
ΕU need to understand that ||| EU müssen begreifen , dass ||| 1 1.25932e-05 1 0.000334853 ||| 0-0 1-1 2-1 3-2 4-3 4-4 ||| 1 1 1 |||
ΕU need to understand ||| EU müssen begreifen ||| 1 2.81741e-05 1 0.0037835 ||| 0-0 1-1 2-1 3-2 ||| 1 1 1 |||
ΕU need to ||| EU müssen ||| 0.0163934 6.60852e-05 1 0.096104 ||| 0-0 1-1 2-1 ||| 61 1 1 |||
ΕU of ||| EU so lange ||| 0.5 0.000380465 0.333333 2.77673e-07 ||| 0-0 ||| 2 3 1 |||
ΕU of ||| EU so ||| 0.0357143 0.000380465 0.333333 0.00288342 ||| 0-0 ||| 28 3 1 |||
ΕU of ||| EU ||| 1.97079e-05 0.000380465 0.333333 0.69112 ||| 0-0 ||| 50741 3 1 |||
ΕU on the working class and young ||| EU auf die Arbeiterklasse und die jungen ||| 1 3.70689e-05 1 1.78984e-05 ||| 0-0 1-1 2-2 3-3 4-3 5-4 6-6 ||| 1 1 1 |||
ΕU on the working class and ||| EU auf die Arbeiterklasse und die ||| 1 4.26177e-05 0.5 7.88009e-05 ||| 0-0 1-1 2-2 3-3 4-3 5-4 ||| 1 2 1 |||
ΕU on the working class and ||| EU auf die Arbeiterklasse und ||| 1 4.26177e-05 0.5 0.00127872 ||| 0-0 1-1 2-2 3-3 4-3 5-4 ||| 1 2 1 |||
ΕU on the working class ||| EU auf die Arbeiterklasse ||| 1 5.00997e-05 1 0.00154175 ||| 0-0 1-1 2-2 3-3 4-3 ||| 1 1 1 |||
ΕU on the ||| EU auf die ||| 0.030303 0.000389205 1 0.032179 ||| 0-0 1-1 2-2 ||| 33 1 1 |||
ΕU on ||| EU auf ||| 0.00434783 0.000718087 1 0.109372 ||| 0-0 1-1 ||| 230 1 1 |||
ΕU only serves big business . ||| EU nur dem Großkapital dient . ||| 1 2.09847e-05 1 4.11592e-05 ||| 0-0 1-1 2-2 3-3 4-3 2-4 5-5 ||| 1 1 1 |||
ΕU only serves big business ||| EU nur dem Großkapital dient ||| 1 2.23969e-05 1 4.26627e-05 ||| 0-0 1-1 2-2 3-3 4-3 2-4 ||| 1 1 1 |||
ΕU only ||| EU nur ||| 0.0416667 0.00170853 1 0.465373 ||| 0-0 1-1 ||| 24 1 1 |||
ΕU or the other imperialist organizations ||| EU oder den übrigen imperialistischen Organisationen ||| 1 0.000374969 1 0.00021606 ||| 0-0 1-1 2-2 3-3 4-4 5-5 ||| 1 1 1 |||
ΕU or the other imperialist ||| EU oder den übrigen imperialistischen ||| 1 0.000441051 1 0.000451623 ||| 0-0 1-1 2-2 3-3 4-4 ||| 1 1 1 |||
ΕU or the other ||| EU oder den übrigen ||| 1 0.000496182 1 0.000784067 ||| 0-0 1-1 2-2 3-3 ||| 1 1 1 |||
ΕU or the ||| EU oder den ||| 0.2 0.00171132 1 0.0460293 ||| 0-0 1-1 2-2 ||| 5 1 1 |||
ΕU or ||| EU oder ||| 0.0119048 0.0027899 1 0.477222 ||| 0-0 1-1 ||| 84 1 1 |||
ΕU paves the way for full ||| EU ebnet den Weg für eine vollständige ||| 1 2.20278e-05 1 1.00263e-06 ||| 0-0 1-1 2-2 3-3 4-4 5-5 5-6 ||| 1 1 1 |||
ΕU paves the way for ||| EU ebnet den Weg für ||| 1 9.92907e-05 1 0.00104213 ||| 0-0 1-1 2-2 3-3 4-4 ||| 1 1 1 |||
ΕU paves the way ||| EU ebnet den Weg ||| 1 0.000210076 1 0.00258064 ||| 0-0 1-1 2-2 3-3 ||| 1 1 1 |||
ΕU paves the ||| EU ebnet den ||| 1 0.000706901 1 0.0253554 ||| 0-0 1-1 2-2 ||| 1 1 1 |||
ΕU paves ||| EU ebnet ||| 1 0.00115243 1 0.26288 ||| 0-0 1-1 ||| 1 1 1 |||
ΕU proceeded at a fast pace and ||| EU wurde zügig vorangetrieben , und ||| 1 7.07979e-19 1 6.59503e-11 ||| 0-0 1-1 2-2 5-3 6-5 ||| 1 1 1 |||
ΕU proceeded at a fast pace ||| EU wurde zügig vorangetrieben , ||| 1 8.32272e-19 0.5 7.95165e-11 ||| 0-0 1-1 2-2 5-3 ||| 1 2 1 |||
ΕU proceeded at a fast pace ||| EU wurde zügig vorangetrieben ||| 1 8.32272e-19 0.5 4.29582e-10 ||| 0-0 1-1 2-2 5-3 ||| 1 2 1 |||
ΕU proceeded at a fast ||| EU wurde zügig ||| 0.333333 2.13891e-16 1 1.65817e-07 ||| 0-0 1-1 2-2 ||| 3 1 1 |||
ΕU proceeded at a ||| EU wurde zügig ||| 0.333333 1.06946e-11 1 1.65817e-07 ||| 0-0 1-1 2-2 ||| 3 1 1 |||
ΕU proceeded at ||| EU wurde zügig ||| 0.333333 4.62211e-10 1 1.65817e-07 ||| 0-0 1-1 2-2 ||| 3 1 1 |||
ΕU proceeded ||| EU wurde ||| 0.0526316 4.20192e-08 1 0.00262784 ||| 0-0 1-1 ||| 19 1 1 |||
ΕU show an increase in deficit and ||| EU zeigen einen Anstieg der Defizite und ||| 1 4.18184e-07 1 1.54819e-07 ||| 0-0 1-1 2-2 3-3 4-3 4-4 5-5 6-6 ||| 1 1 1 |||
ΕU show an increase in deficit ||| EU zeigen einen Anstieg der Defizite ||| 1 4.91601e-07 1 1.86666e-07 ||| 0-0 1-1 2-2 3-3 4-3 4-4 5-5 ||| 1 1 1 |||
ΕU show an increase in ||| EU zeigen einen Anstieg der ||| 1 7.374e-06 1 6.03997e-06 ||| 0-0 1-1 2-2 3-3 4-3 4-4 ||| 1 1 1 |||
ΕU show an ||| EU zeigen einen ||| 1 0.000141774 1 0.016878 ||| 0-0 1-1 2-2 ||| 1 1 1 |||
ΕU show ||| EU zeigen ||| 1 0.00128924 1 0.2196 ||| 0-0 1-1 ||| 1 1 1 |||
ΕU soil . ||| EU-Territorium befinden . ||| 1 0.000407847 1 8.65749e-06 ||| 0-0 1-0 0-1 2-2 ||| 1 1 1 |||
ΕU soil ||| EU-Territorium befinden ||| 1 0.000435293 1 8.97374e-06 ||| 0-0 1-0 0-1 ||| 1 1 1 |||
ΕU stop arming Israel and ||| EU die Waffenlieferungen an Israel einstellt und ||| 1 1.25191e-09 1 3.05561e-07 ||| 0-0 2-2 2-3 3-4 2-5 4-6 ||| 1 1 1 |||
ΕU stop arming Israel ||| EU die Waffenlieferungen an Israel einstellt ||| 1 1.4717e-09 1 3.68416e-07 ||| 0-0 2-2 2-3 3-4 2-5 ||| 1 1 1 |||
ΕU stop ||| EU die ||| 0.00425532 3.39462e-07 0.5 0.0425903 ||| 0-0 ||| 235 2 1 |||
ΕU stop ||| EU ||| 1.97079e-05 3.39462e-07 0.5 0.69112 ||| 0-0 ||| 50741 2 1 |||
ΕU to deputy policeman ||| EU sich zu einem zweiten ||| 0.333333 3.24231e-15 0.333333 8.68153e-11 ||| 0-0 1-2 ||| 3 3 1 |||
ΕU to deputy policeman ||| EU sich zu einem ||| 0.25 3.24231e-15 0.333333 3.19174e-06 ||| 0-0 1-2 ||| 4 3 1 |||
ΕU to deputy policeman ||| EU sich zu ||| 0.2 3.24231e-15 0.333333 0.00240053 ||| 0-0 1-2 ||| 5 3 1 |||
ΕU to deputy ||| EU sich zu einem zweiten ||| 0.333333 4.63187e-09 0.333333 8.68153e-11 ||| 0-0 1-2 ||| 3 3 1 |||
ΕU to deputy ||| EU sich zu einem ||| 0.25 4.63187e-09 0.333333 3.19174e-06 ||| 0-0 1-2 ||| 4 3 1 |||
ΕU to deputy ||| EU sich zu ||| 0.2 4.63187e-09 0.333333 0.00240053 ||| 0-0 1-2 ||| 5 3 1 |||
ΕU to ||| EU , ||| 0.000512295 0.000354802 0.166667 0.132937 ||| 0-0 1-1 ||| 1952 6 1 |||
ΕU to ||| EU sich zu einem zweiten ||| 0.333333 0.00171551 0.166667 8.68153e-11 ||| 0-0 1-2 ||| 3 6 1 |||
ΕU to ||| EU sich zu einem ||| 0.25 0.00171551 0.166667 3.19174e-06 ||| 0-0 1-2 ||| 4 6 1 |||
ΕU to ||| EU sich zu ||| 0.2 0.00171551 0.166667 0.00240053 ||| 0-0 1-2 ||| 5 6 1 |||
ΕU to ||| EU ||| 1.97079e-05 0.000223183 0.166667 0.69112 ||| 0-0 ||| 50741 6 1 |||
ΕU to ||| ganzen EU ||| 0.04 0.000223183 0.166667 4.74108e-05 ||| 0-1 ||| 25 6 1 |||
ΕU ||| ( EL ) Der ||| 0.027027 1.24e-05 0.00392157 1.31209e-15 ||| 0-0 ||| 37 255 1 |||
ΕU ||| ( EL ) ||| 0.00348432 1.24e-05 0.00392157 6.83383e-11 ||| 0-0 ||| 287 255 1 |||
ΕU ||| ( EL ||| 0.00347222 1.24e-05 0.00392157 6.67953e-08 ||| 0-0 ||| 288 255 1 |||
ΕU ||| ( ||| 1.40685e-05 1.24e-05 0.00392157 0.003861 ||| 0-0 ||| 71081 255 1 |||
ΕU ||| - ( EL ) Der ||| 0.027027 1.24e-05 0.00392157 4.82956e-18 ||| 0-1 ||| 37 255 1 |||
ΕU ||| - ( EL ) ||| 0.00238663 1.24e-05 0.00392157 2.5154e-13 ||| 0-1 ||| 419 255 1 |||
ΕU ||| - ( EL ||| 0.00238095 1.24e-05 0.00392157 2.4586e-10 ||| 0-1 ||| 420 255 1 |||
ΕU ||| - ( ||| 0.00010755 1.24e-05 0.00392157 1.42116e-05 ||| 0-1 ||| 9298 255 1 |||
ΕU ||| EU , ||| 0.000512295 0.0033086 0.00392157 0.127928 ||| 0-0 ||| 1952 255 1 |||
ΕU ||| EU abgesegnet ||| 0.142857 0.0079043 0.00392157 0.00266841 ||| 0-0 0-1 ||| 7 255 1 |||
ΕU ||| EU abzugeben ||| 0.5 0.0033086 0.00392157 2.86124e-05 ||| 0-0 ||| 2 255 1 |||
ΕU ||| EU als Deckmantel ||| 1 0.0033086 0.00392157 3.5769e-09 ||| 0-0 ||| 1 255 1 |||
ΕU ||| EU als ||| 0.00208333 0.0033086 0.00392157 0.00127747 ||| 0-0 ||| 480 255 1 |||
ΕU ||| EU aufgestellt hat , ||| 1 0.0033086 0.00392157 2.52762e-08 ||| 0-0 ||| 1 255 1 |||
ΕU ||| EU aufgestellt hat ||| 1 0.0033086 0.00392157 1.36553e-07 ||| 0-0 ||| 1 255 1 |||
ΕU ||| EU aufgestellt ||| 1 0.0033086 0.00392157 2.37054e-05 ||| 0-0 ||| 1 255 1 |||
ΕU ||| EU aufzuoktroyieren ||| 1 0.0294321 0.00392157 0.00266841 ||| 0-0 0-1 ||| 1 255 1 |||
ΕU ||| EU auserwählte ||| 1 0.0033086 0.00392157 1.38224e-07 ||| 0-0 ||| 1 255 1 |||
ΕU ||| EU ausmachen ||| 0.142857 0.0033086 0.00392157 3.30355e-05 ||| 0-0 ||| 7 255 1 |||
ΕU ||| EU dar ||| 0.0350877 0.00175355 0.00784314 0.00533683 ||| 0-0 0-1 ||| 57 255 2 |||
ΕU ||| EU die ||| 0.00851064 0.0033086 0.00784314 0.0425903 ||| 0-0 ||| 235 255 2 |||
ΕU ||| EU eingeführten ||| 0.25 0.0033086 0.00392157 4.07761e-06 ||| 0-0 ||| 4 255 1 |||
ΕU ||| EU entgegenzustellen ||| 1 0.0089007 0.00392157 0.00266841 ||| 0-0 0-1 ||| 1 255 1 |||
ΕU ||| EU festlegt , ||| 1 0.00221235 0.00392157 0.000493929 ||| 0-0 0-1 ||| 1 255 1 |||
ΕU ||| EU festlegt ||| 1 0.00221235 0.00392157 0.00266841 ||| 0-0 0-1 ||| 1 255 1 |||
ΕU ||| EU folgt ||| 1 0.00170055 0.00392157 0.00266841 ||| 0-0 0-1 ||| 1 255 1 |||
ΕU ||| EU gewiesen , ||| 1 0.0033086 0.00392157 6.0126e-07 ||| 0-0 ||| 1 255 1 |||
ΕU ||| EU gewiesen ||| 1 0.0033086 0.00392157 3.24826e-06 ||| 0-0 ||| 1 255 1 |||
ΕU ||| EU hinwegzutäuschen ||| 1 0.0849876 0.00392157 0.00266841 ||| 0-0 0-1 ||| 1 255 1 |||
ΕU ||| EU innehat ||| 1 0.0032366 0.00392157 0.00266841 ||| 0-0 0-1 ||| 1 255 1 |||
ΕU ||| EU leistet ||| 0.111111 0.00195265 0.00392157 0.00266841 ||| 0-0 0-1 ||| 9 255 1 |||
ΕU ||| EU nicht zu , ||| 1 0.0033086 0.00392157 1.85542e-05 ||| 0-0 ||| 1 255 1 |||
ΕU ||| EU nicht zu ||| 0.166667 0.0033086 0.00392157 0.000100238 ||| 0-0 ||| 6 255 1 |||
ΕU ||| EU nicht ||| 0.00483092 0.0033086 0.00392157 0.00320728 ||| 0-0 ||| 207 255 1 |||
ΕU ||| EU noch ||| 0.0126582 0.0033086 0.00392157 0.00169393 ||| 0-0 ||| 79 255 1 |||
ΕU ||| EU richtet , ||| 0.5 0.0033086 0.00392157 7.59891e-06 ||| 0-0 ||| 2 255 1 |||
ΕU ||| EU richtet ||| 0.5 0.0033086 0.00392157 4.10525e-05 ||| 0-0 ||| 2 255 1 |||
ΕU ||| EU schließt ||| 0.25 0.0033086 0.00392157 1.50664e-05 ||| 0-0 ||| 4 255 1 |||
ΕU ||| EU sich ||| 0.00862069 0.0033086 0.00392157 0.0137643 ||| 0-0 ||| 116 255 1 |||
ΕU ||| EU so lange ||| 0.5 0.0033086 0.00392157 2.77673e-07 ||| 0-0 ||| 2 255 1 |||
ΕU ||| EU so ||| 0.0357143 0.0033086 0.00392157 0.00288342 ||| 0-0 ||| 28 255 1 |||
ΕU ||| EU sollen ||| 0.2 0.0033086 0.00392157 0.000304438 ||| 0-0 ||| 5 255 1 |||
ΕU ||| EU stellen ||| 0.0909091 0.0016806 0.00392157 0.00266841 ||| 0-0 0-1 ||| 11 255 1 |||
ΕU ||| EU unterstützt wird , ||| 1 0.0033086 0.00392157 2.01669e-07 ||| 0-0 ||| 1 255 1 |||
ΕU ||| EU unterstützt wird ||| 1 0.0033086 0.00392157 1.0895e-06 ||| 0-0 ||| 1 255 1 |||
ΕU ||| EU unterstützt ||| 0.0243902 0.0033086 0.00392157 0.000120047 ||| 0-0 ||| 41 255 1 |||
ΕU ||| EU verstärkt werden ||| 0.5 0.0033086 0.00392157 8.20102e-07 ||| 0-0 ||| 2 255 1 |||
ΕU ||| EU verstärkt ||| 0.25 0.0033086 0.00392157 5.31471e-05 ||| 0-0 ||| 4 255 1 |||
ΕU ||| EU zu ||| 0.00387597 0.0033086 0.00784314 0.0215997 ||| 0-0 ||| 516 255 2 |||
ΕU ||| EU zum Ausdruck ||| 0.25 0.0033086 0.00392157 7.78129e-07 ||| 0-0 ||| 4 255 1 |||
ΕU ||| EU zum ||| 0.0204082 0.0033086 0.00392157 0.00116661 ||| 0-0 ||| 49 255 1 |||
ΕU ||| EU ||| 0.00317298 0.0033086 0.631373 0.69112 ||| 0-0 ||| 50741 255 161 |||
ΕU ||| Entwicklung ||| 2.50752e-05 2.73e-05 0.00392157 0.003861 ||| 0-0 ||| 39880 255 1 |||
ΕU ||| Europäische Union den ||| 0.0131579 0.0001107 0.00392157 2.56104e-05 ||| 0-0 0-1 ||| 76 255 1 |||
ΕU ||| Europäische Union ||| 0.000174622 0.0001107 0.0235294 1.22316e-05 ||| 0-0 ||| 34360 255 6 |||
ΕU ||| Europäische ||| 5.15181e-05 9.63e-05 0.0117647 0.023166 ||| 0-0 ||| 58232 255 3 |||
ΕU ||| Europäischen Union , ||| 0.000297177 0.0001114 0.00392157 0.000455298 ||| 0-0 0-1 ||| 3365 255 1 |||
ΕU ||| Europäischen Union eine ||| 0.00641026 0.0001114 0.00392157 1.84304e-05 ||| 0-0 0-1 ||| 156 255 1 |||
ΕU ||| Europäischen Union vorangetrieben ||| 1 0.0005066 0.00392157 9.49695e-06 ||| 0-0 0-1 0-2 ||| 1 255 1 |||
ΕU ||| Europäischen Union zu bekämpfen ||| 1 0.000164233 0.00392157 2.9681e-07 ||| 0-0 0-1 0-3 ||| 1 255 1 |||
ΕU ||| Europäischen Union zurückzuführen ||| 0.2 0.0002327 0.00392157 9.49695e-06 ||| 0-0 0-1 0-2 ||| 5 255 1 |||
ΕU ||| Europäischen Union ||| 0.000101785 0.0001114 0.0235294 0.00245971 ||| 0-0 0-1 ||| 58948 255 6 |||
ΕU ||| Gang ||| 0.0010929 0.000488 0.00392157 0.003861 ||| 0-0 ||| 915 255 1 |||
ΕU ||| Kampf gegen ||| 0.000185151 1.97e-05 0.00392157 2.23938e-07 ||| 0-1 ||| 5401 255 1 |||
ΕU ||| Kulturdiensten und Kulturgütern hinaus ||| 1 1 0.00392157 1.76891e-14 ||| 0-0 ||| 1 255 1 |||
ΕU ||| Kulturdiensten und Kulturgütern ||| 1 1 0.00392157 6.09548e-11 ||| 0-0 ||| 1 255 1 |||
ΕU ||| Kulturdiensten und ||| 1 1 0.00392157 5.07957e-05 ||| 0-0 ||| 1 255 1 |||
ΕU ||| Kulturdiensten ||| 1 1 0.00392157 0.003861 ||| 0-0 ||| 1 255 1 |||
ΕU ||| U ||| 0.0487805 0.0215054 0.00784314 0.007722 ||| 0-0 ||| 41 255 2 |||
ΕU ||| Union ||| 8.35268e-06 0.0001251 0.00392157 0.0579151 ||| 0-0 ||| 119722 255 1 |||
ΕU ||| darin besteht , ||| 0.00132979 4.36e-05 0.00392157 2.75938e-06 ||| 0-0 0-1 ||| 752 255 1 |||
ΕU ||| darin besteht ||| 0.000759301 4.36e-05 0.00392157 1.49073e-05 ||| 0-0 0-1 ||| 1317 255 1 |||
ΕU ||| ganzen EU ||| 0.04 0.0033086 0.00392157 4.74108e-05 ||| 0-1 ||| 25 255 1 |||
ΕU ||| gegen ||| 2.41179e-05 1.97e-05 0.00392157 0.003861 ||| 0-0 ||| 41463 255 1 |||
ΕU ||| schließt ||| 0.0013369 0.0007905 0.00392157 0.003861 ||| 0-0 ||| 748 255 1 |||
ΕU ||| und Kulturdiensten und Kulturgütern hinaus ||| 1 1 0.00392157 2.32719e-16 ||| 0-1 ||| 1 255 1 |||
ΕU ||| und Kulturdiensten und Kulturgütern ||| 1 1 0.00392157 8.01928e-13 ||| 0-1 ||| 1 255 1 |||
ΕU ||| und Kulturdiensten und ||| 1 1 0.00392157 6.68273e-07 ||| 0-1 ||| 1 255 1 |||
ΕU ||| und Kulturdiensten ||| 1 1 0.00392157 5.07957e-05 ||| 0-1 ||| 1 255 1 |||
Εuropean Union , true ||| Europäische Union ||| 2.91036e-05 2.87017e-10 1 0.885318 ||| 0-0 1-1 ||| 34360 1 1 |||
Εuropean Union , ||| Europäische Union ||| 2.91036e-05 1.31901e-06 1 0.885318 ||| 0-0 1-1 ||| 34360 1 1 |||
Εuropean Union ||| Europäische Union ||| 2.91036e-05 1.37169e-05 1 0.885318 ||| 0-0 1-1 ||| 34360 1 1 |||
Εuropean ||| Europäische ||| 1.71727e-05 1.61e-05 1 1 ||| 0-0 ||| 58232 1 1 |||
Εuropol and Eurojust by improving ||| Europol und Eurojust durch die Verbesserung der ||| 1 2.6847e-05 1 0.000230909 ||| 0-0 1-1 2-2 3-3 4-5 4-6 ||| 1 1 1 |||
Εuropol and Eurojust by ||| Europol und Eurojust durch die ||| 1 0.000192993 0.5 0.00529651 ||| 0-0 1-1 2-2 3-3 ||| 1 2 1 |||
Εuropol and Eurojust by ||| Europol und Eurojust durch ||| 1 0.000192993 0.5 0.0859475 ||| 0-0 1-1 2-2 3-3 ||| 1 2 1 |||
Εuropol and Eurojust ||| Europol und Eurojust ||| 0.0108696 0.000493658 1 0.630656 ||| 0-0 1-1 2-2 ||| 92 1 1 |||
Εuropol and ||| Europol und ||| 0.00497512 0.000524771 1 0.829391 ||| 0-0 1-1 ||| 201 1 1 |||
Εuropol ||| Europol ||| 0.00058548 0.0006169 1 1 ||| 0-0 ||| 1708 1 1 |||
ΕΙDHR ) it finances ` colored revolutions ||| EIDHR ) finanziert sie \&quot; farbige Revolutionen ||| 1 3.95072e-06 1 0.000178414 ||| 0-0 1-1 0-2 3-2 2-3 4-4 5-5 6-6 ||| 1 1 1 |||
ΕΙDHR ) it finances ` colored ||| EIDHR ) finanziert sie \&quot; farbige ||| 1 4.84282e-06 1 0.000257069 ||| 0-0 1-1 0-2 3-2 2-3 4-4 5-5 ||| 1 1 1 |||
ΕΙDHR ) it finances ` ||| EIDHR ) finanziert sie \&quot; ||| 1 1.45285e-05 1 0.00642673 ||| 0-0 1-1 0-2 3-2 2-3 4-4 ||| 1 1 1 |||
ΕΙDHR ) it finances ||| EIDHR ) finanziert sie ||| 1 5.80088e-05 1 0.0104366 ||| 0-0 1-1 0-2 3-2 2-3 ||| 1 1 1 |||
ΕΙΤ ) . ||| EIT ) richten . ||| 1 0.0113009 1 0.143997 ||| 0-0 1-1 0-2 2-3 ||| 1 1 1 |||
ΕΙΤ ) ||| EIT ) richten ||| 1 0.0120614 1 0.149257 ||| 0-0 1-1 0-2 ||| 1 1 1 |||
ΕΙΤ ||| EIT ||| 0.0235294 0.0280374 1 0.75 ||| 0-0 ||| 85 2 2 |||
Ι , our ||| I betrifft , so wird mit unserem ||| 1 0.000377147 1 3.84354e-10 ||| 0-0 0-1 1-2 2-6 ||| 1 1 1 |||
Ι , ||| I betrifft , so wird mit ||| 1 0.000529565 0.25 9.29589e-09 ||| 0-0 0-1 1-2 ||| 1 4 1 |||
Ι , ||| I betrifft , so wird ||| 1 0.000529565 0.25 1.39473e-06 ||| 0-0 0-1 1-2 ||| 1 4 1 |||
Ι , ||| I betrifft , so ||| 0.5 0.000529565 0.25 0.000153679 ||| 0-0 0-1 1-2 ||| 2 4 1 |||
Ι , ||| I betrifft , ||| 0.5 0.000529565 0.25 0.036835 ||| 0-0 0-1 1-2 ||| 2 4 1 |||
Ι and MEDA ||| I und MEDA ||| 1 0.00153245 1 0.115124 ||| 0-0 1-1 2-2 ||| 1 1 1 |||
Ι and MEDA ΙΙ ||| I und MEDA II ||| 1 6.38526e-06 1 0.0708458 ||| 0-0 1-1 2-2 3-3 ||| 1 1 1 |||
Ι and ||| I und ||| 0.027027 0.00198442 1 0.355453 ||| 0-0 1-1 ||| 74 2 2 |||
Ι and ΙΙ . ||| I und II vorgenommen wurde . ||| 1 2.79855e-06 1 0.00124871 ||| 0-0 1-1 2-2 2-3 2-4 3-5 ||| 1 1 1 |||
Ι and ΙΙ ||| I und II vorgenommen wurde ||| 1 2.98688e-06 1 0.00129432 ||| 0-0 1-1 2-2 2-3 2-4 ||| 1 1 1 |||
Ι should like in particular to ||| Ch möchte insbesondere ||| 1 5.98735e-05 1 0.00605138 ||| 0-0 1-1 2-1 5-1 3-2 4-2 ||| 1 1 1 |||
Ι ||| Ch ||| 0.25 0.166667 0.25 0.142857 ||| 0-0 ||| 4 4 1 |||
Ι ||| I betrifft ||| 0.5 0.00118825 0.25 0.0612245 ||| 0-0 0-1 ||| 2 4 1 |||
Ι ||| I ||| 0.00412371 0.0023328 0.5 0.428571 ||| 0-0 ||| 485 4 2 |||
ΙPPC Directive , which ||| IPPC-Richtlinie , die ||| 0.5 0.000462647 1 0.0425283 ||| 0-0 1-0 2-1 3-2 ||| 2 1 1 |||
ΙPPC Directive , ||| IPPC-Richtlinie , ||| 0.25 0.00848156 1 0.120714 ||| 0-0 1-0 2-1 ||| 4 1 1 |||
ΙPPC Directive and the ||| IPPC-Richtlinie und die ||| 1 0.00877448 1 0.0489606 ||| 0-0 1-0 2-1 3-2 ||| 1 1 1 |||
ΙPPC Directive and ||| IPPC-Richtlinie und ||| 1 0.016189 1 0.166411 ||| 0-0 1-0 2-1 ||| 1 1 1 |||
ΙPPC Directive ||| IPPC-Richtlinie ||| 0.125 0.0190311 1 0.200642 ||| 0-0 1-0 ||| 16 2 2 |||
ΙV ; the strategy which ||| IV ; die Strategie , mit der ||| 1 7.14707e-06 1 3.74778e-06 ||| 0-0 1-1 2-2 3-3 4-5 4-6 ||| 1 1 1 |||
ΙV ; the strategy ||| IV ; die Strategie , ||| 1 0.000551325 0.5 0.00419367 ||| 0-0 1-1 2-2 3-3 ||| 1 2 1 |||
ΙV ; the strategy ||| IV ; die Strategie ||| 1 0.000551325 0.5 0.022656 ||| 0-0 1-1 2-2 3-3 ||| 1 2 1 |||
ΙV ; the ||| IV ; die ||| 1 0.000692798 1 0.0358881 ||| 0-0 1-1 2-2 ||| 1 1 1 |||
ΙV ; ||| IV ; ||| 1 0.00127822 1 0.121979 ||| 0-0 1-1 ||| 1 1 1 |||
ΙV ||| IV ||| 0.00232019 0.0024155 1 0.333333 ||| 0-0 ||| 431 1 1 |||
Ιgnalina and the problem of regional cooperation ||| Ignalina sowie die Probleme der regionalen Zusammenarbeit ||| 1 1.11526e-05 1 1.00823e-05 ||| 0-0 1-1 2-2 3-3 4-4 5-5 6-6 ||| 1 1 1 |||
Ιgnalina and the problem of regional ||| Ignalina sowie die Probleme der regionalen ||| 1 1.46503e-05 1 1.38495e-05 ||| 0-0 1-1 2-2 3-3 4-4 5-5 ||| 1 1 1 |||
Ιgnalina and the problem of ||| Ignalina sowie die Probleme der ||| 1 1.58337e-05 1 4.23624e-05 ||| 0-0 1-1 2-2 3-3 4-4 ||| 1 1 1 |||
Ιgnalina and the problem ||| Ignalina sowie die Probleme ||| 1 6.78481e-05 1 0.000159183 ||| 0-0 1-1 2-2 3-3 ||| 1 1 1 |||
Ιgnalina and the ||| Ignalina sowie die ||| 1 0.00219856 1 0.00641256 ||| 0-0 1-1 2-2 ||| 1 1 1 |||
Ιgnalina and ||| Ignalina sowie ||| 1 0.00405636 1 0.0217954 ||| 0-0 1-1 ||| 1 1 1 |||
Ιgnalina ||| Ignalina ||| 0.0175439 0.008 1 1 ||| 0-0 ||| 57 1 1 |||
ΙΙ , to which most of our ||| II , dem der Großteil unseres ||| 1 8.45054e-08 1 5.06023e-07 ||| 0-0 1-1 3-2 5-3 4-4 5-4 6-5 ||| 1 1 1 |||
ΙΙ , to which most of ||| II , dem der Großteil ||| 1 1.96984e-07 1 1.45159e-05 ||| 0-0 1-1 3-2 5-3 4-4 5-4 ||| 1 1 1 |||
ΙΙ , to which ||| II , dem ||| 0.333333 7.44873e-06 1 0.0173505 ||| 0-0 1-1 3-2 ||| 3 1 1 |||
ΙΙ , to ||| II , ||| 0.00632911 0.000125262 1 0.370239 ||| 0-0 1-1 ||| 158 1 1 |||
ΙΙ , ||| II , ||| 0.00632911 0.00185696 1 0.370239 ||| 0-0 1-1 ||| 158 1 1 |||
ΙΙ . ||| II . ||| 0.00847458 0.00390398 0.5 0.593698 ||| 0-0 1-1 ||| 118 2 1 |||
ΙΙ . ||| II vorgenommen wurde . ||| 1 0.00141026 0.5 0.00351301 ||| 0-0 0-1 0-2 1-3 ||| 1 2 1 |||
ΙΙ to the directive ||| II der Richtlinie aufgeführten wild lebenden ||| 1 0.000102536 0.25 2.86089e-17 ||| 0-0 2-1 3-2 ||| 1 4 1 |||
ΙΙ to the directive ||| II der Richtlinie aufgeführten wild ||| 1 0.000102536 0.25 1.57192e-12 ||| 0-0 2-1 3-2 ||| 1 4 1 |||
ΙΙ to the directive ||| II der Richtlinie aufgeführten ||| 1 0.000102536 0.25 6.04584e-07 ||| 0-0 2-1 3-2 ||| 1 4 1 |||
ΙΙ to the directive ||| II der Richtlinie ||| 0.2 0.000102536 0.25 0.120917 ||| 0-0 2-1 3-2 ||| 5 4 1 |||
ΙΙ to the ||| II der ||| 0.0357143 0.000135819 1 0.159226 ||| 0-0 2-1 ||| 28 1 1 |||
ΙΙ to ||| II ||| 0.000473485 0.000281067 1 0.615385 ||| 0-0 ||| 2112 1 1 |||
ΙΙ we are ||| II erfinden wir ||| 1 0.000145717 1 1.10029e-05 ||| 0-0 2-1 1-2 ||| 1 1 1 |||
ΙΙ ||| II vorgenommen wurde ||| 1 0.00150517 0.166667 0.00364133 ||| 0-0 0-1 0-2 ||| 1 6 1 |||
ΙΙ ||| II ||| 0.00236742 0.0041667 0.833333 0.615385 ||| 0-0 ||| 2112 6 5 |||
ΙΙΙ , compared with the Commission proposal ||| III im Vergleich zum Vorschlag der Kommission ||| 1 1.05701e-06 1 2.33632e-07 ||| 0-0 1-1 2-2 3-2 3-3 4-3 6-4 4-5 5-6 ||| 1 1 1 |||
ΙΙΙ , ||| III im ||| 1 0.000145126 1 0.0019156 ||| 0-0 1-1 ||| 1 1 1 |||
ΙΙΙ and ||| III und ||| 0.0384615 0.00658146 1 0.552928 ||| 0-0 1-1 ||| 26 1 1 |||
ΙΙΙ and ΙV ; the strategy ||| III und IV ; die Strategie , ||| 1 3.62852e-06 0.5 0.0023188 ||| 0-0 1-1 2-2 3-3 4-4 5-5 ||| 1 2 1 |||
ΙΙΙ and ΙV ; the strategy ||| III und IV ; die Strategie ||| 1 3.62852e-06 0.5 0.0125271 ||| 0-0 1-1 2-2 3-3 4-4 5-5 ||| 1 2 1 |||
ΙΙΙ and ΙV ; the ||| III und IV ; die ||| 1 4.55962e-06 1 0.0198435 ||| 0-0 1-1 2-2 3-3 4-4 ||| 1 1 1 |||
ΙΙΙ and ΙV ; ||| III und IV ; ||| 1 8.41255e-06 1 0.0674455 ||| 0-0 1-1 2-2 3-3 ||| 1 1 1 |||
ΙΙΙ and ΙV ||| III und IV ||| 0.0588235 1.58975e-05 1 0.184309 ||| 0-0 1-1 2-2 ||| 17 1 1 |||
ΙΙΙ ||| III ||| 0.00585938 0.0077369 1 0.666667 ||| 0-0 ||| 512 3 3 |||
ΙΝΙ ) ) . ||| INI ) ) . ||| 0.00546448 0.00159788 1 0.0555764 ||| 0-0 1-1 2-2 3-3 ||| 183 1 1 |||
ΙΝΙ ) ) ||| INI ) ) ||| 0.00268097 0.00170541 1 0.0576065 ||| 0-0 1-1 2-2 ||| 373 1 1 |||
ΙΝΙ ) . ||| 6-0223\/2007 ) . ||| 1 0.796731 1 0.0698165 ||| 0-0 1-1 2-2 ||| 1 1 1 |||
ΙΝΙ ) ||| ) ) ||| 0.000454545 3.14629e-05 0.333333 0.425386 ||| 0-0 1-0 1-1 ||| 2200 3 1 |||
ΙΝΙ ) ||| 6-0223\/2007 ) ||| 1 0.850347 0.333333 0.0723668 ||| 0-0 1-1 ||| 1 3 1 |||
ΙΝΙ ) ||| INI ) ||| 0.00278552 0.00200554 0.333333 0.0723668 ||| 0-0 1-1 ||| 359 3 1 |||
ΙΝΙ ||| 6-0223\/2007 ||| 1 1 0.5 0.0909091 ||| 0-0 ||| 1 2 1 |||
ΙΝΙ ||| INI ||| 0.00239234 0.0023585 0.5 0.0909091 ||| 0-0 ||| 418 2 1 |||
ΙΡΑ ) . ||| IPA ) anzunehmen . ||| 1 0.0182503 1 0.0614385 ||| 0-0 1-1 0-2 2-3 ||| 1 1 1 |||
ΙΡΑ ) ||| IPA ) anzunehmen ||| 1 0.0194784 1 0.0636828 ||| 0-0 1-1 0-2 ||| 1 1 1 |||
ΙΡΑ ||| IPA unter anderem ||| 1 0.015212 1 0.016 ||| 0-0 0-1 0-2 ||| 1 1 1 |||
Κemal Ataturk , who , ||| Kemal Atatürk , begangen wurde , der ||| 1 2.19629e-06 1 0.000248438 ||| 0-0 1-1 4-2 0-3 1-4 2-5 3-6 ||| 1 1 1 |||
Κok ||| Kok ||| 0.011236 0.0076923 1 1 ||| 0-0 ||| 89 1 1 |||
Κratsa-Tsagaropoulouon her ||| ratsa-Tsagaropoulou ||| 1 0.25 1 0.500041 ||| 0-0 1-0 ||| 1 1 1 |||
ΚΕΚ ||| KEK ||| 1 0.166667 1 1 ||| 0-0 ||| 1 1 1 |||
ΚΚΕ ( Communist Party of Greece ) ||| KKE ( Kommunistische Partei Griechenlands ) ||| 1 0.002186 1 0.00150562 ||| 0-0 1-1 2-2 3-3 4-4 5-4 6-5 ||| 1 1 1 |||
ΚΚΕ ( Communist Party of Greece ||| KKE ( Kommunistische Partei Griechenlands ||| 1 0.00257071 1 0.0018914 ||| 0-0 1-1 2-2 3-3 4-4 5-4 ||| 1 1 1 |||
ΚΚΕ ( Communist Party ||| KKE ( Kommunistische Partei ||| 1 0.0175422 1 0.0308218 ||| 0-0 1-1 2-2 3-3 ||| 1 1 1 |||
ΚΚΕ ( Communist ||| KKE ( Kommunistische ||| 1 0.0473322 1 0.11966 ||| 0-0 1-1 2-2 ||| 1 1 1 |||
ΚΚΕ ( ||| KKE ( ||| 1 0.0604484 1 0.810948 ||| 0-0 1-1 ||| 1 1 1 |||
ΚΚΕ ||| KKE ||| 0.111111 0.0714286 1 1 ||| 0-0 ||| 9 1 1 |||
Κατά ! ' ) ||| ! \&quot; ) ||| 0.0434783 3.64693e-09 1 0.265949 ||| 1-0 2-1 3-2 ||| 23 1 1 |||
Κατά ! ' ||| ! \&quot; ||| 0.00236407 4.28875e-09 1 0.334092 ||| 1-0 2-1 ||| 423 1 1 |||
Κατά ! ||| ! ||| 3.21347e-05 1.51815e-08 1 0.888597 ||| 1-0 ||| 31119 1 1 |||
Κατά ||| bitte ||| 0.000172861 7.84e-05 1 0.5 ||| 0-0 ||| 5785 1 1 |||
ΜEDIA Plus ||| MEDIA Plus ||| 0.0588235 0.00252224 1 0.370588 ||| 0-0 1-1 ||| 17 1 1 |||
ΜEDIA ||| MEDIA ||| 0.00826446 0.0055249 1 1 ||| 0-0 ||| 121 1 1 |||
Μember of the Commission . - ( ||| Mitglied der Kommission . - ( ||| 0.00884956 0.000118574 1 0.110807 ||| 0-0 1-1 2-1 3-2 4-3 5-4 6-5 ||| 226 2 2 |||
Μember of the Commission . - ||| Mitglied der Kommission . - ||| 0.00122474 0.000140113 1 0.136639 ||| 0-0 1-1 2-1 3-2 4-3 5-4 ||| 1633 2 2 |||
Μember of the Commission . ||| Mitglied der Kommission . ||| 0.00371353 0.000230629 0.777778 0.205972 ||| 0-0 1-1 2-1 3-2 4-3 ||| 1885 9 7 |||
Μember of the Commission . ||| itglied der Kommission . ||| 0.666667 0.0501543 0.222222 0.027463 ||| 0-0 1-1 2-1 3-2 4-3 ||| 3 9 2 |||
Μember of the Commission ||| Mitglied der Kommission ||| 0.00642497 0.00024615 0.875 0.213496 ||| 0-0 1-1 2-1 3-2 ||| 2179 16 14 |||
Μember of the Commission ||| itglied der Kommission ||| 0.666667 0.0535294 0.125 0.0284662 ||| 0-0 1-1 2-1 3-2 ||| 3 16 2 |||
Μember of the ||| Mitglied der ||| 0.00396406 0.000259283 0.882353 0.231559 ||| 0-0 1-1 2-1 ||| 3784 17 15 |||
Μember of the ||| itglied der ||| 0.666667 0.0563855 0.117647 0.0308745 ||| 0-0 1-1 2-1 ||| 3 17 2 |||
Μember ||| Mitglied ||| 0.0020273 0.0022992 0.882353 0.882353 ||| 0-0 ||| 7399 17 15 |||
Μember ||| itglied ||| 0.666667 0.5 0.117647 0.117647 ||| 0-0 ||| 3 17 2 |||
ΜΝΤ network for electromagnetic fields , a ||| MNT-Netzwerk für elektromagnetische Felder , ein ||| 1 0.0155667 1 0.000422607 ||| 0-0 1-0 2-1 3-2 4-3 5-4 6-5 ||| 1 1 1 |||
ΜΝΤ network for electromagnetic fields , ||| MNT-Netzwerk für elektromagnetische Felder , ||| 1 0.0279098 1 0.00266218 ||| 0-0 1-0 2-1 3-2 4-3 5-4 ||| 1 1 1 |||
ΜΝΤ network for electromagnetic fields ||| MNT-Netzwerk für elektromagnetische Felder ||| 1 0.0626247 1 0.00442489 ||| 0-0 1-0 2-1 3-2 4-3 ||| 1 1 1 |||
ΜΝΤ network for electromagnetic ||| MNT-Netzwerk für elektromagnetische ||| 1 0.100108 1 0.0728977 ||| 0-0 1-0 2-1 3-2 ||| 1 1 1 |||
ΜΝΤ network for ||| MNT-Netzwerk für ||| 1 0.11816 1 0.201963 ||| 0-0 1-0 2-1 ||| 1 1 1 |||
ΜΝΤ network ||| MNT-Netzwerk ||| 1 0.25 1 0.500121 ||| 0-0 1-0 ||| 1 1 1 |||
Ν +2 or Ν +3 rule , ||| N+3\/N+2-Regel unterzeichnet , ||| 1 1.91278e-05 1 0.0086295 ||| 0-0 1-0 2-0 3-0 4-0 5-0 3-1 6-2 ||| 1 1 1 |||
Ν +2 or Ν +3 rule . ||| N+2- bzw . N+3-Regel aufgehoben wurde . ||| 1 0.000144038 1 1.28034e-08 ||| 0-0 1-0 3-0 2-1 4-3 5-3 3-4 4-5 6-6 ||| 1 1 1 |||
Ν +2 or Ν +3 rule ||| N+2- bzw . N+3-Regel aufgehoben wurde ||| 1 0.000153731 0.5 1.32711e-08 ||| 0-0 1-0 3-0 2-1 4-3 5-3 3-4 4-5 ||| 1 2 1 |||
Ν +2 or Ν +3 rule ||| N+3\/N+2-Regel unterzeichnet ||| 1 4.29195e-05 0.5 0.0143433 ||| 0-0 1-0 2-0 3-0 4-0 5-0 3-1 ||| 1 2 1 |||
ΝΑΜΑ , the ||| den NAMA betrifft , so sollte die ||| 1 0.000950985 1 5.66437e-05 ||| 0-0 0-1 0-2 1-3 0-4 0-5 2-6 ||| 1 1 1 |||
ΝΑΜΑ , ||| den NAMA betrifft , so sollte ||| 1 0.00175458 1 0.000192524 ||| 0-0 0-1 0-2 1-3 0-4 0-5 ||| 1 1 1 |||
ΝΑΤΟ , Euro-army ) into UN mechanisms ||| NATO , europäische Armee ) in UNO-Mechanismen ||| 1 8.40893e-08 1 1.40568e-06 ||| 0-0 1-1 2-2 2-3 3-4 4-5 5-6 6-6 ||| 1 1 1 |||
ΝΑΤΟ , Euro-army ) into ||| NATO , europäische Armee ) in ||| 1 3.36357e-07 1 0.00767923 ||| 0-0 1-1 2-2 2-3 3-4 4-5 ||| 1 1 1 |||
ΝΑΤΟ , Euro-army ) ||| NATO , europäische Armee ) ||| 1 1.17112e-05 1 0.0213271 ||| 0-0 1-1 2-2 2-3 3-4 ||| 1 1 1 |||
ΝΑΤΟ , Euro-army ||| NATO , europäische Armee ||| 1 1.37723e-05 1 0.0267917 ||| 0-0 1-1 2-2 2-3 ||| 1 1 1 |||
ΝΑΤΟ , following the election in question ||| der nach der besagten Wahl auf ||| 0.5 5.70866e-11 1 1.19962e-06 ||| 0-0 2-1 3-2 0-3 4-4 5-5 ||| 2 1 1 |||
ΝΑΤΟ , following the election in ||| der nach der besagten Wahl auf ||| 0.5 8.69958e-08 1 1.19962e-06 ||| 0-0 2-1 3-2 0-3 4-4 5-5 ||| 2 1 1 |||
ΝΑΤΟ , following the election ||| der nach der besagten Wahl ||| 1 9.57065e-07 1 4.11341e-05 ||| 0-0 2-1 3-2 0-3 4-4 ||| 1 1 1 |||
ΝΑΤΟ , following the ||| der nach der besagten ||| 1 3.55273e-06 1 0.000143949 ||| 0-0 2-1 3-2 0-3 ||| 1 1 1 |||
ΝΑΤΟ , the OSCE and so ||| der NATO , der OSZE und so ||| 1 0.00031921 1 0.00202399 ||| 0-0 0-1 1-2 2-3 3-4 4-5 5-6 ||| 1 1 1 |||
ΝΑΤΟ , the OSCE and ||| der NATO , der OSZE und ||| 0.5 0.00207683 1 0.0105269 ||| 0-0 0-1 1-2 2-3 3-4 4-5 ||| 2 1 1 |||
ΝΑΤΟ , the OSCE ||| der NATO , der OSZE ||| 0.333333 0.00244144 1 0.0126923 ||| 0-0 0-1 1-2 2-3 3-4 ||| 3 1 1 |||
ΝΑΤΟ , the demand for the involvement ||| NATO , der Forderung nach der Einbindung ||| 1 7.18841e-06 1 2.0758e-06 ||| 0-0 1-1 2-2 3-3 4-4 5-5 6-6 ||| 1 1 1 |||
ΝΑΤΟ , the demand for the ||| NATO , der Forderung nach der ||| 1 2.74562e-05 1 3.5886e-05 ||| 0-0 1-1 2-2 3-3 4-4 5-5 ||| 1 1 1 |||
ΝΑΤΟ , the demand for ||| NATO , der Forderung nach ||| 1 5.68184e-05 1 0.000138694 ||| 0-0 1-1 2-2 3-3 4-4 ||| 1 1 1 |||
ΝΑΤΟ , the demand ||| NATO , der Forderung ||| 1 0.00102729 1 0.0117106 ||| 0-0 1-1 2-2 3-3 ||| 1 1 1 |||
ΝΑΤΟ , the ||| NATO , der ||| 0.142857 0.00556964 0.25 0.0739431 ||| 0-0 1-1 2-2 ||| 7 4 1 |||
ΝΑΤΟ , the ||| der NATO , der ||| 0.0909091 0.00278636 0.5 0.0166372 ||| 0-0 0-1 1-2 2-3 ||| 22 4 2 |||
ΝΑΤΟ , the ||| vor der NATO , der ||| 0.5 0.00278636 0.25 7.2445e-05 ||| 0-1 0-2 1-3 2-4 ||| 2 4 1 |||
ΝΑΤΟ , the ΕU or the ||| der NATO , der EU oder den ||| 0.333333 4.76835e-06 1 0.000765798 ||| 0-0 0-1 1-2 2-3 3-4 4-5 5-6 ||| 3 1 1 |||
ΝΑΤΟ , the ΕU or ||| der NATO , der EU oder ||| 0.333333 7.77366e-06 0.5 0.00793964 ||| 0-0 0-1 1-2 2-3 3-4 4-5 ||| 3 2 1 |||
ΝΑΤΟ , the ΕU or ||| vor der NATO , der EU oder ||| 0.5 7.77366e-06 0.5 3.45724e-05 ||| 0-1 0-2 1-3 2-4 3-5 4-6 ||| 2 2 1 |||
ΝΑΤΟ , the ΕU ||| der NATO , der EU ||| 0.2 9.21894e-06 0.5 0.0114983 ||| 0-0 0-1 1-2 2-3 3-4 ||| 5 2 1 |||
ΝΑΤΟ , the ΕU ||| vor der NATO , der EU ||| 0.5 9.21894e-06 0.5 5.00682e-05 ||| 0-1 0-2 1-3 2-4 3-5 ||| 2 2 1 |||
ΝΑΤΟ , together with the ||| die NATO , gemeinsam mit der ||| 1 0.000512621 1 0.000758182 ||| 0-0 0-1 1-2 2-3 3-4 4-5 ||| 1 1 1 |||
ΝΑΤΟ , together with ||| die NATO , gemeinsam mit ||| 1 0.00106083 1 0.00293025 ||| 0-0 0-1 1-2 2-3 3-4 ||| 1 1 1 |||
ΝΑΤΟ , together ||| die NATO , gemeinsam ||| 1 0.00223366 1 0.00664485 ||| 0-0 0-1 1-2 2-3 ||| 1 1 1 |||
ΝΑΤΟ , with its American ||| die NATO mit ihrem amerikanischen ||| 1 8.26576e-05 1 0.000162698 ||| 0-0 0-1 2-2 3-3 4-4 ||| 1 1 1 |||
ΝΑΤΟ , with its ||| die NATO mit ihrem ||| 1 0.000127142 1 0.000417601 ||| 0-0 0-1 2-2 3-3 ||| 1 1 1 |||
ΝΑΤΟ , with ||| der NATO mit ||| 0.25 0.000590871 0.5 0.0471298 ||| 0-0 0-1 2-2 ||| 4 2 1 |||
ΝΑΤΟ , with ||| die NATO mit ||| 0.5 0.000590675 0.5 0.019201 ||| 0-0 0-1 2-2 ||| 2 2 1 |||
ΝΑΤΟ , ||| NATO , ||| 0.0273973 0.0115259 0.222222 0.285778 ||| 0-0 1-1 ||| 73 9 2 |||
ΝΑΤΟ , ||| der NATO , ||| 0.0265487 0.00576614 0.333333 0.0643001 ||| 0-0 0-1 1-2 ||| 113 9 3 |||
ΝΑΤΟ , ||| der NATO ||| 0.000777605 0.00124413 0.111111 0.106875 ||| 0-0 0-1 ||| 1286 9 1 |||
ΝΑΤΟ , ||| die NATO , ||| 0.0188679 0.00576422 0.111111 0.0261963 ||| 0-0 0-1 1-2 ||| 53 9 1 |||
ΝΑΤΟ , ||| die NATO ||| 0.00150376 0.00124372 0.111111 0.0435417 ||| 0-0 0-1 ||| 665 9 1 |||
ΝΑΤΟ , ||| vor der NATO , ||| 0.5 0.00576614 0.111111 0.000279988 ||| 0-1 0-2 1-3 ||| 2 9 1 |||
ΝΑΤΟ . ||| NATO . ||| 0.0571429 0.0242314 0.25 0.45826 ||| 0-0 1-1 ||| 35 8 2 |||
ΝΑΤΟ . ||| NATO abzulenken . ||| 1 0.017321 0.125 0.00381882 ||| 0-0 0-1 1-2 ||| 1 8 1 |||
ΝΑΤΟ . ||| NATO heranzurücken . ||| 1 0.0455782 0.125 0.00381882 ||| 0-0 0-1 1-2 ||| 1 8 1 |||
ΝΑΤΟ . ||| NATO in Frage . ||| 1 0.0242314 0.125 9.90085e-06 ||| 0-0 1-3 ||| 1 8 1 |||
ΝΑΤΟ . ||| der Nato . ||| 0.333333 0.00455497 0.125 0.00180892 ||| 0-0 0-1 1-2 ||| 3 8 1 |||
ΝΑΤΟ . ||| die NATO heranzurücken . ||| 1 0.0455782 0.125 0.000235335 ||| 0-1 0-2 1-3 ||| 1 8 1 |||
ΝΑΤΟ . ||| zur NATO abzulenken . ||| 1 0.017321 0.125 8.1234e-06 ||| 0-1 0-2 1-3 ||| 1 8 1 |||
ΝΑΤΟ ? ||| der NATO ? ||| 0.2 0.0118976 1 0.0982283 ||| 0-0 0-1 1-2 ||| 5 1 1 |||
ΝΑΤΟ and the EU , ||| die und die EU ||| 0.5 2.11049e-07 1 0.0112332 ||| 0-0 1-1 2-2 3-3 ||| 2 1 1 |||
ΝΑΤΟ and the EU and emphasises the ||| NATO und der EU und betont die ||| 1 0.000274634 1 0.00343843 ||| 0-0 1-1 2-2 3-3 4-4 5-5 6-6 ||| 1 1 1 |||
ΝΑΤΟ and the EU and emphasises ||| NATO und der EU und betont ||| 1 0.000506702 1 0.0116868 ||| 0-0 1-1 2-2 3-3 4-4 5-5 ||| 1 1 1 |||
ΝΑΤΟ and the EU and ||| NATO und der EU und ||| 0.333333 0.00755242 1 0.042457 ||| 0-0 1-1 2-2 3-3 4-4 ||| 3 1 1 |||
ΝΑΤΟ and the EU ||| NATO und der EU ||| 0.25 0.00887832 0.666667 0.0511905 ||| 0-0 1-1 2-2 3-3 ||| 8 3 2 |||
ΝΑΤΟ and the EU ||| die und die EU ||| 0.5 2.19478e-06 0.333333 0.0112332 ||| 0-0 1-1 2-2 3-3 ||| 2 3 1 |||
ΝΑΤΟ and the European Union have ||| die NATO und die Europäische Union haben ||| 1 0.00231305 1 0.000583653 ||| 0-0 0-1 1-2 2-3 3-4 4-5 5-6 ||| 1 1 1 |||
ΝΑΤΟ and the European Union ||| NATO und der Europäischen Union ||| 0.142857 0.0079784 0.5 0.0338828 ||| 0-0 1-1 2-2 3-3 4-4 ||| 7 2 1 |||
ΝΑΤΟ and the European Union ||| die NATO und die Europäische Union ||| 0.0833333 0.00460049 0.5 0.00200983 ||| 0-0 0-1 1-2 2-3 3-4 4-5 ||| 12 2 1 |||
ΝΑΤΟ and the European ||| NATO und der Europäischen ||| 0.142857 0.0093645 0.5 0.038272 ||| 0-0 1-1 2-2 3-3 ||| 7 2 1 |||
ΝΑΤΟ and the European ||| die NATO und die Europäische ||| 0.111111 0.00539974 0.5 0.00227018 ||| 0-0 0-1 1-2 2-3 3-4 ||| 9 2 1 |||
ΝΑΤΟ and the United States of ||| der NATO und den Vereinigten Staaten von ||| 1 0.000445794 1 4.56861e-05 ||| 0-0 0-1 1-2 2-3 3-4 3-5 4-5 5-6 ||| 1 1 1 |||
ΝΑΤΟ and the United States ||| der NATO und den Vereinigten Staaten ||| 0.333333 0.00117192 1 0.000446444 ||| 0-0 0-1 1-2 2-3 3-4 3-5 4-5 ||| 3 1 1 |||
ΝΑΤΟ and the governments of the European ||| NATO und die Regierungen der Europischen ||| 1 0.00117873 1 1.94866e-07 ||| 0-0 1-1 2-2 3-3 4-4 5-4 6-5 ||| 1 1 1 |||
ΝΑΤΟ and the governments of the ||| NATO und die Regierungen der ||| 0.5 0.00117873 1 0.0256403 ||| 0-0 1-1 2-2 3-3 4-4 5-4 ||| 2 1 1 |||
ΝΑΤΟ and the governments ||| NATO und die Regierungen ||| 0.333333 0.0104524 1 0.0977023 ||| 0-0 1-1 2-2 3-3 ||| 3 1 1 |||
ΝΑΤΟ and the other imperialist organizations ||| der NATO und den anderen imperialistischen Organisationen ||| 1 0.00322435 1 0.000834737 ||| 0-0 0-1 1-2 2-3 3-4 4-5 5-6 ||| 1 1 1 |||
ΝΑΤΟ and the other imperialist ||| der NATO und den anderen imperialistischen ||| 1 0.00379258 1 0.00174482 ||| 0-0 0-1 1-2 2-3 3-4 4-5 ||| 1 1 1 |||
ΝΑΤΟ and the other ||| der NATO und den anderen ||| 1 0.00426665 1 0.00302921 ||| 0-0 0-1 1-2 2-3 3-4 ||| 1 1 1 |||
ΝΑΤΟ and the ||| NATO und der ||| 0.137931 0.0106309 0.333333 0.101935 ||| 0-0 1-1 2-2 ||| 29 12 4 |||
ΝΑΤΟ and the ||| NATO und die ||| 0.0769231 0.011924 0.0833333 0.11591 ||| 0-0 1-1 2-2 ||| 13 12 1 |||
ΝΑΤΟ and the ||| dass die NATO und die ||| 0.333333 0.00596329 0.0833333 9.93708e-05 ||| 0-1 0-2 1-3 2-4 ||| 3 12 1 |||
ΝΑΤΟ and the ||| der NATO und den ||| 0.166667 0.00675106 0.166667 0.00854967 ||| 0-0 0-1 1-2 2-3 ||| 12 12 2 |||
ΝΑΤΟ and the ||| der NATO und der ||| 0.0140845 0.0053184 0.0833333 0.0229353 ||| 0-0 0-1 1-2 2-3 ||| 71 12 1 |||
ΝΑΤΟ and the ||| die NATO und die ||| 0.0487805 0.00596329 0.166667 0.0106251 ||| 0-0 0-1 1-2 2-3 ||| 41 12 2 |||
ΝΑΤΟ and the ||| die und die ||| 0.111111 2.62804e-06 0.0833333 0.0223685 ||| 0-0 1-1 2-2 ||| 9 12 1 |||
ΝΑΤΟ and the ΕU , ||| NATO und der EU und ||| 0.333333 1.32074e-06 1 0.00138642 ||| 0-0 1-1 2-2 3-3 4-4 ||| 3 1 1 |||
ΝΑΤΟ and the ΕU itself ||| dass die NATO und die EU selbst ||| 0.333333 3.995e-06 0.333333 1.99237e-05 ||| 0-1 0-2 1-3 2-4 3-5 4-6 ||| 3 3 1 |||
ΝΑΤΟ and the ΕU itself ||| die NATO und die EU selbst sie ||| 0.333333 3.995e-06 0.333333 1.14738e-05 ||| 0-0 0-1 1-2 2-3 3-4 4-5 ||| 3 3 1 |||
ΝΑΤΟ and the ΕU itself ||| die NATO und die EU selbst ||| 0.333333 3.995e-06 0.333333 0.00213031 ||| 0-0 0-1 1-2 2-3 3-4 4-5 ||| 3 3 1 |||
ΝΑΤΟ and the ΕU ||| NATO und der EU ||| 0.125 3.51735e-05 0.2 0.070449 ||| 0-0 1-1 2-2 3-3 ||| 8 5 1 |||
ΝΑΤΟ and the ΕU ||| dass die NATO und die EU ||| 0.333333 1.97301e-05 0.2 6.86771e-05 ||| 0-1 0-2 1-3 2-4 3-5 ||| 3 5 1 |||
ΝΑΤΟ and the ΕU ||| der NATO und der EU auserwählte ||| 1 1.75965e-05 0.2 3.17021e-09 ||| 0-0 0-1 1-2 2-3 3-4 ||| 1 5 1 |||
ΝΑΤΟ and the ΕU ||| der NATO und der EU ||| 0.037037 1.75965e-05 0.2 0.015851 ||| 0-0 0-1 1-2 2-3 3-4 ||| 27 5 1 |||
ΝΑΤΟ and the ΕU ||| die NATO und die EU ||| 0.0666667 1.97301e-05 0.2 0.00734318 ||| 0-0 0-1 1-2 2-3 3-4 ||| 15 5 1 |||
ΝΑΤΟ and to ||| der verbinden und ||| 0.5 6.03712e-05 1 0.00311022 ||| 0-0 0-1 1-2 ||| 2 1 1 |||
ΝΑΤΟ and ||| NATO und ||| 0.0530303 0.0219998 0.466667 0.393961 ||| 0-0 1-1 ||| 132 15 7 |||
ΝΑΤΟ and ||| dass die NATO und ||| 0.333333 0.0110023 0.0666667 0.000337748 ||| 0-1 0-2 1-3 ||| 3 15 1 |||
ΝΑΤΟ and ||| der NATO und ||| 0.0192308 0.011006 0.2 0.0886412 ||| 0-0 0-1 1-2 ||| 156 15 3 |||
ΝΑΤΟ and ||| der verbinden und ||| 0.5 0.000894978 0.0666667 0.00311022 ||| 0-0 0-1 1-2 ||| 2 15 1 |||
ΝΑΤΟ and ||| die NATO und ||| 0.0289855 0.0110023 0.133333 0.0361131 ||| 0-0 0-1 1-2 ||| 69 15 2 |||
ΝΑΤΟ and ||| die und ||| 0.0322581 4.84875e-06 0.0666667 0.0760276 ||| 0-0 1-1 ||| 31 15 1 |||
ΝΑΤΟ and ΕU ||| NATO und EU ||| 0.0909091 7.27886e-05 1 0.272274 ||| 0-0 1-1 2-2 ||| 11 1 1 |||
ΝΑΤΟ are jointly ||| NATO treiben gemeinsam ||| 1 3.30141e-05 1 1.50691e-05 ||| 0-0 2-2 ||| 1 1 1 |||
ΝΑΤΟ are ||| NATO treiben ||| 0.5 0.000346032 0.5 2.318e-05 ||| 0-0 ||| 2 2 1 |||
ΝΑΤΟ are ||| NATO ||| 0.00126582 0.000346032 0.5 0.475 ||| 0-0 ||| 790 2 1 |||
ΝΑΤΟ army executes . ||| Armee der NATO ausführt . ||| 1 0.000288516 1 0.0105041 ||| 1-0 0-1 0-2 2-3 3-4 ||| 1 1 1 |||
ΝΑΤΟ army executes ||| Armee der NATO ausführt ||| 1 0.000307932 1 0.0108878 ||| 1-0 0-1 0-2 2-3 ||| 1 1 1 |||
ΝΑΤΟ army ||| Armee der NATO ||| 1 0.0104081 1 0.0762147 ||| 1-0 0-1 0-2 ||| 1 1 1 |||
ΝΑΤΟ fear the people . ||| die vor den Menschen frchten . ||| 1 0.00087444 1 3.01769e-06 ||| 0-0 1-1 2-2 3-3 0-4 4-5 ||| 1 1 1 |||
ΝΑΤΟ fear the people ||| die vor den Menschen frchten ||| 1 0.000933285 1 3.12793e-06 ||| 0-0 1-1 2-2 3-3 0-4 ||| 1 1 1 |||
ΝΑΤΟ in this occupied country - ||| die NATO in diesem besetzten Land - ||| 1 0.00166312 1 0.000323076 ||| 0-0 0-1 1-2 2-3 3-4 4-5 5-6 ||| 1 1 1 |||
ΝΑΤΟ in this occupied country ||| die NATO in diesem besetzten Land ||| 1 0.00273754 1 0.00048701 ||| 0-0 0-1 1-2 2-3 3-4 4-5 ||| 1 1 1 |||
ΝΑΤΟ in this occupied ||| die NATO in diesem besetzten ||| 1 0.00362799 1 0.000910742 ||| 0-0 0-1 1-2 2-3 3-4 ||| 1 1 1 |||
ΝΑΤΟ in this ||| die NATO in diesem ||| 0.5 0.00490846 1 0.00209445 ||| 0-0 0-1 1-2 2-3 ||| 2 1 1 |||
ΝΑΤΟ in ||| der NATO zu stellen ||| 1 0.000155874 0.333333 5.80793e-07 ||| 0-0 0-1 1-2 ||| 1 3 1 |||
ΝΑΤΟ in ||| der NATO zu ||| 0.0833333 0.000155874 0.333333 0.000722379 ||| 0-0 0-1 1-2 ||| 12 3 1 |||
ΝΑΤΟ in ||| die NATO in ||| 0.0769231 0.00733115 0.333333 0.0169124 ||| 0-0 0-1 1-2 ||| 13 3 1 |||
ΝΑΤΟ involves their peoples in the ||| zur NATO zieht deren Bevölkerung in das ||| 1 1.89138e-08 1 3.15806e-10 ||| 0-0 0-1 1-2 2-3 3-4 4-5 5-6 ||| 1 1 1 |||
ΝΑΤΟ involves their peoples in ||| zur NATO zieht deren Bevölkerung in ||| 1 4.56559e-08 1 5.71343e-09 ||| 0-0 0-1 1-2 2-3 3-4 4-5 ||| 1 1 1 |||
ΝΑΤΟ involves their peoples ||| zur NATO zieht deren Bevölkerung ||| 1 8.0548e-08 1 1.47095e-08 ||| 0-0 0-1 1-2 2-3 3-4 ||| 1 1 1 |||
ΝΑΤΟ involves their ||| zur NATO zieht deren ||| 1 5.45903e-06 1 3.24256e-07 ||| 0-0 0-1 1-2 2-3 ||| 1 1 1 |||
ΝΑΤΟ involves ||| zur NATO zieht ||| 1 2.84589e-05 1 9.78144e-06 ||| 0-0 0-1 1-2 ||| 1 1 1 |||
ΝΑΤΟ is being ||| der NATO wird ||| 0.25 5.2861e-05 1 0.00796141 ||| 0-0 0-1 1-2 2-2 ||| 4 1 1 |||
ΝΑΤΟ member states ||| NATO-Mitgliedstaaten ||| 0.142857 0.00437382 1 0.00338467 ||| 0-0 1-0 2-0 ||| 7 1 1 |||
ΝΑΤΟ or the USA ||| der NATO bzw . den USA ||| 1 0.000682215 1 2.05796e-06 ||| 0-0 0-1 1-2 2-4 3-5 ||| 1 1 1 |||
ΝΑΤΟ or the ||| der NATO bzw . den ||| 1 0.00415071 1 2.57132e-06 ||| 0-0 0-1 1-2 2-4 ||| 1 1 1 |||
ΝΑΤΟ or ||| der NATO bzw . ||| 1 0.00676675 0.5 2.6659e-05 ||| 0-0 0-1 1-2 ||| 1 2 1 |||
ΝΑΤΟ or ||| der NATO bzw ||| 1 0.00676675 0.5 0.00497527 ||| 0-0 0-1 1-2 ||| 1 2 1 |||
ΝΑΤΟ simply ||| NATO nicht ||| 0.5 9.00001e-06 1 0.00460598 ||| 0-0 1-1 ||| 2 1 1 |||
ΝΑΤΟ summit in Istanbul ||| NATO-Gipfel in Istanbul stellte sich ||| 1 0.00131413 0.333333 1.29466e-09 ||| 0-0 1-0 2-1 3-2 ||| 1 3 1 |||
ΝΑΤΟ summit in Istanbul ||| NATO-Gipfel in Istanbul stellte ||| 1 0.00131413 0.333333 6.5006e-08 ||| 0-0 1-0 2-1 3-2 ||| 1 3 1 |||
ΝΑΤΟ summit in Istanbul ||| NATO-Gipfel in Istanbul ||| 1 0.00131413 0.333333 0.00187879 ||| 0-0 1-0 2-1 3-2 ||| 1 3 1 |||
ΝΑΤΟ summit in ||| NATO-Gipfel in ||| 0.0833333 0.00139954 1 0.00230151 ||| 0-0 1-0 2-1 ||| 12 1 1 |||
ΝΑΤΟ summit ||| NATO-Gipfel ||| 0.03125 0.00246913 1 0.00592535 ||| 0-0 1-0 ||| 32 1 1 |||
ΝΑΤΟ to include countries in the region ||| NATO auf Länder dieser Region ||| 1 2.60619e-09 1 8.7691e-06 ||| 0-0 1-1 2-1 3-2 5-3 6-4 ||| 1 1 1 |||
ΝΑΤΟ to include countries in the ||| NATO auf Länder dieser ||| 1 3.24729e-09 1 1.27062e-05 ||| 0-0 1-1 2-1 3-2 5-3 ||| 1 1 1 |||
ΝΑΤΟ to include countries in ||| NATO auf Länder ||| 0.5 3.30007e-08 1 0.00383133 ||| 0-0 1-1 2-1 3-2 ||| 2 1 1 |||
ΝΑΤΟ to include countries ||| NATO auf Länder ||| 0.5 1.17242e-06 1 0.00383133 ||| 0-0 1-1 2-1 3-2 ||| 2 1 1 |||
ΝΑΤΟ to include ||| NATO auf ||| 0.25 1.39031e-06 1 0.0130701 ||| 0-0 1-1 2-1 ||| 4 1 1 |||
ΝΑΤΟ when the intervention ||| als die Intervention ||| 0.333333 2.95824e-09 1 0.00737345 ||| 1-0 2-1 3-2 ||| 3 1 1 |||
ΝΑΤΟ when the ||| als die ||| 0.000165673 3.94994e-09 1 0.0337228 ||| 1-0 2-1 ||| 6036 1 1 |||
ΝΑΤΟ when ||| als ||| 6.10307e-06 7.28768e-09 1 0.114619 ||| 1-0 ||| 163852 1 1 |||
ΝΑΤΟ with an ||| die NATO , an deren Spitze ein ||| 1 3.18217e-05 1 9.47095e-14 ||| 0-0 0-1 1-3 2-6 ||| 1 1 1 |||
ΝΑΤΟ with the participation of numerous countries ||| die NATO unter Beteiligung zahlreicher Länder ||| 1 3.9091e-07 1 6.56492e-07 ||| 0-0 0-1 1-2 3-3 4-4 5-4 6-5 ||| 1 1 1 |||
ΝΑΤΟ with the participation of numerous ||| die NATO unter Beteiligung zahlreicher ||| 1 4.6356e-07 1 2.23955e-06 ||| 0-0 0-1 1-2 3-3 4-4 5-4 ||| 1 1 1 |||
ΝΑΤΟ with the participation ||| die NATO unter Beteiligung ||| 0.5 1.0942e-05 1 8.29643e-05 ||| 0-0 0-1 1-2 3-3 ||| 2 1 1 |||
ΝΑΤΟ with the ||| die NATO unter ||| 0.2 2.40734e-05 1 0.000249215 ||| 0-0 0-1 1-2 ||| 5 1 1 |||
ΝΑΤΟ with ||| die NATO , an deren Spitze ||| 1 0.000244277 0.25 5.27423e-13 ||| 0-0 0-1 1-3 ||| 1 4 1 |||
ΝΑΤΟ with ||| die NATO , an deren ||| 1 0.000244277 0.25 2.47616e-08 ||| 0-0 0-1 1-3 ||| 1 4 1 |||
ΝΑΤΟ with ||| die NATO , an ||| 1 0.000244277 0.25 7.92119e-05 ||| 0-0 0-1 1-3 ||| 1 4 1 |||
ΝΑΤΟ with ||| die NATO unter ||| 0.2 0.00049913 0.25 0.000249215 ||| 0-0 0-1 1-2 ||| 5 4 1 |||
ΝΑΤΟ ||| NATO abzulenken ||| 1 0.0184866 0.0147059 0.00395832 ||| 0-0 0-1 ||| 1 68 1 |||
ΝΑΤΟ ||| NATO heranzurücken ||| 1 0.0486454 0.0147059 0.00395832 ||| 0-0 0-1 ||| 1 68 1 |||
ΝΑΤΟ ||| NATO in Frage ||| 1 0.0258621 0.0147059 1.02625e-05 ||| 0-0 ||| 1 68 1 |||
ΝΑΤΟ ||| NATO in ||| 0.1 0.0258621 0.0147059 0.0101218 ||| 0-0 ||| 10 68 1 |||
ΝΑΤΟ ||| NATO treiben ||| 0.5 0.0258621 0.0147059 2.318e-05 ||| 0-0 ||| 2 68 1 |||
ΝΑΤΟ ||| NATO verbinden ||| 1 0.013976 0.0147059 0.00791668 ||| 0-0 0-1 ||| 1 68 1 |||
ΝΑΤΟ ||| NATO zu ||| 0.0833333 0.0258621 0.0147059 0.0148453 ||| 0-0 ||| 12 68 1 |||
ΝΑΤΟ ||| NATO ||| 0.0227848 0.0258621 0.264706 0.475 ||| 0-0 ||| 790 68 18 |||
ΝΑΤΟ ||| dass die NATO ||| 0.047619 0.0129339 0.0147059 0.000407224 ||| 0-1 0-2 ||| 21 68 1 |||
ΝΑΤΟ ||| der NATO verbinden ||| 1 0.013976 0.0147059 0.000410778 ||| 0-1 0-2 ||| 1 68 1 |||
ΝΑΤΟ ||| der NATO ||| 0.0163297 0.0129382 0.308824 0.106875 ||| 0-0 0-1 ||| 1286 68 21 |||
ΝΑΤΟ ||| der Nato ||| 0.0204082 0.0048615 0.0147059 0.00187499 ||| 0-0 0-1 ||| 49 68 1 |||
ΝΑΤΟ ||| der verbinden ||| 1 0.0010521 0.0147059 0.00375001 ||| 0-0 0-1 ||| 1 68 1 |||
ΝΑΤΟ ||| die NATO , ||| 0.0188679 0.0129339 0.0147059 0.00805966 ||| 0-0 0-1 ||| 53 68 1 |||
ΝΑΤΟ ||| die NATO heranzurücken ||| 1 0.0486454 0.0147059 0.000243931 ||| 0-1 0-2 ||| 1 68 1 |||
ΝΑΤΟ ||| die NATO zu ||| 0.166667 0.0258621 0.0147059 0.00091484 ||| 0-1 ||| 6 68 1 |||
ΝΑΤΟ ||| die NATO ||| 0.0150376 0.0129339 0.147059 0.0435417 ||| 0-0 0-1 ||| 665 68 10 |||
ΝΑΤΟ ||| die ||| 5.97389e-07 5.7e-06 0.0147059 0.0916667 ||| 0-0 ||| 1.67395e+06 68 1 |||
ΝΑΤΟ ||| sie ||| 5.48727e-06 5.5e-06 0.0147059 0.0083333 ||| 0-0 ||| 182240 68 1 |||
ΝΑΤΟ ||| vor der NATO ||| 0.5 0.0129382 0.0147059 0.000465377 ||| 0-1 0-2 ||| 2 68 1 |||
ΝΑΤΟ ||| zur NATO abzulenken ||| 1 0.0184866 0.0147059 8.42013e-06 ||| 0-1 0-2 ||| 1 68 1 |||
ΝΑΤΟ ||| zur NATO ||| 0.0135135 0.0129394 0.0147059 0.011875 ||| 0-0 0-1 ||| 74 68 1 |||
Ο-000084 \/ 2011 - ||| -000084\/2011 - ||| 1 0.0225009 1 0.221262 ||| 0-0 1-0 2-0 3-1 ||| 1 1 1 |||
Ο-000084 \/ 2011 - Β7-0314 \/ 2011 ||| -000084\/2011 - 7-0314\/2011 ||| 1 0.000833366 1 0.0737987 ||| 0-0 1-0 2-0 3-1 4-2 5-2 6-2 ||| 1 1 1 |||
Ο-000084 \/ 2011 ||| -000084\/2011 ||| 1 0.037037 1 0.333535 ||| 0-0 1-0 2-0 ||| 1 1 1 |||
Ο-000087 \/ 2011 - Β7-0315 \/ 2011 ||| -000087\/2011 - 7-0315\/2011 ||| 1 9.31537e-07 1 0.110803 ||| 0-0 1-0 3-1 2-2 4-2 6-2 ||| 1 1 1 |||
Ο-000087 \/ ||| -000087\/2011 ||| 1 0.25 1 0.500043 ||| 0-0 1-0 ||| 1 1 1 |||
Ο-0013 \/ 2007 ) by Marcin Libicki ||| von Marcin Libicki ||| 0.0769231 8.54327e-21 1 0.184126 ||| 4-0 5-1 6-2 ||| 13 1 1 |||
Ο-0013 \/ 2007 ) by Marcin ||| von Marcin ||| 0.0714286 9.38359e-21 1 0.21431 ||| 4-0 5-1 ||| 14 1 1 |||
Ο-0013 \/ 2007 ) by ||| von ||| 2.80489e-06 1.40754e-20 1 0.244926 ||| 4-0 ||| 356520 1 1 |||
Ο-0076 \/ 2007\/rev .1 - ||| -0076\/2007\/rev.1 - ||| 1 0.00237314 1 0.267211 ||| 0-0 1-0 2-0 3-0 4-1 ||| 1 1 1 |||
Ο-0076 \/ 2007\/rev .1 ||| -0076\/2007\/rev.1 ||| 1 0.00390625 1 0.402799 ||| 0-0 1-0 2-0 3-0 ||| 1 1 1 |||
Τhe ESΡS is tapping telephone calls . ||| das ESPS hört Telefongespräche ab . ||| 1 4.09215e-13 1 4.38362e-05 ||| 0-0 0-1 1-1 2-1 3-1 1-2 1-3 1-4 6-5 ||| 1 1 1 |||
Τhe ESΡS is tapping telephone calls ||| das ESPS hört Telefongespräche ab ||| 0.333333 4.36753e-13 1 4.54375e-05 ||| 0-0 0-1 1-1 2-1 3-1 1-2 1-3 1-4 ||| 3 1 1 |||
Τhe ESΡS is tapping telephone ||| das ESPS hört Telefongespräche ab ||| 0.333333 5.67212e-09 1 4.54375e-05 ||| 0-0 0-1 1-1 2-1 3-1 1-2 1-3 1-4 ||| 3 1 1 |||
Τhe ESΡS is tapping ||| das ESPS hört Telefongespräche ab ||| 0.333333 0.000520378 1 4.54375e-05 ||| 0-0 0-1 1-1 2-1 3-1 1-2 1-3 1-4 ||| 3 1 1 |||
Τhe Internet is a global public commodity ||| das Internet ist ein umfassendes öffentliches Gebrauchsgut ||| 1 1.1762e-08 1 4.74981e-11 ||| 0-0 1-1 2-2 3-3 4-4 5-5 6-6 ||| 1 1 1 |||
Τhe Internet is a global public ||| das Internet ist ein umfassendes öffentliches ||| 1 3.52861e-08 1 2.32264e-08 ||| 0-0 1-1 2-2 3-3 4-4 5-5 ||| 1 1 1 |||
Τhe Internet is a global ||| das Internet ist ein umfassendes ||| 1 3.97215e-08 1 2.36262e-06 ||| 0-0 1-1 2-2 3-3 4-4 ||| 1 1 1 |||
Τhe Internet is a ||| das Internet ist ein ||| 0.0833333 1.25718e-06 1 0.00144045 ||| 0-0 1-1 2-2 3-3 ||| 12 1 1 |||
Τhe Internet is ||| das Internet ist ||| 0.015625 2.25402e-06 1 0.00907399 ||| 0-0 1-1 2-2 ||| 64 1 1 |||
Τhe Internet ||| das Internet ||| 0.000757576 3.4709e-06 1 0.0256056 ||| 0-0 1-1 ||| 1320 1 1 |||
Τhe Parliament resolution on the ||| Entschließung des Parlaments über die ||| 0.2 3.09918e-07 0.5 7.97175e-05 ||| 2-0 0-1 1-2 3-3 4-4 ||| 5 2 1 |||
Τhe Parliament resolution on the ||| die Entschließung des Parlaments über die ||| 0.2 3.09918e-07 0.5 4.91259e-06 ||| 2-1 0-2 1-3 3-4 4-5 ||| 5 2 1 |||
Τhe Parliament resolution on ||| Entschließung des Parlaments über ||| 0.142857 5.71802e-07 0.5 0.000270949 ||| 2-0 0-1 1-2 3-3 ||| 7 2 1 |||
Τhe Parliament resolution on ||| die Entschließung des Parlaments über ||| 0.166667 5.71802e-07 0.5 1.66972e-05 ||| 2-1 0-2 1-3 3-4 ||| 6 2 1 |||
Τhe Parliament resolution ||| Entschließung des Parlaments ||| 0.00471698 1.51063e-06 0.5 0.00222226 ||| 2-0 0-1 1-2 ||| 212 2 1 |||
Τhe Parliament resolution ||| die Entschließung des Parlaments ||| 0.00793651 1.51063e-06 0.5 0.000136947 ||| 2-1 0-2 1-3 ||| 126 2 1 |||
Τhe Parliament ||| des Parlaments ||| 6.74491e-05 1.64351e-06 1 0.00441104 ||| 0-0 1-1 ||| 14826 1 1 |||
Τhe Progressive Party of the Working People ||| die Fortschrittspartei des werktätigen Volkes ||| 0.333333 7.12713e-07 1 1.54133e-09 ||| 0-0 0-1 1-1 2-1 5-1 3-2 4-2 5-3 6-4 ||| 3 1 1 |||
Τhe Progressive Party of the Working ||| die Fortschrittspartei des werktätigen ||| 0.25 0.00012609 1 4.74475e-07 ||| 0-0 0-1 1-1 2-1 5-1 3-2 4-2 5-3 ||| 4 1 1 |||
Τhe final version of the draft agenda ||| die endgültige Version des Entwurfs der Tagesordnung ||| 0.25 2.31916e-06 1 3.54748e-08 ||| 0-0 0-1 1-1 2-2 3-3 4-3 5-4 5-5 6-6 ||| 4 1 1 |||
Τhe final version of the draft ||| die endgültige Version des Entwurfs der ||| 0.25 6.69723e-06 1 8.23287e-08 ||| 0-0 0-1 1-1 2-2 3-3 4-3 5-4 5-5 ||| 4 1 1 |||
Τhe final version of the ||| die endgültige Version des ||| 0.111111 2.24206e-05 1 0.000105281 ||| 0-0 0-1 1-1 2-2 3-3 4-3 ||| 9 1 1 |||
Τhe final version ||| die endgültige Version ||| 0.0434783 0.000148121 1 0.00127874 ||| 0-0 0-1 1-1 2-2 ||| 23 1 1 |||
Τhe final ||| die endgültige ||| 0.00149701 0.000193037 1 0.00590529 ||| 0-0 0-1 1-1 ||| 668 1 1 |||
Τhe horrifying events in Madrid ||| die entsetzlichen Ereignisse von Madrid ||| 1 9.0122e-07 1 7.22678e-06 ||| 0-0 0-1 1-1 2-2 3-3 4-4 ||| 1 1 1 |||
Τhe horrifying events in ||| die entsetzlichen Ereignisse von ||| 1 9.32776e-07 1 8.59319e-06 ||| 0-0 0-1 1-1 2-2 3-3 ||| 1 1 1 |||
Τhe horrifying events ||| die entsetzlichen Ereignisse ||| 0.333333 5.61531e-05 1 0.00126501 ||| 0-0 0-1 1-1 2-2 ||| 3 1 1 |||
Τhe horrifying ||| die entsetzlichen ||| 0.037037 8.35606e-05 1 0.00306104 ||| 0-0 0-1 1-1 ||| 27 1 1 |||
Τhe next item is Question Time ( ||| der nächste Tagesordnungspunkt ist die Fragestunde ( ||| 0.0714286 7.03619e-10 1 0.00013327 ||| 0-0 1-1 2-2 3-3 4-4 5-5 6-6 ||| 14 1 1 |||
Τhe next item is Question Time ||| der nächste Tagesordnungspunkt ist die Fragestunde ||| 0.0714286 8.31429e-10 1 0.000164339 ||| 0-0 1-1 2-2 3-3 4-4 5-5 ||| 14 1 1 |||
Τhe next item is Question ||| der nächste Tagesordnungspunkt ist die ||| 0.0178571 1.78403e-09 1 0.000280635 ||| 0-0 1-1 2-2 3-3 4-4 ||| 56 1 1 |||
Τhe next item is one-minute speeches ||| als nächster Punkt folgen die einminütigen Ausführungen ||| 0.5 2.31284e-09 1 3.63712e-09 ||| 0-0 1-1 2-2 2-3 3-3 4-5 5-6 ||| 2 1 1 |||
Τhe next item is one-minute ||| als nächster Punkt folgen die einminütigen ||| 0.5 1.03191e-07 1 7.59376e-08 ||| 0-0 1-1 2-2 2-3 3-3 4-5 ||| 2 1 1 |||
Τhe next item is the debate on ||| Nach der Tagesordnung folgt die Aussprache über ||| 0.1 2.67317e-05 1 2.27979e-05 ||| 0-0 0-1 1-2 2-2 2-3 3-3 4-4 5-5 6-6 ||| 20 2 2 |||
Τhe next item is the debate ||| Nach der Tagesordnung folgt die Aussprache ||| 0.0952381 7.06219e-05 1 0.000186984 ||| 0-0 0-1 1-2 2-2 2-3 3-3 4-4 5-5 ||| 21 2 2 |||
Τhe next item is the joint debate ||| als nächster Punkt folgt die Aussprache ||| 0.00425532 2.30243e-09 0.166667 1.48248e-05 ||| 0-0 1-1 2-2 2-3 3-3 4-4 5-5 6-5 ||| 235 6 1 |||
Τhe next item is the joint debate ||| der nächste Punkt ist die gemeinsame Aussprache ||| 0.1875 1.43937e-07 0.5 0.000272322 ||| 0-0 1-1 2-2 3-3 4-4 5-5 6-6 ||| 16 6 3 |||
Τhe next item is the joint debate ||| der nächste Punkt ist die gemeinsame Debatte ||| 0.5 1.43144e-07 0.333333 0.000201465 ||| 0-0 1-1 2-2 3-3 4-4 5-5 6-6 ||| 4 6 2 |||
Τhe next item is the joint ||| der nächste Punkt ist die gemeinsame ||| 0.25 1.65172e-07 1 0.000629911 ||| 0-0 1-1 2-2 3-3 4-4 5-5 ||| 20 5 5 |||
Τhe next item is the recommendation by ||| der Tagesordnung folgt die Empfehlung von ||| 1 3.34775e-08 0.5 0.0014185 ||| 0-0 1-1 2-1 2-2 3-2 4-3 5-4 6-5 ||| 1 2 1 |||
Τhe next item is the recommendation by ||| nach der Tagesordnung folgt die Empfehlung von ||| 1 3.34775e-08 0.5 2.98296e-06 ||| 0-1 1-2 2-2 2-3 3-3 4-4 5-5 6-6 ||| 1 2 1 |||
Τhe next item is the recommendation ||| der Tagesordnung folgt die Empfehlung ||| 0.0107527 2.51986e-07 0.5 0.00579155 ||| 0-0 1-1 2-1 2-2 3-2 4-3 5-4 ||| 93 2 1 |||
Τhe next item is the recommendation ||| nach der Tagesordnung folgt die Empfehlung ||| 0.011236 2.51986e-07 0.5 1.2179e-05 ||| 0-1 1-2 2-2 2-3 3-3 4-4 5-5 ||| 89 2 1 |||
Τhe next item is the report by ||| als nächster Punkt folgt der Bericht von ||| 0.0030581 1.24693e-07 0.25 1.11605e-05 ||| 0-0 1-1 2-2 2-3 3-3 4-4 5-5 6-6 ||| 327 4 1 |||
Τhe next item is the report by ||| der nächste Punkt ist der Bericht von ||| 0.05 6.7694e-08 0.75 0.000262862 ||| 0-0 1-1 2-2 3-3 4-4 5-5 6-6 ||| 60 4 3 |||
Τhe next item is the report ||| als nächster Punkt folgt der Bericht ||| 0.00248756 9.38562e-07 0.25 4.55668e-05 ||| 0-0 1-1 2-2 2-3 3-3 4-4 5-5 ||| 402 4 1 |||
Τhe next item is the report ||| der nächste Punkt ist der Bericht ||| 0.0491803 5.09533e-07 0.75 0.00107323 ||| 0-0 1-1 2-2 3-3 4-4 5-5 ||| 61 4 3 |||
Τhe next item is the vote . ||| der nächste Tagesordnungspunkt ist die Abstimmung . ||| 1 1.70382e-06 1 0.000115001 ||| 0-0 1-1 2-2 3-3 4-4 5-5 6-6 ||| 5 5 5 |||
Τhe next item is the vote ||| der nächste Tagesordnungspunkt ist die Abstimmung ||| 1 1.81848e-06 1 0.000119202 ||| 0-0 1-1 2-2 3-3 4-4 5-5 ||| 5 5 5 |||
Τhe next item is the ||| Nach der Tagesordnung folgt die ||| 0.0285714 8.10409e-05 0.1 0.000432514 ||| 0-0 0-1 1-2 2-2 2-3 3-3 4-4 ||| 70 20 2 |||
Τhe next item is the ||| als nächster Punkt folgt der ||| 0.00242718 1.00628e-06 0.05 5.95968e-05 ||| 0-0 1-1 2-2 2-3 3-3 4-4 ||| 412 20 1 |||
Τhe next item is the ||| als nächster Punkt folgt die ||| 0.00140252 1.12867e-06 0.05 6.77674e-05 ||| 0-0 1-1 2-2 2-3 3-3 4-4 ||| 713 20 1 |||
Τhe next item is the ||| der Tagesordnung folgt die ||| 0.000510465 3.20008e-07 0.05 0.00692023 ||| 0-0 1-1 2-1 2-2 3-2 4-3 ||| 1959 20 1 |||
Τhe next item is the ||| der nächste Punkt ist der ||| 0.047619 5.46296e-07 0.15 0.00140368 ||| 0-0 1-1 2-2 3-3 4-4 ||| 63 20 3 |||
Τhe next item is the ||| der nächste Punkt ist die ||| 0.0561798 6.12742e-07 0.25 0.00159612 ||| 0-0 1-1 2-2 3-3 4-4 ||| 89 20 5 |||
Τhe next item is the ||| der nächste Punkt sind die ||| 0.0416667 8.00619e-08 0.05 8.87615e-05 ||| 0-0 1-1 2-2 3-3 4-4 ||| 24 20 1 |||
Τhe next item is the ||| der nächste Tagesordnungspunkt ist die ||| 0.0892857 2.26346e-06 0.25 0.000247904 ||| 0-0 1-1 2-2 3-3 4-4 ||| 56 20 5 |||
Τhe next item is the ||| nach der Tagesordnung folgt die ||| 0.000533903 3.20008e-07 0.05 1.45525e-05 ||| 0-1 1-2 2-2 2-3 3-3 4-4 ||| 1873 20 1 |||
Τhe next item is voting time . ||| Als nächster Punkt folgt die Abstimmungsstunde . ||| 0.111111 3.41276e-05 0.5 1.21078e-07 ||| 0-0 1-1 2-2 2-3 3-3 4-5 5-5 6-6 ||| 9 2 1 |||
Τhe next item is voting time . ||| als nächster Punkt folgt die Abstimmungsstunde . ||| 0.0111111 3.16975e-07 0.5 4.84314e-07 ||| 0-0 1-1 2-2 2-3 3-3 4-5 5-5 6-6 ||| 90 2 1 |||
Τhe next item is voting time ||| Als nächster Punkt folgt die Abstimmungsstunde ||| 0.111111 3.64243e-05 0.5 1.25501e-07 ||| 0-0 1-1 2-2 2-3 3-3 4-5 5-5 ||| 9 2 1 |||
Τhe next item is voting time ||| als nächster Punkt folgt die Abstimmungsstunde ||| 0.01 3.38306e-07 0.5 5.02005e-07 ||| 0-0 1-1 2-2 2-3 3-3 4-5 5-5 ||| 100 2 1 |||
Τhe next item is ||| Als nächster Punkt folgt die ||| 0.030303 0.000224206 0.025 3.54855e-06 ||| 0-0 1-1 2-2 2-3 3-3 ||| 33 40 1 |||
Τhe next item is ||| Als nächster Punkt folgt ||| 0.0142857 0.000224206 0.025 5.7583e-05 ||| 0-0 1-1 2-2 2-3 3-3 ||| 70 40 1 |||
Τhe next item is ||| Nach der Tagesordnung folgen ||| 0.0555556 1.56591e-05 0.025 0.000131589 ||| 0-0 0-1 1-2 2-2 2-3 3-3 ||| 18 40 1 |||
Τhe next item is ||| Nach der Tagesordnung folgt ||| 0.017094 0.000149521 0.05 0.00147006 ||| 0-0 0-1 1-2 2-2 2-3 3-3 ||| 117 40 2 |||
Τhe next item is ||| als nächster Punkt folgen die ||| 0.00595238 1.66113e-07 0.025 1.27056e-06 ||| 0-0 1-1 2-2 2-3 3-3 ||| 168 40 1 |||
Τhe next item is ||| als nächster Punkt folgen ||| 0.00518135 1.66113e-07 0.025 2.06177e-05 ||| 0-0 1-1 2-2 2-3 3-3 ||| 193 40 1 |||
Τhe next item is ||| als nächster Punkt folgt die ||| 0.00140252 2.08241e-06 0.025 1.41942e-05 ||| 0-0 1-1 2-2 2-3 3-3 ||| 713 40 1 |||
Τhe next item is ||| als nächster Punkt folgt ||| 0.00235664 2.08241e-06 0.075 0.000230332 ||| 0-0 1-1 2-2 2-3 3-3 ||| 1273 40 3 |||
Τhe next item is ||| der Tagesordnung folgt als nächster ||| 1 5.90417e-07 0.025 4.65194e-10 ||| 0-0 1-1 2-1 2-2 3-2 ||| 1 40 1 |||
Τhe next item is ||| der Tagesordnung folgt als ||| 1 5.90417e-07 0.025 4.3476e-05 ||| 0-0 1-1 2-1 2-2 3-2 ||| 1 40 1 |||
Τhe next item is ||| der Tagesordnung folgt ||| 0.00062461 5.90417e-07 0.05 0.0235209 ||| 0-0 1-1 2-1 2-2 3-2 ||| 3202 40 2 |||
Τhe next item is ||| der nächste Punkt auf der Tagesordnung ist ||| 0.16129 1.69083e-06 0.125 6.09122e-07 ||| 0-0 1-1 2-2 2-5 3-6 ||| 31 40 5 |||
Τhe next item is ||| der nächste Punkt ist ||| 0.0491803 1.13052e-06 0.225 0.00542499 ||| 0-0 1-1 2-2 3-3 ||| 183 40 9 |||
Τhe next item is ||| der nächste Punkt sind ||| 0.0322581 1.47715e-07 0.025 0.000301688 ||| 0-0 1-1 2-2 3-3 ||| 31 40 1 |||
Τhe next item is ||| der nächste Tagesordnungspunkt ist ||| 0.0666667 4.17611e-06 0.15 0.00084259 ||| 0-0 1-1 2-2 3-3 ||| 90 40 6 |||
Τhe next item is ||| nach der Tagesordnung folgt als nächster ||| 1 5.90417e-07 0.025 9.78256e-13 ||| 0-1 1-2 2-2 2-3 3-3 ||| 1 40 1 |||
Τhe next item is ||| nach der Tagesordnung folgt als ||| 1 5.90417e-07 0.025 9.14258e-08 ||| 0-1 1-2 2-2 2-3 3-3 ||| 1 40 1 |||
Τhe next item is ||| nach der Tagesordnung folgt ||| 0.000654236 5.90417e-07 0.05 4.94621e-05 ||| 0-1 1-2 2-2 2-3 3-3 ||| 3057 40 2 |||
Τhe next item ||| der nächste Punkt auf der Tagesordnung ||| 0.121951 2.60365e-06 0.238095 1.71886e-06 ||| 0-0 1-1 2-2 2-5 ||| 41 21 5 |||
Τhe next item ||| der nächste Punkt ||| 0.0393701 1.74084e-06 0.47619 0.0153086 ||| 0-0 1-1 2-2 ||| 254 21 10 |||
Τhe next item ||| der nächste Tagesordnungspunkt ||| 0.0555556 6.43066e-06 0.285714 0.00237768 ||| 0-0 1-1 2-2 ||| 108 21 6 |||
Τhe next ||| Als nächster ||| 0.0128205 0.00184299 0.0384615 0.00155773 ||| 0-0 1-1 ||| 78 26 1 |||
Τhe next ||| als nächster ||| 0.00262123 1.71176e-05 0.153846 0.00623091 ||| 0-0 1-1 ||| 1526 26 4 |||
Τhe next ||| der nächste ||| 0.0246479 1.28778e-05 0.807692 0.0765186 ||| 0-0 1-1 ||| 852 26 21 |||
Τhe problem is whether the three ||| fragt sich nur , ob die drei ||| 1 1.42531e-07 1 2.48435e-08 ||| 0-0 1-0 2-1 2-2 3-4 4-5 5-6 ||| 1 1 1 |||
Τhe problem is whether the ||| es fragt sich nur , ob die ||| 1 1.51976e-07 0.5 2.79855e-10 ||| 0-1 1-1 2-2 2-3 3-5 4-6 ||| 1 2 1 |||
Τhe problem is whether the ||| fragt sich nur , ob die ||| 0.333333 1.51976e-07 0.5 2.79063e-08 ||| 0-0 1-0 2-1 2-2 3-4 4-5 ||| 3 2 1 |||
Τhe problem is whether ||| es fragt sich nur , ob ||| 1 2.80398e-07 0.5 9.51189e-10 ||| 0-1 1-1 2-2 2-3 3-5 ||| 1 2 1 |||
Τhe problem is whether ||| fragt sich nur , ob ||| 0.25 2.80398e-07 0.5 9.48496e-08 ||| 0-0 1-0 2-1 2-2 3-4 ||| 4 2 1 |||
Τhe problem is ||| es fragt sich nur , ||| 0.333333 4.2948e-07 0.25 1.30025e-09 ||| 0-1 1-1 2-2 2-3 ||| 3 4 1 |||
Τhe problem is ||| es fragt sich nur ||| 0.25 4.2948e-07 0.25 7.02448e-09 ||| 0-1 1-1 2-2 2-3 ||| 4 4 1 |||
Τhe problem is ||| fragt sich nur , ||| 0.125 4.2948e-07 0.25 1.29656e-07 ||| 0-0 1-0 2-1 2-2 ||| 8 4 1 |||
Τhe problem is ||| fragt sich nur ||| 0.142857 4.2948e-07 0.25 7.00458e-07 ||| 0-0 1-0 2-1 2-2 ||| 7 4 1 |||
Τhe problem ||| es fragt ||| 0.1 7.06654e-06 0.5 0.000104827 ||| 0-1 1-1 ||| 10 2 1 |||
Τhe problem ||| fragt ||| 0.00401606 7.06654e-06 0.5 0.010453 ||| 0-0 1-0 ||| 249 2 1 |||
Τhe second point refers to the financial ||| der zweite Punkt betrifft die Finanzielle ||| 0.5 6.13612e-10 1 1.02973e-05 ||| 0-0 1-1 2-2 3-3 5-4 6-5 ||| 2 1 1 |||
Τhe second point refers to the ||| der zweite Punkt betrifft die ||| 0.0126582 8.85701e-10 1 0.000428434 ||| 0-0 1-1 2-2 3-3 5-4 ||| 79 1 1 |||
Τhe second point refers to ||| der zweite Punkt betrifft ||| 0.00621118 1.63413e-09 1 0.00145619 ||| 0-0 1-1 2-2 3-3 ||| 161 1 1 |||
Τhe second point refers ||| der zweite Punkt betrifft ||| 0.00621118 2.42253e-08 1 0.00145619 ||| 0-0 1-1 2-2 3-3 ||| 161 1 1 |||
Τhe second point ||| der zweite Punkt ||| 0.00167785 5.95449e-06 1 0.0471305 ||| 0-0 1-1 2-2 ||| 596 1 1 |||
Τhe second ||| der zweite ||| 0.000491159 1.29757e-05 1 0.232069 ||| 0-0 1-1 ||| 2036 1 1 |||
Τhe text of the Constitution which ||| der Text der Verfassung , über den ||| 1 1.26763e-08 1 1.16594e-06 ||| 0-0 1-1 2-2 3-2 4-3 5-6 ||| 1 1 1 |||
Τhe text of the Constitution ||| der Text der Verfassung , ||| 1 8.5374e-07 0.333333 0.0139306 ||| 0-0 1-1 2-2 3-2 4-3 ||| 1 3 1 |||
Τhe text of the Constitution ||| der Text der Verfassung , über ||| 1 8.5374e-07 0.333333 4.19716e-05 ||| 0-0 1-1 2-2 3-2 4-3 ||| 1 3 1 |||
Τhe text of the Constitution ||| der Text der Verfassung ||| 0.5 8.5374e-07 0.333333 0.0752591 ||| 0-0 1-1 2-2 3-2 4-3 ||| 2 3 1 |||
Τhe text of the ||| der Text der ||| 0.0147059 1.42318e-06 1 0.0900801 ||| 0-0 1-1 2-2 3-2 ||| 68 1 1 |||
Τhe text ||| der Text ||| 0.000791139 1.26201e-05 1 0.34325 ||| 0-0 1-1 ||| 1264 1 1 |||
Τhe ||| Als ||| 0.00371747 0.0023256 0.027027 0.0208333 ||| 0-0 ||| 269 37 1 |||
Τhe ||| Nach der ||| 0.0136364 0.00374805 0.0810811 0.0364583 ||| 0-0 0-1 ||| 220 37 3 |||
Τhe ||| als ||| 2.44123e-05 2.16e-05 0.108108 0.0833333 ||| 0-0 ||| 163852 37 4 |||
Τhe ||| das ||| 2.36091e-06 4.2e-06 0.027027 0.0416667 ||| 0-0 ||| 423565 37 1 |||
Τhe ||| der ||| 1.77773e-05 1.48e-05 0.675676 0.583333 ||| 0-0 ||| 1.40629e+06 37 25 |||
Τhe ||| des ||| 3.46565e-06 2.1e-06 0.027027 0.0208333 ||| 0-0 ||| 288546 37 1 |||
Τhe ||| nach der ||| 0.000197687 1.48e-05 0.0540541 0.00122669 ||| 0-1 ||| 10117 37 2 |||
Τhere are numerous examples and ||| dafür gibt es zahlreiche Beispiele , und ||| 1 1.46629e-07 1 3.73661e-05 ||| 0-0 0-1 1-1 1-2 2-3 3-4 4-6 ||| 1 1 1 |||
Τhere are numerous examples ||| dafür gibt es zahlreiche Beispiele , ||| 1 1.72371e-07 0.5 4.50525e-05 ||| 0-0 0-1 1-1 1-2 2-3 3-4 ||| 1 2 1 |||
Τhere are numerous examples ||| dafür gibt es zahlreiche Beispiele ||| 0.125 1.72371e-07 0.5 0.000243393 ||| 0-0 0-1 1-1 1-2 2-3 3-4 ||| 8 2 1 |||
Τhere are numerous ||| dafür gibt es zahlreiche ||| 0.166667 2.51433e-07 1 0.000436741 ||| 0-0 0-1 1-1 1-2 2-3 ||| 6 1 1 |||
Τhere are ||| dafür gibt es ||| 0.00471698 1.87123e-06 1 0.0015607 ||| 0-0 0-1 1-1 1-2 ||| 212 1 1 |||
Τhese programs have allowed the Dutch authorities ||| mithilfe dieser Programme konnten die niederländischen Behörden ||| 1 1.59404e-07 1 4.49162e-05 ||| 0-0 0-1 1-2 2-3 3-3 4-4 5-5 6-6 ||| 1 1 1 |||
Τhese programs have allowed the Dutch ||| mithilfe dieser Programme konnten die niederländischen ||| 1 1.78339e-07 1 7.00398e-05 ||| 0-0 0-1 1-2 2-3 3-3 4-4 5-5 ||| 1 1 1 |||
Τhese programs have allowed the ||| mithilfe dieser Programme konnten die ||| 1 2.04916e-07 1 0.000175352 ||| 0-0 0-1 1-2 2-3 3-3 4-4 ||| 1 1 1 |||
Τhese programs have allowed ||| mithilfe dieser Programme konnten ||| 1 3.78072e-07 1 0.000595996 ||| 0-0 0-1 1-2 2-3 3-3 ||| 1 1 1 |||
Τhese programs ||| mithilfe dieser Programme ||| 1 0.000425393 1 0.0965926 ||| 0-0 0-1 1-2 ||| 1 1 1 |||
Τhese ||| mithilfe dieser ||| 0.0526316 0.0004978 1 0.25 ||| 0-0 0-1 ||| 19 1 1 |||
Τhis result gives us all satisfaction ||| das vorliegende Ergebnis stellt uns alle zufrieden ||| 1 1.27528e-09 1 4.90451e-06 ||| 0-0 0-1 1-2 2-3 3-4 4-5 5-6 ||| 1 1 1 |||
Τhis result gives us all ||| das vorliegende Ergebnis stellt uns alle ||| 1 4.87439e-08 1 8.78849e-05 ||| 0-0 0-1 1-2 2-3 3-4 4-5 ||| 1 1 1 |||
Τhis result gives us ||| das vorliegende Ergebnis stellt uns ||| 1 6.82595e-08 1 0.000286052 ||| 0-0 0-1 1-2 2-3 3-4 ||| 1 1 1 |||
Τhis result gives ||| das vorliegende Ergebnis stellt ||| 1 2.1432e-07 1 0.000529994 ||| 0-0 0-1 1-2 2-3 ||| 1 1 1 |||
Τhis result ||| das vorliegende Ergebnis ||| 0.0666667 6.57808e-05 1 0.061381 ||| 0-0 0-1 1-2 ||| 15 1 1 |||
Τhis ||| das vorliegende ||| 0.0126582 0.00013835 1 0.25 ||| 0-0 0-1 ||| 79 1 1 |||
Τurkey 's against Greece ||| der \&quot; \&quot; der Türkei gegenüber Griechenland ||| 1 8.35644e-09 1 4.92136e-08 ||| 0-0 0-1 0-2 1-3 1-4 2-5 3-6 ||| 1 1 1 |||
Τurkey 's against ||| der \&quot; \&quot; der Türkei gegenüber ||| 1 8.70974e-09 1 6.1609e-08 ||| 0-0 0-1 0-2 1-3 1-4 2-5 ||| 1 1 1 |||
Τurkey 's ||| der \&quot; \&quot; der Türkei ||| 1 2.02785e-07 1 3.00845e-06 ||| 0-0 0-1 0-2 1-3 1-4 ||| 1 1 1 |||
Τurkey ||| der \&quot; \&quot; ||| 0.5 1.56333e-05 1 0.148148 ||| 0-0 0-1 0-2 ||| 2 1 1 |||
Υπέρ ! ' ) ||| ! \&quot; ) ||| 0.0434783 3.64693e-09 1 0.265949 ||| 1-0 2-1 3-2 ||| 23 1 1 |||
Υπέρ ! ' ||| ! \&quot; ||| 0.00236407 4.28875e-09 1 0.334092 ||| 1-0 2-1 ||| 423 1 1 |||
Υπέρ ! ||| ! ||| 3.21347e-05 1.51815e-08 1 0.888597 ||| 1-0 ||| 31119 1 1 |||
δή ||| es ||| 3.31082e-06 2.6e-06 1 1 ||| 0-0 ||| 302040 1 1 |||
δή χρημάτων ||| es ||| 3.31082e-06 5.2e-13 1 1 ||| 0-0 ||| 302040 1 1 |||
δεί ||| bei ||| 8.00833e-06 7.7e-06 1 1 ||| 0-0 ||| 124870 1 1 |||
είναι ||| unsere ||| 1.69259e-05 1.87e-05 1 1 ||| 0-0 ||| 59081 1 1 |||
είναι το ||| unsere universelle ||| 1 1.08092e-07 1 0.5 ||| 0-0 1-1 ||| 1 1 1 |||
είναι το κοινό ||| unsere universelle Berufung ||| 1 2.2015e-10 1 0.5 ||| 0-0 1-1 2-2 ||| 1 1 1 |||
είναι το κοινό μας ||| unsere universelle Berufung ausdrückt ||| 1 2.0769e-12 1 0.5 ||| 0-0 1-1 2-2 3-3 ||| 1 1 1 |||
είναι το κοινό μας μέλλον . ||| unsere universelle Berufung ausdrückt : . ||| 1 2.27676e-17 1 0.482379 ||| 0-0 1-1 2-2 3-3 4-4 5-5 ||| 1 1 1 |||
είναι το κοινό μας μέλλον ||| unsere universelle Berufung ausdrückt : ||| 1 2.42997e-17 1 0.5 ||| 0-0 1-1 2-2 3-3 4-4 ||| 1 1 1 |||
κοινό ||| Berufung ||| 0.00277778 0.0020367 1 1 ||| 0-0 ||| 360 1 1 |||
κοινό μας ||| Berufung ausdrückt ||| 1 1.92142e-05 1 1 ||| 0-0 1-1 ||| 1 1 1 |||
κοινό μας μέλλον . ||| Berufung ausdrückt : . ||| 1 2.10632e-10 1 0.964759 ||| 0-0 1-1 2-2 3-3 ||| 1 1 1 |||
κοινό μας μέλλον ||| Berufung ausdrückt : ||| 1 2.24806e-10 1 1 ||| 0-0 1-1 2-2 ||| 1 1 1 |||
μέλλον . ||| : . ||| 0.0769231 1.09623e-05 1 0.964759 ||| 0-0 1-1 ||| 13 1 1 |||
μέλλον ||| : ||| 1.07507e-05 1.17e-05 1 1 ||| 0-0 ||| 93017 1 1 |||
μας ||| ausdrückt ||| 0.0142857 0.009434 1 1 ||| 0-0 ||| 70 1 1 |||
μας μέλλον . ||| ausdrückt : . ||| 1 1.03418e-07 1 0.964759 ||| 0-0 1-1 2-2 ||| 1 1 1 |||
μας μέλλον ||| ausdrückt : ||| 0.333333 1.10378e-07 1 1 ||| 0-0 1-1 ||| 3 1 1 |||
οC . ||| C verursacht . ||| 1 0.00347088 1 0.0535977 ||| 0-0 0-1 1-2 ||| 1 1 1 |||
οC ||| C verursacht ||| 1 0.00370445 1 0.0555556 ||| 0-0 0-1 ||| 1 1 1 |||
σιδηροκέφαλος , which ||| , was soviel heisst wie , ||| 1 0.00325317 0.5 0.000248798 ||| 1-0 0-1 2-1 0-2 0-3 0-4 ||| 1 2 1 |||
σιδηροκέφαλος , which ||| , was soviel heisst wie ||| 1 0.00325317 0.5 0.00134411 ||| 1-0 0-1 2-1 0-2 0-3 0-4 ||| 1 2 1 |||
το ||| universelle ||| 0.00581395 0.0057803 1 0.5 ||| 0-0 ||| 172 1 1 |||
το κοινό ||| universelle Berufung ||| 1 1.17727e-05 1 0.5 ||| 0-0 1-1 ||| 1 1 1 |||
το κοινό μας ||| universelle Berufung ausdrückt ||| 1 1.11064e-07 1 0.5 ||| 0-0 1-1 2-2 ||| 1 1 1 |||
το κοινό μας μέλλον . ||| universelle Berufung ausdrückt : . ||| 1 1.21752e-12 1 0.482379 ||| 0-0 1-1 2-2 3-3 4-4 ||| 1 1 1 |||
το κοινό μας μέλλον ||| universelle Berufung ausdrückt : ||| 1 1.29945e-12 1 0.5 ||| 0-0 1-1 2-2 3-3 ||| 1 1 1 |||
χρημάτων - money is needed . ||| - es ist Geld vonnöten . ||| 0.5 6.23986e-09 1 2.96555e-05 ||| 1-0 4-1 3-2 2-3 4-4 5-5 ||| 2 1 1 |||
χρημάτων - money is needed ||| - es ist Geld vonnöten ||| 0.5 6.65977e-09 1 3.07388e-05 ||| 1-0 4-1 3-2 2-3 4-4 ||| 2 1 1 |||
χρημάτων - ||| - ||| 5.5935e-06 1.21505e-07 1 0.663386 ||| 1-0 ||| 178779 1 1 |||
Аnа ||| n ||| 0.0526316 0.0163934 1 1 ||| 0-0 ||| 19 1 1 |||
Аnа Мaria Gomes ||| n aria Gomes ||| 1 0.0153877 1 0.859551 ||| 0-0 1-1 2-2 ||| 1 1 1 |||
Аnа Мaria ||| n aria ||| 1 0.0163934 1 1 ||| 0-0 1-1 ||| 1 1 1 |||
Добре дошли , Bulgaria ! ||| , Bulgarien ! ||| 1 5.76492e-09 1 0.498048 ||| 2-0 0-1 1-1 3-1 4-2 ||| 1 1 1 |||
Добре дошли , Bulgaria ||| , Bulgarien ||| 0.00558659 7.59464e-08 1 0.560488 ||| 2-0 0-1 1-1 3-1 ||| 179 1 1 |||
Мaria Gomes ||| aria Gomes ||| 1 0.93865 1 0.859551 ||| 0-0 1-1 ||| 1 1 1 |||
Мaria ||| aria ||| 1 1 1 1 ||| 0-0 ||| 1 1 1 |||
Мikolášik for reflecting ||| ikoláik dafür ||| 1 0.0170329 1 0.0643017 ||| 0-0 2-0 0-1 1-1 ||| 1 1 1 |||
Независимая газета ||| Erdölpipeline durch ||| 1 0.00347271 1 0.375 ||| 0-0 1-0 1-1 ||| 1 1 1 |||
Прекрасная ||| \&quot; ||| 1.45317e-05 1.16e-05 1 1 ||| 0-0 ||| 68815 1 1 |||
Прекрасная и гордая страна ! ||| \&quot; l ! ||| 1 2.24031e-11 1 0.888597 ||| 0-0 1-1 2-1 3-1 4-2 ||| 1 1 1 |||
Прекрасная и гордая страна ||| \&quot; l ||| 1 2.95136e-10 1 1 ||| 0-0 1-1 2-1 3-1 ||| 1 1 1 |||
Ты отвечаешь шуткой на злословье ||| Schlamm bewirft ||| 1 0.000177391 1 0.45 ||| 3-0 0-1 1-1 2-1 3-1 4-1 ||| 1 1 1 |||
ден ||| willkommen ||| 0.00108814 0.0006139 1 1 ||| 0-0 ||| 919 1 1 |||
добър ||| herzlich ||| 0.000632111 0.0001869 1 1 ||| 0-0 ||| 1582 1 1 |||
добър ден , Bulgaria ; welcome , ||| , Bulgarien ; herzlich willkommen ||| 0.333333 2.20238e-13 1 0.174987 ||| 2-0 3-1 4-2 0-3 1-4 ||| 3 1 1 |||
добър ден , Bulgaria ; welcome ||| , Bulgarien ; herzlich willkommen ||| 0.333333 2.29034e-12 1 0.174987 ||| 2-0 3-1 4-2 0-3 1-4 ||| 3 1 1 |||
добър ден , Bulgaria ; ||| , Bulgarien ; herzlich willkommen ||| 0.333333 2.61156e-08 1 0.174987 ||| 2-0 3-1 4-2 0-3 1-4 ||| 3 1 1 |||
добър ден ||| herzlich willkommen ||| 0.00434783 1.14738e-07 1 1 ||| 0-0 1-1 ||| 230 1 1 |||
и гордая страна ! ||| l ! ||| 1 1.9313e-06 1 0.888597 ||| 0-0 1-0 2-0 3-1 ||| 1 1 1 |||
и гордая страна ||| l ||| 0.125 2.54428e-05 1 1 ||| 0-0 1-0 2-0 ||| 8 1 1 |||
• . ||| . ||| 9.8056e-07 1.03064e-06 1 0.500898 ||| 0-0 1-0 ||| 2.03965e+06 2 2 |||
• Budgetary supervision should ||| die budgetäre Kontrolle soll ||| 1 1.8813e-06 1 6.42363e-06 ||| 0-0 0-1 1-1 2-2 3-3 ||| 1 1 1 |||
• Budgetary supervision ||| die budgetäre Kontrolle ||| 1 1.44558e-05 1 0.000233329 ||| 0-0 0-1 1-1 2-2 ||| 1 1 1 |||
• Budgetary ||| die budgetäre ||| 0.25 0.000365286 1 0.00141373 ||| 0-0 0-1 1-1 ||| 4 1 1 |||
• Equality - the staff should be ||| Gleichberechtigung - die Personalauswahl sollte ||| 0.5 2.83176e-09 1 1.13274e-06 ||| 0-0 1-0 2-1 3-2 4-3 5-4 ||| 2 1 1 |||
• Equality - the staff should ||| Gleichberechtigung - die Personalauswahl sollte ||| 0.5 1.39702e-07 1 1.13274e-06 ||| 0-0 1-0 2-1 3-2 4-3 5-4 ||| 2 1 1 |||
• Equality - the staff ||| Gleichberechtigung - die Personalauswahl ||| 1 2.15267e-07 1 5.77317e-06 ||| 0-0 1-0 2-1 3-2 4-3 ||| 1 1 1 |||
• Equality - the ||| Gleichberechtigung - die ||| 1 1.2916e-06 1 0.00229613 ||| 0-0 1-0 2-1 3-2 ||| 1 1 1 |||
• Equality - ||| Gleichberechtigung - ||| 0.333333 2.38301e-06 1 0.00780424 ||| 0-0 1-0 2-1 ||| 3 1 1 |||
• Equality ||| Gleichberechtigung ||| 0.00147275 3.9225e-06 1 0.0117642 ||| 0-0 1-0 ||| 679 1 1 |||
• Parliament and the Council should ||| das Europäische Parlament und der Rat sollten ||| 1 1.06409e-06 1 2.85536e-06 ||| 0-0 0-1 1-1 1-2 2-3 3-4 4-5 5-6 ||| 1 1 1 |||
• Parliament and the Council ||| das Europäische Parlament und der Rat ||| 0.00529101 1.59621e-06 1 1.42967e-05 ||| 0-0 0-1 1-1 1-2 2-3 3-4 4-5 ||| 189 1 1 |||
• Parliament and the ||| das Europäische Parlament und der ||| 0.0047619 1.65863e-06 1 2.67477e-05 ||| 0-0 0-1 1-1 1-2 2-3 3-4 ||| 210 1 1 |||
• Parliament and ||| das Europäische Parlament und ||| 0.00115473 3.4324e-06 1 0.000103376 ||| 0-0 0-1 1-1 1-2 2-3 ||| 866 1 1 |||
• Parliament ||| das Europäische Parlament ||| 5.55062e-05 4.03499e-06 1 0.00012464 ||| 0-0 0-1 1-1 1-2 ||| 18016 1 1 |||
• Representatives of the European Parliament , ||| Vertreter des Europäischen Parlaments ||| 0.0123457 1.44058e-08 1 0.00113861 ||| 0-0 1-0 2-1 3-1 4-2 5-3 ||| 81 1 1 |||
• Representatives of the European Parliament ||| Vertreter des Europäischen Parlaments ||| 0.0123457 1.49812e-07 1 0.00113861 ||| 0-0 1-0 2-1 3-1 4-2 5-3 ||| 81 1 1 |||
• Representatives of the European ||| Vertreter des Europäischen ||| 0.0125 1.91422e-07 1 0.00537763 ||| 0-0 1-0 2-1 3-1 4-2 ||| 80 1 1 |||
• Representatives of the ||| Vertreter des ||| 0.0013947 2.1731e-07 1 0.0143229 ||| 0-0 1-0 2-1 3-1 ||| 717 1 1 |||
• Representatives ||| Vertreter ||| 0.00016292 1.43565e-06 1 0.173965 ||| 0-0 1-0 ||| 6138 1 1 |||
• Something that is ||| die ||| 5.97389e-07 3.98623e-16 1 0.148148 ||| 0-0 ||| 1.67395e+06 1 1 |||
• Something that ||| die ||| 5.97389e-07 1.30897e-14 1 0.148148 ||| 0-0 ||| 1.67395e+06 1 1 |||
• Something ||| die ||| 5.97389e-07 8.4e-13 1 0.148148 ||| 0-0 ||| 1.67395e+06 1 1 |||
• Staff - who and how many ||| Personal - wer und wie viel ||| 0.5 5.34741e-12 1 1.90831e-06 ||| 1-0 2-1 3-2 4-3 5-4 6-5 ||| 2 1 1 |||
• Staff - who and how ||| Personal - wer und wie ||| 0.5 3.02652e-10 1 0.00017716 ||| 1-0 2-1 3-2 4-3 5-4 ||| 2 1 1 |||
• Staff - who and ||| Personal - wer und ||| 0.5 2.33636e-09 1 0.000278853 ||| 1-0 2-1 3-2 4-3 ||| 2 1 1 |||
• Staff - who ||| Personal - wer ||| 0.5 2.74653e-09 1 0.000336214 ||| 1-0 2-1 3-2 ||| 2 1 1 |||
• Staff - ||| Personal - ||| 0.2 4.86913e-09 1 0.00850495 ||| 1-0 2-1 ||| 5 1 1 |||
• Staff ||| Personal ||| 0.000668003 8.01471e-09 1 0.0128205 ||| 1-0 ||| 1497 1 1 |||
• The Commission should send Parliament the ||| die Kommission hat dem Parlament die ||| 0.5 1.0324e-16 1 2.2125e-06 ||| 1-0 2-1 5-3 5-4 6-5 ||| 2 1 1 |||
• The Commission should send Parliament ||| die Kommission hat dem Parlament ||| 0.5 1.90479e-16 1 7.51998e-06 ||| 1-0 2-1 5-3 5-4 ||| 2 1 1 |||
• The Commission should send ||| die Kommission hat ||| 0.000242601 4.27404e-16 0.5 0.000381954 ||| 1-0 2-1 ||| 4122 2 1 |||
• The Commission should send ||| die Kommission ||| 1.05344e-05 4.27404e-16 0.5 0.0663069 ||| 1-0 2-1 ||| 94927 2 1 |||
• The Commission should ||| die Kommission hat ||| 0.000242601 2.62695e-12 0.333333 0.000381954 ||| 1-0 2-1 ||| 4122 3 1 |||
• The Commission should ||| die Kommission sollte ||| 0.00134409 4.23704e-10 0.333333 0.0130099 ||| 1-0 2-1 3-2 ||| 744 3 1 |||
• The Commission should ||| die Kommission ||| 1.05344e-05 2.62695e-12 0.333333 0.0663069 ||| 1-0 2-1 ||| 94927 3 1 |||
• The Commission ||| die Kommission hat ||| 0.000242601 6.52885e-10 0.333333 0.000381954 ||| 1-0 2-1 ||| 4122 3 1 |||
• The Commission ||| die Kommission ||| 2.10688e-05 6.52885e-10 0.666667 0.0663069 ||| 1-0 2-1 ||| 94927 3 2 |||
• The ||| die ||| 1.19478e-06 6.8772e-10 1 0.0719166 ||| 1-0 ||| 1.67395e+06 2 2 |||
• What powers will the EEAS have ||| die Befugnisse des EAD ||| 0.5 2.01224e-16 1 0.00169474 ||| 0-0 2-1 4-2 5-3 ||| 2 1 1 |||
• What powers will the EEAS ||| die Befugnisse des EAD ||| 0.5 1.55994e-14 1 0.00169474 ||| 0-0 2-1 4-2 5-3 ||| 2 1 1 |||
• What powers will the ||| die Befugnisse des ||| 0.00819672 1.99458e-14 1 0.00220575 ||| 0-0 2-1 4-2 ||| 122 1 1 |||
• What powers will ||| die Befugnisse ||| 0.00183824 4.86001e-14 1 0.0390332 ||| 0-0 2-1 ||| 544 1 1 |||
• What powers ||| die Befugnisse ||| 0.00183824 6.53192e-12 1 0.0390332 ||| 0-0 2-1 ||| 544 1 1 |||
• What ||| die ||| 5.97389e-07 1.008e-11 1 0.148148 ||| 0-0 ||| 1.67395e+06 1 1 |||
• abolishing the right of veto in ||| · die Abschaffung des Vetorechts in ||| 1 4.95707e-05 1 5.08562e-06 ||| 0-0 1-1 1-2 2-3 4-3 3-4 5-4 6-5 ||| 1 1 1 |||
• abolishing the right of veto ||| · die Abschaffung des Vetorechts ||| 1 8.74547e-05 1 1.30931e-05 ||| 0-0 1-1 1-2 2-3 4-3 3-4 5-4 ||| 1 1 1 |||
• abolishing ||| · die Abschaffung ||| 1 0.00438456 1 0.0054054 ||| 0-0 1-1 1-2 ||| 1 1 1 |||
• as the basic criterion for applying ||| als Basiskriterium für die Anwendung der ||| 1 4.92318e-06 0.5 2.98384e-07 ||| 1-0 2-0 0-1 3-1 4-1 5-2 6-3 6-4 ||| 1 2 1 |||
• as the basic criterion for applying ||| als Basiskriterium für die Anwendung ||| 1 4.92318e-06 0.5 5.75057e-06 ||| 1-0 2-0 0-1 3-1 4-1 5-2 6-3 6-4 ||| 1 2 1 |||
• as the basic criterion for ||| als Basiskriterium für ||| 1 0.000165635 1 0.000238855 ||| 1-0 2-0 0-1 3-1 4-1 5-2 ||| 1 1 1 |||
• as the basic criterion ||| als Basiskriterium ||| 1 0.000350445 1 0.000591478 ||| 1-0 2-0 0-1 3-1 4-1 ||| 1 1 1 |||
• better use of ICONet and ; ||| die bessere Verwendung von ICONet und ; ||| 1 1.65414e-07 1 4.62895e-05 ||| 0-0 1-1 2-2 3-3 4-4 5-5 6-6 ||| 1 1 1 |||
• better use of ICONet and ||| die bessere Verwendung von ICONet und ||| 1 3.12589e-07 1 0.000126496 ||| 0-0 1-1 2-2 3-3 4-4 5-5 ||| 1 1 1 |||
• better use of ICONet ||| die bessere Verwendung von ICONet ||| 1 3.67467e-07 1 0.000152516 ||| 0-0 1-1 2-2 3-3 4-4 ||| 1 1 1 |||
• better use of ||| die bessere Verwendung von ||| 1 7.34934e-07 1 0.000381291 ||| 0-0 1-1 2-2 3-3 ||| 1 1 1 |||
• better use ||| die bessere Verwendung ||| 0.5 1.93203e-06 1 0.00372598 ||| 0-0 1-1 2-2 ||| 2 1 1 |||
• better ||| die bessere ||| 0.00436681 2.95375e-06 1 0.0311265 ||| 0-0 1-1 ||| 229 1 1 |||
• closer links between ||| engere Verbindungen zwischen ||| 0.166667 0.000248667 1 0.0100569 ||| 0-0 1-0 2-1 3-2 ||| 6 1 1 |||
• closer links between ΝΑΤΟ and ||| engere Verbindungen zwischen NATO und ||| 1 5.47062e-06 1 0.00396203 ||| 0-0 1-0 2-1 3-2 4-3 5-4 ||| 1 1 1 |||
• closer links between ΝΑΤΟ ||| engere Verbindungen zwischen NATO ||| 1 6.43104e-06 1 0.00477703 ||| 0-0 1-0 2-1 3-2 4-3 ||| 1 1 1 |||
• closer links ||| engere Verbindungen ||| 0.047619 0.000303523 1 0.013263 ||| 0-0 1-0 2-1 ||| 21 1 1 |||
• closer ||| engere ||| 0.00215517 0.000792971 1 0.0590518 ||| 0-0 1-0 ||| 464 1 1 |||
• creating a regular forum so that ||| Schaffung eines regelmäßigen Forums , ||| 0.5 1.8356e-11 1 4.50823e-05 ||| 1-0 2-1 3-2 4-3 6-4 ||| 2 1 1 |||
• creating a regular forum so ||| Schaffung eines regelmäßigen Forums ||| 0.25 1.21972e-10 1 0.00011214 ||| 1-0 2-1 3-2 4-3 ||| 4 1 1 |||
• creating a regular forum ||| Schaffung eines regelmäßigen Forums ||| 0.25 5.93741e-08 1 0.00011214 ||| 1-0 2-1 3-2 4-3 ||| 4 1 1 |||
• creating a regular ||| Schaffung eines regelmäßigen ||| 0.5 1.24195e-07 1 0.00148149 ||| 1-0 2-1 3-2 ||| 2 1 1 |||
• creating a ||| Schaffung eines ||| 0.000353232 1.82172e-07 1 0.00711928 ||| 1-0 2-1 ||| 2831 1 1 |||
• creating ||| Schaffung ||| 0.000107712 5.02702e-07 1 0.211038 ||| 1-0 ||| 9284 1 1 |||
• educating and training judges , prosecutors ||| Aus- und Weiterbildung von Richtern , Anklägern ||| 0.5 2.54123e-09 1 6.3466e-08 ||| 1-0 2-1 3-2 4-4 5-5 6-6 ||| 2 1 1 |||
• educating and training judges , ||| Aus- und Weiterbildung von Richtern , ||| 0.5 3.81185e-09 1 1.9886e-06 ||| 1-0 2-1 3-2 4-4 5-5 ||| 2 1 1 |||
• educating and training judges ||| Aus- und Weiterbildung von Richtern ||| 0.5 8.55313e-09 1 3.30531e-06 ||| 1-0 2-1 3-2 4-4 ||| 2 1 1 |||
• educating and training ||| Aus- und Weiterbildung von ||| 0.0666667 1.13567e-08 0.5 1.40843e-05 ||| 1-0 2-1 3-2 ||| 15 2 1 |||
• educating and training ||| Aus- und Weiterbildung ||| 0.0035461 1.13567e-08 0.5 0.000828273 ||| 1-0 2-1 3-2 ||| 282 2 1 |||
• educating and ||| Aus- und ||| 0.00282486 1.80333e-08 1 0.00975754 ||| 1-0 2-1 ||| 354 1 1 |||
• educating ||| Aus- ||| 0.00280112 2.11992e-08 1 0.0117647 ||| 1-0 ||| 357 1 1 |||
• eligibility checking and evaluation by international ||| Qualifikationsprüfung und Evaluierung durch internationale ||| 1 1.21515e-12 1 9.14383e-05 ||| 0-0 3-1 4-2 5-3 6-4 ||| 1 1 1 |||
• eligibility checking and evaluation by ||| Qualifikationsprüfung und Evaluierung durch ||| 1 1.31945e-12 1 0.000377189 ||| 0-0 3-1 4-2 5-3 ||| 1 1 1 |||
• eligibility checking and evaluation ||| Qualifikationsprüfung und Evaluierung ||| 1 3.37504e-12 1 0.0027677 ||| 0-0 3-1 4-2 ||| 1 1 1 |||
• eligibility checking and ||| Qualifikationsprüfung und ||| 1 5.4272e-12 1 0.0153591 ||| 0-0 3-1 ||| 1 1 1 |||
• eligibility checking ||| Qualifikationsprüfung ||| 0.25 6.38e-12 1 0.0185185 ||| 0-0 ||| 4 1 1 |||
• eligibility ||| Qualifikationsprüfung ||| 0.25 1.1e-06 1 0.0185185 ||| 0-0 ||| 4 1 1 |||
• establishment of the EEAS , an ||| Einrichtung des EAD , eines ||| 0.5 1.95404e-09 1 0.00025596 ||| 1-0 2-1 3-1 4-2 5-3 6-4 ||| 2 1 1 |||
• establishment of the EEAS , ||| Einrichtung des EAD , ||| 0.5 2.72416e-08 1 0.00791467 ||| 1-0 2-1 3-1 4-2 5-3 ||| 2 1 1 |||
• establishment of the EEAS ||| Einrichtung des EAD ||| 0.25 6.11255e-08 1 0.0131552 ||| 1-0 2-1 3-1 4-2 ||| 4 1 1 |||
• establishment of the ||| Einrichtung des ||| 0.00314465 7.81566e-08 1 0.0171218 ||| 1-0 2-1 3-1 ||| 318 1 1 |||
• establishment ||| Einrichtung ||| 0.000242248 5.16339e-07 1 0.20796 ||| 1-0 ||| 4128 1 1 |||
• even greater ` cooperation ' ||| · die noch stärkere \&quot; Zusammenarbeit \&quot; ||| 1 4.5596e-05 1 1.03762e-05 ||| 0-0 0-1 1-2 2-3 3-4 4-5 5-6 ||| 1 1 1 |||
• even greater ` cooperation ||| · die noch stärkere \&quot; Zusammenarbeit ||| 1 0.000161403 1 2.75979e-05 ||| 0-0 0-1 1-2 2-3 3-4 4-5 ||| 1 1 1 |||
• even greater ` ||| · die noch stärkere \&quot; ||| 1 0.000212024 1 3.79098e-05 ||| 0-0 0-1 1-2 2-3 3-4 ||| 1 1 1 |||
• even greater ||| · die noch stärkere ||| 1 0.000846562 1 6.15632e-05 ||| 0-0 0-1 1-2 2-3 ||| 1 1 1 |||
• even ||| · die noch ||| 1 0.00285714 1 0.00163492 ||| 0-0 0-1 1-2 ||| 1 1 1 |||
• fast decision making regarding funding : ||| schnelle Förderentscheidung : ||| 1 8.97223e-06 1 0.00017021 ||| 1-0 0-1 1-1 2-1 3-1 4-1 5-1 6-2 ||| 1 1 1 |||
• fast decision making regarding funding ||| schnelle Förderentscheidung ||| 1 1.50432e-05 1 0.000223105 ||| 1-0 0-1 1-1 2-1 3-1 4-1 5-1 ||| 1 1 1 |||
• funding exclusively in the form of ||| Förderung ausschließlich in Form von ||| 0.5 4.92688e-11 1 0.000112406 ||| 1-0 2-1 3-2 5-3 6-4 ||| 2 1 1 |||
• funding exclusively in the form ||| Förderung ausschließlich in Form ||| 0.5 1.2952e-10 1 0.00109843 ||| 1-0 2-1 3-2 5-3 ||| 2 1 1 |||
• funding exclusively in the ||| Förderung ausschließlich in ||| 0.25 2.8072e-10 1 0.0028487 ||| 1-0 2-1 3-2 ||| 4 1 1 |||
• funding exclusively in ||| Förderung ausschließlich in ||| 0.25 5.82036e-09 1 0.0028487 ||| 1-0 2-1 3-2 ||| 4 1 1 |||
• funding exclusively ||| Förderung ausschließlich ||| 0.333333 1.02685e-08 1 0.00733409 ||| 1-0 2-1 ||| 3 1 1 |||
• funding ||| Förderung ||| 0.000109445 3.41085e-08 1 0.0105885 ||| 1-0 ||| 9137 1 1 |||
• harmonised invitations to tender and workflows ||| harmonisierte Ausschreibungen und Abläufe ||| 1 1.08112e-08 1 0.00253224 ||| 0-0 1-0 2-1 4-1 5-2 6-3 ||| 1 1 1 |||
• harmonised invitations to tender and ||| harmonisierte Ausschreibungen und ||| 1 1.76221e-06 1 0.0202579 ||| 0-0 1-0 2-1 4-1 5-2 ||| 1 1 1 |||
• harmonised invitations to tender ||| harmonisierte Ausschreibungen ||| 1 2.07158e-06 1 0.024425 ||| 0-0 1-0 2-1 4-1 ||| 1 1 1 |||
• harmonised ||| harmonisierte ||| 0.00277778 0.00209886 1 0.104737 ||| 0-0 1-0 ||| 360 1 1 |||
• increased rationalisation of the ||| eine stärkere Rationalisierung des ||| 0.5 4.20444e-09 1 2.54775e-05 ||| 1-0 1-1 2-2 3-3 4-3 ||| 2 1 1 |||
• increased rationalisation ||| eine stärkere Rationalisierung ||| 0.5 2.77765e-08 1 0.000309447 ||| 1-0 1-1 2-2 ||| 2 1 1 |||
• increased ||| eine stärkere ||| 0.000679348 9.24832e-08 1 0.000710322 ||| 1-0 1-1 ||| 1472 1 1 |||
• independent representation of the EU at ||| unabhängige Vertretung der EU bei ||| 1 1.30503e-06 1 0.000265405 ||| 0-0 1-0 2-1 3-2 4-2 5-3 6-4 ||| 1 1 1 |||
• independent representation of the EU ||| unabhängige Vertretung der EU ||| 1 3.12937e-05 1 0.00853727 ||| 0-0 1-0 2-1 3-2 4-2 5-3 ||| 1 1 1 |||
• independent representation of the ||| unabhängige Vertretung der ||| 1 3.74711e-05 1 0.0170001 ||| 0-0 1-0 2-1 3-2 4-2 ||| 1 1 1 |||
• independent representation ||| unabhängige Vertretung ||| 0.5 0.000332276 1 0.0647788 ||| 0-0 1-0 2-1 ||| 2 1 1 |||
• independent ||| unabhängige ||| 0.000584454 0.000613296 1 0.140411 ||| 0-0 1-0 ||| 1711 1 1 |||
• introducing a European contract law ; ||| Einführung eines europäischen Vertragsrechts ; ||| 1 8.13286e-07 1 8.37796e-06 ||| 0-0 1-0 2-1 3-2 4-3 5-3 6-4 ||| 1 1 1 |||
• introducing a European contract law ||| Einführung eines europäischen Vertragsrechts ||| 0.25 1.5369e-06 1 2.28946e-05 ||| 0-0 1-0 2-1 3-2 4-3 5-3 ||| 4 1 1 |||
• introducing a European ||| Einführung eines europäischen ||| 0.0121951 6.98431e-06 1 0.000829902 ||| 0-0 1-0 2-1 3-2 ||| 82 1 1 |||
• introducing a ||| Einführung eines ||| 0.000934579 8.13407e-06 1 0.00505591 ||| 0-0 1-0 2-1 ||| 1070 1 1 |||
• introducing cooperation between the courts ||| Einführung einer Zusammenarbeit zwischen den Gerichten ||| 1 2.65384e-06 1 1.7557e-05 ||| 0-0 1-0 1-1 2-2 3-3 4-4 5-5 ||| 1 1 1 |||
• introducing cooperation between the ||| Einführung einer Zusammenarbeit zwischen den ||| 1 4.30478e-06 1 8.98777e-05 ||| 0-0 1-0 1-1 2-2 3-3 4-4 ||| 1 1 1 |||
• introducing cooperation between ||| Einführung einer Zusammenarbeit zwischen ||| 1 7.01792e-06 1 0.000931834 ||| 0-0 1-0 1-1 2-2 3-3 ||| 1 1 1 |||
• introducing cooperation ||| Einführung einer Zusammenarbeit ||| 1 8.56608e-06 1 0.0012289 ||| 0-0 1-0 1-1 2-2 ||| 1 1 1 |||
• introducing ||| Einführung einer ||| 0.000970874 1.12526e-05 0.5 0.00168807 ||| 0-0 1-0 1-1 ||| 1030 2 1 |||
• introducing ||| Einführung ||| 0.000117371 2.24459e-05 0.5 0.149873 ||| 0-0 1-0 ||| 8520 2 1 |||
• it calls for ||| sie fordert die ||| 0.05 7.13667e-07 1 0.000193602 ||| 1-0 0-1 2-1 3-1 1-2 ||| 20 1 1 |||
• it confirms the strategic ||| sie bestätigt die strategische ||| 0.5 5.84397e-08 1 0.00533506 ||| 1-0 2-1 3-2 4-3 ||| 2 1 1 |||
• it confirms the ||| sie bestätigt die ||| 0.25 6.28031e-08 1 0.016446 ||| 1-0 2-1 3-2 ||| 4 1 1 |||
• it confirms ||| sie bestätigt ||| 0.0588235 1.15872e-07 1 0.0558976 ||| 1-0 2-1 ||| 17 1 1 |||
• it ||| sie ||| 5.48727e-06 7.87795e-07 1 0.0968382 ||| 1-0 ||| 182240 1 1 |||
• nurturing a common European judicial culture ||| Pflege einer gemeinsamen europäischen Rechtskultur ||| 1 2.23852e-07 1 1.52112e-06 ||| 0-0 1-0 2-1 3-2 4-3 5-4 6-4 ||| 1 1 1 |||
• nurturing a common European ||| Pflege einer gemeinsamen europäischen ||| 1 4.14866e-06 1 0.000177359 ||| 0-0 1-0 2-1 3-2 4-3 ||| 1 1 1 |||
• nurturing a common ||| Pflege einer gemeinsamen ||| 1 4.83162e-06 1 0.0010805 ||| 0-0 1-0 2-1 3-2 ||| 1 1 1 |||
• nurturing a ||| Pflege einer ||| 0.25 8.50702e-06 1 0.00386108 ||| 0-0 1-0 2-1 ||| 4 1 1 |||
• nurturing ||| Pflege ||| 0.00271739 1.94062e-05 1 0.0484749 ||| 0-0 1-0 ||| 368 1 1 |||
• research-intensive SME required in leadership role ||| forschungsintensives KMU in Führungsrolle erforderlich ||| 1 2.84811e-05 1 3.52457e-05 ||| 0-0 1-0 2-1 4-2 5-3 6-3 3-4 ||| 1 1 1 |||
• research-intensive SME ||| forschungsintensives KMU ||| 1 0.00845737 1 0.0130148 ||| 0-0 1-0 2-1 ||| 1 1 1 |||
• research-intensive ||| forschungsintensives ||| 1 0.25 1 0.0477208 ||| 0-0 1-0 ||| 1 1 1 |||
• resolute maintenance and execution of the ||| entschiedene Aufrechterhaltung und Durchführung des ||| 1 1.61741e-08 1 2.078e-05 ||| 0-0 1-0 2-1 3-2 4-3 5-4 6-4 ||| 1 1 1 |||
• resolute maintenance and execution ||| entschiedene Aufrechterhaltung und Durchführung ||| 1 1.06853e-07 1 0.000252392 ||| 0-0 1-0 2-1 3-2 4-3 ||| 1 1 1 |||
• resolute maintenance and ||| entschiedene Aufrechterhaltung und ||| 1 8.67647e-06 1 0.00268257 ||| 0-0 1-0 2-1 3-2 ||| 1 1 1 |||
• resolute maintenance ||| entschiedene Aufrechterhaltung ||| 1 1.01997e-05 1 0.00323438 ||| 0-0 1-0 2-1 ||| 1 1 1 |||
• resolute ||| entschiedene ||| 0.00266667 8.05399e-05 1 0.0255636 ||| 0-0 1-0 ||| 375 1 1 |||
• stabilisation of the country by a ||| Stabilisierung des Landes mithilfe eines ||| 1 2.43246e-06 1 5.6857e-08 ||| 0-0 1-0 2-1 3-1 4-2 5-3 6-4 ||| 1 1 1 |||
• stabilisation of the country by ||| Stabilisierung des Landes mithilfe ||| 1 6.71236e-06 1 1.68542e-06 ||| 0-0 1-0 2-1 3-1 4-2 5-3 ||| 1 1 1 |||
• stabilisation of the country ||| Stabilisierung des Landes ||| 0.0434783 4.65727e-05 1 0.00279645 ||| 0-0 1-0 2-1 3-1 4-2 ||| 23 1 1 |||
• stabilisation of the ||| Stabilisierung des ||| 0.00746269 6.523e-05 1 0.0189382 ||| 0-0 1-0 2-1 3-1 ||| 134 1 1 |||
• stabilisation ||| Stabilisierung ||| 0.00111235 0.00043094 1 0.230021 ||| 0-0 1-0 ||| 899 1 1 |||
• stepping up militarisation and ` preventive ||| · die verstärkte Militarisierung und \&quot; präventive ||| 1 8.87525e-07 1 7.09905e-06 ||| 0-0 0-1 1-2 2-2 3-3 4-4 5-5 6-6 ||| 1 1 1 |||
• stepping up militarisation and ` ||| · die verstärkte Militarisierung und \&quot; ||| 1 1.29325e-06 1 5.26952e-05 ||| 0-0 0-1 1-2 2-2 3-3 4-4 5-5 ||| 1 1 1 |||
• stepping up militarisation and ||| · die verstärkte Militarisierung und ||| 1 5.16366e-06 1 8.55739e-05 ||| 0-0 0-1 1-2 2-2 3-3 4-4 ||| 1 1 1 |||
• stepping up militarisation ||| · die verstärkte Militarisierung ||| 1 6.07019e-06 1 0.000103177 ||| 0-0 0-1 1-2 2-2 3-3 ||| 1 1 1 |||
• stepping up ||| · die verstärkte ||| 1 7.65778e-06 1 0.000114288 ||| 0-0 0-1 1-2 2-2 ||| 1 1 1 |||
• strengthening the AMISOM mission , ||| Stärkung der Mission der AMISOM , ||| 0.5 1.58159e-07 1 0.00333842 ||| 1-0 2-1 4-2 2-3 3-4 5-5 ||| 2 1 1 |||
• strengthening the AMISOM mission ||| Stärkung der Mission der AMISOM ||| 0.5 3.54882e-07 1 0.00554888 ||| 1-0 2-1 4-2 2-3 3-4 ||| 2 1 1 |||
• strengthening ||| Stärkung ||| 0.000214869 1.41154e-06 1 0.431057 ||| 1-0 ||| 4654 1 1 |||
• striving for lasting peace agreements between ||| Bemühungen um dauerhafte Friedensabkommen unter ||| 1 4.35257e-13 1 3.53458e-09 ||| 0-0 1-0 2-1 3-2 4-3 5-3 6-4 ||| 1 1 1 |||
• striving for lasting peace agreements ||| Bemühungen um dauerhafte Friedensabkommen ||| 1 4.94183e-11 1 4.79936e-07 ||| 0-0 1-0 2-1 3-2 4-3 5-3 ||| 1 1 1 |||
• striving for lasting ||| Bemühungen um dauerhafte ||| 1 1.37498e-09 1 5.07895e-05 ||| 0-0 1-0 2-1 3-2 ||| 1 1 1 |||
• striving for ||| Bemühungen um ||| 0.00115741 4.01574e-09 1 0.000246927 ||| 0-0 1-0 2-1 ||| 864 1 1 |||
• striving ||| Bemühungen ||| 0.000128074 9.07897e-08 1 0.0148953 ||| 0-0 1-0 ||| 7808 1 1 |||
• support in building State institutions active ||| Unterstützung beim Aufbau der staatlichen Organe ||| 1 1.2772e-11 1 1.56809e-09 ||| 0-0 1-0 2-1 3-2 3-3 4-4 5-5 6-5 ||| 1 1 1 |||
• support in building State ||| Unterstützung beim Aufbau der staatlichen ||| 1 5.70381e-08 1 4.156e-08 ||| 0-0 1-0 2-1 3-2 3-3 4-4 ||| 1 1 1 |||
• support in building ||| Unterstützung beim Aufbau der ||| 0.5 3.36555e-07 1 1.96986e-06 ||| 0-0 1-0 2-1 3-2 3-3 ||| 2 1 1 |||
• support in ||| Unterstützung beim ||| 0.016129 3.72694e-06 1 0.000489233 ||| 0-0 1-0 2-1 ||| 62 1 1 |||
• support ||| Unterstützung ||| 3.40275e-05 2.35486e-05 1 0.167655 ||| 0-0 1-0 ||| 29388 1 1 |||
• the Commission awards additional ||| die Kommission vergibt ein zusätzliches ||| 0.5 1.79846e-08 1 2.13172e-06 ||| 1-0 2-1 3-2 3-3 4-4 ||| 2 1 1 |||
• the Commission awards ||| die Kommission vergibt ein ||| 0.5 3.91886e-08 1 8.3032e-05 ||| 1-0 2-1 3-2 3-3 ||| 2 1 1 |||
• the Commission ||| die Kommission ||| 1.05344e-05 1.69801e-06 1 0.271266 ||| 1-0 2-1 ||| 94927 1 1 |||
• the application of the US\/NATO plan ||| Anwendung des Plans von USA und NATO ||| 1 1.0176e-07 0.2 5.234e-16 ||| 2-0 1-1 3-1 4-1 0-2 5-2 6-2 ||| 1 5 1 |||
• the application of the US\/NATO plan ||| Anwendung des Plans von USA und ||| 1 1.0176e-07 0.2 3.82044e-11 ||| 2-0 1-1 3-1 4-1 0-2 5-2 6-2 ||| 1 5 1 |||
• the application of the US\/NATO plan ||| Anwendung des Plans von USA ||| 1 1.0176e-07 0.2 2.90393e-09 ||| 2-0 1-1 3-1 4-1 0-2 5-2 6-2 ||| 1 5 1 |||
• the application of the US\/NATO plan ||| Anwendung des Plans von ||| 1 1.0176e-07 0.2 4.54449e-05 ||| 2-0 1-1 3-1 4-1 0-2 5-2 6-2 ||| 1 5 1 |||
• the application of the US\/NATO plan ||| Anwendung des Plans ||| 0.5 1.0176e-07 0.2 0.00267254 ||| 2-0 1-1 3-1 4-1 0-2 5-2 6-2 ||| 2 5 1 |||
• the common approach to increasing competition ||| gemeinsamer Ansatz zur Verstärkung des Wettbewerbs ||| 0.5 6.68362e-09 1 1.01935e-08 ||| 2-0 3-1 4-2 5-3 1-4 6-5 ||| 2 1 1 |||
• the common approach to increasing ||| gemeinsamer Ansatz zur Verstärkung des ||| 0.5 7.43691e-09 1 1.00127e-07 ||| 2-0 3-1 4-2 5-3 1-4 ||| 2 1 1 |||
• the promotion of ||| Förderung des ||| 0.00107875 1.14522e-08 1 0.0704951 ||| 2-0 3-1 ||| 927 1 1 |||
• the promotion ||| Förderung ||| 0.000109445 3.10508e-08 1 0.651799 ||| 2-0 ||| 9137 1 1 |||
• the reactionary reform of the UN ||| reaktionäre Reform der Vereinten Nationen ||| 0.333333 2.37305e-09 1 0.000612703 ||| 2-0 3-1 4-2 5-2 6-3 6-4 ||| 3 1 1 |||
• the reactionary reform of the ||| reaktionäre Reform der ||| 0.25 1.43781e-08 1 0.036101 ||| 2-0 3-1 4-2 5-2 ||| 4 1 1 |||
• the reactionary reform ||| reaktionäre Reform ||| 0.25 1.27498e-07 1 0.137563 ||| 2-0 3-1 ||| 4 1 1 |||
• the reactionary ||| reaktionäre ||| 0.0149254 1.49367e-07 1 0.260684 ||| 2-0 ||| 67 1 1 |||
• the resolution uses the excuse ||| die Entschließung nutzt die Ausrede ||| 0.5 5.00653e-08 1 0.000267817 ||| 1-0 2-1 3-2 4-3 5-4 ||| 2 1 1 |||
• the resolution uses the ||| die Entschließung nutzt die ||| 0.5 9.22499e-08 1 0.00346674 ||| 1-0 2-1 3-2 4-3 ||| 2 1 1 |||
• the resolution uses ||| die Entschließung nutzt ||| 0.333333 1.70202e-07 1 0.011783 ||| 1-0 2-1 3-2 ||| 3 1 1 |||
• the resolution ||| die Entschließung ||| 0.000396825 1.644e-06 1 0.148224 ||| 1-0 2-1 ||| 2520 1 1 |||
• the ||| des ||| 3.46565e-06 1.35434e-06 0.25 0.0565097 ||| 1-0 ||| 288546 4 1 |||
• the ||| die sich dem ||| 0.0196078 2.46941e-06 0.25 0.000114902 ||| 0-0 1-2 ||| 51 4 1 |||
• the ||| die ||| 1.19478e-06 1.78861e-06 0.5 0.294216 ||| 1-0 ||| 1.67395e+06 4 2 |||
• through its policy of ||| mit der Taktik ||| 1 4.93987e-12 1 0.000361846 ||| 1-0 4-1 0-2 ||| 1 1 1 |||
• unprovoked intervention in the internal ||| · die grundlose Einmischung in die inneren ||| 1 6.01018e-05 1 6.44147e-08 ||| 0-0 0-1 1-2 2-3 3-4 4-5 5-6 ||| 1 1 1 |||
• unprovoked intervention in the ||| · die grundlose Einmischung in die ||| 1 8.07392e-05 1 1.3594e-06 ||| 0-0 0-1 1-2 2-3 3-4 4-5 ||| 1 1 1 |||
• unprovoked intervention in ||| · die grundlose Einmischung in ||| 1 0.000148964 1 4.62042e-06 ||| 0-0 0-1 1-2 2-3 3-4 ||| 1 1 1 |||
• unprovoked intervention ||| · die grundlose Einmischung ||| 1 0.000262809 1 1.18955e-05 ||| 0-0 0-1 1-2 2-3 ||| 1 1 1 |||
• unprovoked ||| · die grundlose ||| 1 0.00238105 1 0.000477128 ||| 0-0 0-1 1-2 ||| 1 1 1 |||
• use of the EEAS as a ||| Nutzung des EAD als ||| 1 4.42487e-07 1 0.000368726 ||| 0-0 1-0 2-1 3-1 4-2 5-3 6-3 ||| 1 1 1 |||
• use of the EEAS ||| Nutzung des EAD ||| 1 1.3501e-05 1 0.00376343 ||| 0-0 1-0 2-1 3-1 4-2 ||| 1 1 1 |||
• use of the ||| Nutzung des ||| 0.00179211 1.72627e-05 1 0.0048982 ||| 0-0 1-0 2-1 3-1 ||| 558 1 1 |||
• use ||| Nutzung ||| 0.000192678 0.000114045 1 0.0594932 ||| 0-0 1-0 ||| 5190 1 1 |||
• ||| Qualifikationsprüfung ||| 0.25 0.333333 0.0833333 0.0185185 ||| 0-0 ||| 4 12 1 |||
• ||| Taktik ||| 0.00558659 0.0046729 0.0833333 0.0185185 ||| 0-0 ||| 179 12 1 |||
• ||| die sich ||| 9.51837e-05 4.2e-06 0.0833333 0.00295052 ||| 0-0 ||| 10506 12 1 |||
• ||| die ||| 2.38956e-06 4.2e-06 0.333333 0.148148 ||| 0-0 ||| 1.67395e+06 12 4 |||
• ||| folgende Bereiche ||| 0.0714286 0.00021365 0.0833333 0.000342935 ||| 0-0 0-1 ||| 14 12 1 |||
• ||| · die ||| 0.75 0.0500021 0.25 0.0109739 ||| 0-0 0-1 ||| 4 12 3 |||
• ||| · ||| 0.0357143 0.1 0.0833333 0.0740741 ||| 0-0 ||| 28 12 1 |||
− I believe this is only ||| - ich glaube , das ist nur ||| 1 3.0266e-06 1 0.00038934 ||| 0-0 1-1 2-2 3-4 4-5 5-6 ||| 1 1 1 |||
